{"learner":{"attributes":{"scikit_learn":"{\"_estimator_type\": \"classifier\"}"},"feature_names":[],"feature_types":[],"gradient_booster":{"model":{"gbtree_model_param":{"num_parallel_tree":"1","num_trees":"400"},"iteration_indptr":[0,4,8,12,16,20,24,28,32,36,40,44,48,52,56,60,64,68,72,76,80,84,88,92,96,100,104,108,112,116,120,124,128,132,136,140,144,148,152,156,160,164,168,172,176,180,184,188,192,196,200,204,208,212,216,220,224,228,232,236,240,244,248,252,256,260,264,268,272,276,280,284,288,292,296,300,304,308,312,316,320,324,328,332,336,340,344,348,352,356,360,364,368,372,376,380,384,388,392,396,400],"tree_info":[0,1,2,3,0,1,2,3,0,1,2,3,0,1,2,3,0,1,2,3,0,1,2,3,0,1,2,3,0,1,2,3,0,1,2,3,0,1,2,3,0,1,2,3,0,1,2,3,0,1,2,3,0,1,2,3,0,1,2,3,0,1,2,3,0,1,2,3,0,1,2,3,0,1,2,3,0,1,2,3,0,1,2,3,0,1,2,3,0,1,2,3,0,1,2,3,0,1,2,3,0,1,2,3,0,1,2,3,0,1,2,3,0,1,2,3,0,1,2,3,0,1,2,3,0,1,2,3,0,1,2,3,0,1,2,3,0,1,2,3,0,1,2,3,0,1,2,3,0,1,2,3,0,1,2,3,0,1,2,3,0,1,2,3,0,1,2,3,0,1,2,3,0,1,2,3,0,1,2,3,0,1,2,3,0,1,2,3,0,1,2,3,0,1,2,3,0,1,2,3,0,1,2,3,0,1,2,3,0,1,2,3,0,1,2,3,0,1,2,3,0,1,2,3,0,1,2,3,0,1,2,3,0,1,2,3,0,1,2,3,0,1,2,3,0,1,2,3,0,1,2,3,0,1,2,3,0,1,2,3,0,1,2,3,0,1,2,3,0,1,2,3,0,1,2,3,0,1,2,3,0,1,2,3,0,1,2,3,0,1,2,3,0,1,2,3,0,1,2,3,0,1,2,3,0,1,2,3,0,1,2,3,0,1,2,3,0,1,2,3,0,1,2,3,0,1,2,3,0,1,2,3,0,1,2,3,0,1,2,3,0,1,2,3,0,1,2,3,0,1,2,3,0,1,2,3,0,1,2,3,0,1,2,3,0,1,2,3,0,1,2,3,0,1,2,3,0,1,2,3,0,1,2,3,0,1,2,3,0,1,2,3,0,1,2,3,0,1,2,3],"trees":[{"base_weights":[2.0815986E-3,2.4272875E-1,-6.661426E-2,7.4293864E-1,-6.661353E-2,-6.5648854E-2,7.8399277E-1,-6.561265E-2,8.2594806E-1,8.690249E-1,-6.558045E-2,9.1437005E-2,-6.5573774E-2],"categories":[],"categories_nodes":[],"categories_segments":[],"categories_sizes":[],"default_left":[0,0,0,0,0,0,0,0,0,0,0,0,0],"id":0,"left_children":[1,3,-1,5,-1,-1,7,-1,9,11,-1,-1,-1],"loss_changes":[7.72675E2,1.6065635E3,0E0,1.3145557E2,0E0,0E0,1.3435107E2,0E0,1.379541E2,1.4524194E2,0E0,0E0,0E0],"parents":[2147483647,0,0,1,1,3,3,6,6,8,8,9,9],"right_children":[2,4,-1,6,-1,-1,8,-1,10,12,-1,-1,-1],"split_conditions":[4.5932627E-1,2.9802322E-8,-6.661426E-2,4.8984608E-1,-6.661353E-2,-6.5648854E-2,4.9526313E-1,-6.561265E-2,1.8584101E-1,1.1139993E-1,-6.558045E-2,9.1437005E-2,-6.5573774E-2],"split_indices":[84,33,0,47,0,0,51,0,37,27,0,0,0],"split_type":[0,0,0,0,0,0,0,0,0,0,0,0,0],"sum_hessian":[4.803E3,3.53175E3,1.27125E3,2.278125E3,1.253625E3,6.45E1,2.213625E3,6.225E1,2.151375E3,2.091E3,6.0375E1,2.031E3,6E1],"tree_param":{"num_deleted":"0","num_feature":"105","num_nodes":"13","size_leaf_vector":"1"}},{"base_weights":[-8.561866E-3,-6.659194E-1,1.8680131E0,-6.664797E-2,6.896552E-2,-6.559356E-2,1.998318E-1,-3.529412E-2,4.0000003E-2],"categories":[],"categories_nodes":[],"categories_segments":[],"categories_sizes":[],"default_left":[0,0,0,0,0,0,0,0,0],"id":1,"left_children":[1,3,5,-1,7,-1,-1,-1,-1],"loss_changes":[5.9444824E3,1.5153809E0,4.1245508E2,0E0,6.474645E-1,0E0,0E0,0E0,0E0],"parents":[2147483647,0,0,1,1,2,2,4,4],"right_children":[2,4,6,-1,8,-1,-1,-1,-1],"split_conditions":[1.1139993E-1,5.412019E-1,1.4785642E-2,-6.664797E-2,5.229958E-3,-6.559356E-2,1.998318E-1,-3.529412E-2,4.0000003E-2],"split_indices":[27,6,21,0,21,0,0,0,0],"split_type":[0,0,0,0,0,0,0,0,0],"sum_hessian":[4.816875E3,3.56775E3,1.249125E3,3.565125E3,2.625E0,6.1125E1,1.188E3,1.125E0,1.5E0],"tree_param":{"num_deleted":"0","num_feature":"105","num_nodes":"9","size_leaf_vector":"1"}},{"base_weights":[-3.130707E-4,1.9908438E0,-6.66481E-2,-5.1428575E-2,1.9983307E-1],"categories":[],"categories_nodes":[],"categories_segments":[],"categories_sizes":[],"default_left":[0,0,0,0,0],"id":2,"left_children":[1,3,-1,-1,-1],"loss_changes":[6.356656E3,2.3560059E1,0E0,0E0,0E0],"parents":[2147483647,0,0,1,1],"right_children":[2,4,-1,-1,-1],"split_conditions":[4.2695674E-1,2.9802322E-8,-6.66481E-2,-5.1428575E-2,1.9983307E-1],"split_indices":[12,36,0,0,0],"split_type":[0,0,0,0,0],"sum_hessian":[4.79025E3,1.200375E3,3.589875E3,3.375E0,1.197E3],"tree_param":{"num_deleted":"0","num_feature":"105","num_nodes":"5","size_leaf_vector":"1"}},{"base_weights":[-3.950104E-3,-6.595041E-1,2.163288E-1,-6.661143E-2,1.5E-1,6.306036E-1,-5.4627895E-1,5.919154E-1,1.9692898E-1,1.9655173E-1,-6.6611625E-2,5.527001E-1,1.9680001E-1,5.1201767E-1,1.9674134E-1,4.6925705E-2,1.9672132E-1],"categories":[],"categories_nodes":[],"categories_segments":[],"categories_sizes":[],"default_left":[0,0,0,0,0,0,0,0,0,0,0,0,0,0,0,0,0],"id":3,"left_children":[1,3,5,-1,-1,7,9,11,-1,-1,-1,13,-1,15,-1,-1,-1],"loss_changes":[6.947294E2,1.8271606E1,1.1380055E3,0E0,0E0,1.19708984E2,3.830235E2,1.2139618E2,0E0,0E0,0E0,1.2608612E2,0E0,1.327287E2,0E0,0E0,0E0],"parents":[2147483647,0,0,1,1,2,2,5,5,6,6,7,7,11,11,13,13],"right_children":[2,4,6,-1,-1,8,10,12,-1,-1,-1,14,-1,16,-1,-1,-1],"split_conditions":[4.2695674E-1,5.0004554E-1,1.1139993E-1,-6.661143E-2,1.5E-1,1.1387682E-1,1.4785642E-2,1.8584101E-1,1.9692898E-1,1.9655173E-1,-6.6611625E-2,1.8512958E-1,1.9680001E-1,1.9861229E-1,1.9674134E-1,4.6925705E-2,1.9672132E-1],"split_indices":[12,18,27,0,0,21,21,37,0,0,0,38,0,41,0,0,0],"split_type":[0,0,0,0,0,0,0,0,0,0,0,0,0,0,0,0,0],"sum_hessian":[4.809E3,1.209E3,3.6E3,1.206E3,3E0,2.332875E3,1.267125E3,2.26875E3,6.4125E1,5.7E1,1.210125E3,2.20725E3,6.15E1,2.146875E3,6.0375E1,2.086875E3,6E1],"tree_param":{"num_deleted":"0","num_feature":"105","num_nodes":"17","size_leaf_vector":"1"}},{"base_weights":[1.0455102E-2,2.308185E-1,-6.511562E-2,6.6557E-1,-6.50733E-2,-6.778141E-2,7.0540583E-1,-6.77404E-2,7.458987E-1,7.889321E-1,-6.0688764E-1,8.316832E-2,-6.666831E-2,7.041028E-2,-6.628935E-2],"categories":[],"categories_nodes":[],"categories_segments":[],"categories_sizes":[],"default_left":[0,0,0,0,0,0,0,0,0,0,0,0,0,0,0],"id":4,"left_children":[1,3,-1,5,-1,-1,7,-1,9,11,13,-1,-1,-1,-1],"loss_changes":[6.966628E2,1.3741953E3,0E0,1.2897058E2,0E0,0E0,1.311062E2,0E0,1.324242E2,1.3727722E2,5.6388626E0,0E0,0E0,0E0,0E0],"parents":[2147483647,0,0,1,1,3,3,6,6,8,8,9,9,10,10],"right_children":[2,4,-1,6,-1,-1,8,-1,10,12,14,-1,-1,-1,-1],"split_conditions":[2.9802322E-8,4.5932627E-1,-6.511562E-2,4.898177E-1,-6.50733E-2,-6.778141E-2,5E-1,-6.77404E-2,4.445851E-3,1.9861229E-1,1.3463182E-2,8.316832E-2,-6.666831E-2,7.041028E-2,-6.628935E-2],"split_indices":[33,84,0,53,0,0,61,0,92,41,29,0,0,0,0],"split_type":[0,0,0,0,0,0,0,0,0,0,0,0,0,0,0],"sum_hessian":[4.776344E3,3.5834521E3,1.1928921E3,2.4000654E3,1.1833866E3,6.865908E1,2.3314065E3,6.588097E1,2.2655254E3,2.196083E3,6.944255E1,2.133841E3,6.224183E1,2.3709602E0,6.707159E1],"tree_param":{"num_deleted":"0","num_feature":"105","num_nodes":"15","size_leaf_vector":"1"}},{"base_weights":[-2.5424517E-3,-6.505178E-1,1.5506705E0,-6.5167025E-2,1.072972E-1,-6.407534E-2,1.6480623E-1],"categories":[],"categories_nodes":[],"categories_segments":[],"categories_sizes":[],"default_left":[0,0,0,0,0,0,0],"id":5,"left_children":[1,3,5,-1,-1,-1,-1],"loss_changes":[4.8395293E3,7.4382324E0,3.031648E2,0E0,0E0,0E0,0E0],"parents":[2147483647,0,0,1,1,2,2],"right_children":[2,4,6,-1,-1,-1,-1],"split_conditions":[4.5932627E-1,5.413732E-1,4.6495885E-1,-6.5167025E-2,1.072972E-1,-6.407534E-2,1.6480623E-1],"split_indices":[84,0,42,0,0,0,0],"split_type":[0,0,0,0,0,0,0],"sum_hessian":[4.806542E3,3.392025E3,1.414517E3,3.39038E3,1.645023E0,5.9951897E1,1.3545651E3],"tree_param":{"num_deleted":"0","num_feature":"105","num_nodes":"7","size_leaf_vector":"1"}},{"base_weights":[-3.1920495E-3,1.64355E0,-6.516499E-2,1.647905E-1,-4.7125176E-2],"categories":[],"categories_nodes":[],"categories_segments":[],"categories_sizes":[],"default_left":[0,0,0,0,0],"id":6,"left_children":[1,3,-1,-1,-1],"loss_changes":[5.0854614E3,1.3167969E1,0E0,0E0,0E0],"parents":[2147483647,0,0,1,1],"right_children":[2,4,-1,-1,-1],"split_conditions":[4.2695674E-1,4.2920384E-1,-6.516499E-2,1.647905E-1,-4.7125176E-2],"split_indices":[12,15,0,0,0],"split_type":[0,0,0,0,0],"sum_hessian":[4.7603657E3,1.3445022E3,3.4158638E3,1.3419596E3,2.5426059E0],"tree_param":{"num_deleted":"0","num_feature":"105","num_nodes":"5","size_leaf_vector":"1"}},{"base_weights":[8.357305E-3,-6.421402E-1,2.1121567E-1,-6.506988E-2,1.3800459E-1,5.752474E-1,-5.2694696E-1,5.395348E-1,1.8857726E-1,1.6286327E-1,-6.507044E-2,1.8126272E-1,5.0162405E-1,4.615133E-1,1.8129019E0,4.197084E-2,1.8115644E-1,1.8864632E-1,-1.8134832E-2],"categories":[],"categories_nodes":[],"categories_segments":[],"categories_sizes":[],"default_left":[0,0,0,0,0,0,0,0,0,0,0,0,0,0,0,0,0,0,0],"id":7,"left_children":[1,3,5,-1,-1,7,9,11,-1,-1,-1,-1,13,15,17,-1,-1,-1,-1],"loss_changes":[6.337907E2,2.0658264E1,9.841113E2,0E0,0E0,1.1376221E2,3.2377762E2,1.14382385E2,0E0,0E0,0E0,0E0,1.212439E2,1.264263E2,1.0398529E1,0E0,0E0,0E0,0E0],"parents":[2147483647,0,0,1,1,2,2,5,5,6,6,7,7,12,12,13,13,14,14],"right_children":[2,4,6,-1,-1,8,10,12,-1,-1,-1,-1,14,16,18,-1,-1,-1,-1],"split_conditions":[4.2695674E-1,5.0004554E-1,1.1139993E-1,-6.506988E-2,1.3800459E-1,1.9837463E-1,8.203216E-3,4.8984608E-1,1.8857726E-1,1.6286327E-1,-6.507044E-2,1.8126272E-1,2.3722649E-4,4.445851E-3,5.411093E-1,4.197084E-2,1.8115644E-1,1.8864632E-1,-1.8134832E-2],"split_indices":[12,18,27,0,0,40,21,47,0,0,0,0,95,92,64,0,0,0,0],"split_type":[0,0,0,0,0,0,0,0,0,0,0,0,0,0,0,0,0,0,0],"sum_hessian":[4.800914E3,1.1407506E3,3.6601633E3,1.1366183E3,4.132338E0,2.4514355E3,1.2087277E3,2.3877788E3,6.365678E1,6.496808E1,1.1437595E3,6.769451E1,2.3200845E3,2.2525334E3,6.755094E1,2.1861492E3,6.638417E1,6.5199974E1,2.3509643E0],"tree_param":{"num_deleted":"0","num_feature":"105","num_nodes":"19","size_leaf_vector":"1"}},{"base_weights":[4.2647542E-3,2.0784357E-1,-6.40519E-2,5.9729034E-1,-6.378403E-2,-6.688352E-2,6.327422E-1,6.6922617E-1,-6.978694E-2,-6.981605E-2,7.0729506E-1,7.464385E-2,-6.978669E-2],"categories":[],"categories_nodes":[],"categories_segments":[],"categories_sizes":[],"default_left":[0,0,0,0,0,0,0,0,0,0,0,0,0],"id":8,"left_children":[1,3,-1,5,-1,-1,7,9,-1,-1,11,-1,-1],"loss_changes":[6.2632654E2,1.1947567E3,0E0,1.1190057E2,0E0,0E0,1.1777374E2,1.2294922E2,0E0,0E0,1.2643384E2,0E0,0E0],"parents":[2147483647,0,0,1,1,3,3,6,6,7,7,10,10],"right_children":[2,4,-1,6,-1,-1,8,10,-1,-1,12,-1,-1],"split_conditions":[2.9802322E-8,1.1139993E-1,-6.40519E-2,4.9526313E-1,-6.378403E-2,-6.688352E-2,1.2849685E-2,5E-1,-6.978694E-2,-6.981605E-2,4.0004057E-1,7.464385E-2,-6.978669E-2],"split_indices":[36,27,0,51,0,0,28,55,0,0,102,0,0],"split_type":[0,0,0,0,0,0,0,0,0,0,0,0,0],"sum_hessian":[4.7694775E3,3.6254766E3,1.1440011E3,2.4825354E3,1.1429412E3,6.7131744E1,2.4154036E3,2.351427E3,6.397657E1,6.3222374E1,2.2882048E3,2.226646E3,6.1558628E1],"tree_param":{"num_deleted":"0","num_feature":"105","num_nodes":"13","size_leaf_vector":"1"}},{"base_weights":[6.2407223E-3,-6.377742E-1,1.343577E0,-6.383827E-2,1.6475834E-1,-6.199331E-2,1.4122191E-1,-3.2698248E-2,5.4948967E-2],"categories":[],"categories_nodes":[],"categories_segments":[],"categories_sizes":[],"default_left":[0,0,0,0,0,0,0,0,0],"id":9,"left_children":[1,3,5,-1,7,-1,-1,-1,-1],"loss_changes":[4.0672825E3,1.6618652E0,2.0775879E2,0E0,7.86976E-1,0E0,0E0,0E0,0E0],"parents":[2147483647,0,0,1,1,2,2,4,4],"right_children":[2,4,6,-1,8,-1,-1,-1,-1],"split_conditions":[1.1139993E-1,5.412019E-1,1.4785642E-2,-6.383827E-2,4.984018E-1,-6.199331E-2,1.4122191E-1,-3.2698248E-2,5.4948967E-2],"split_indices":[27,6,21,0,3,0,0,0,0],"split_type":[0,0,0,0,0,0,0,0,0],"sum_hessian":[4.7204595E3,3.1864827E3,1.5339768E3,3.1842727E3,2.2100463E0,5.1543407E1,1.4824333E3,1.0359976E0,1.1740488E0],"tree_param":{"num_deleted":"0","num_feature":"105","num_nodes":"9","size_leaf_vector":"1"}},{"base_weights":[-3.920194E-3,1.4076945E0,-6.382835E-2,1.4121518E-1,-4.9121965E-2],"categories":[],"categories_nodes":[],"categories_segments":[],"categories_sizes":[],"default_left":[0,0,0,0,0],"id":10,"left_children":[1,3,-1,-1,-1],"loss_changes":[4.212982E3,1.3039795E1,0E0,0E0,0E0],"parents":[2147483647,0,0,1,1],"right_children":[2,4,-1,-1,-1],"split_conditions":[4.2695674E-1,4.2920384E-1,-6.382835E-2,1.4121518E-1,-4.9121965E-2],"split_indices":[12,15,0,0,0],"split_type":[0,0,0,0,0],"sum_hessian":[4.7027334E3,1.4577225E3,3.245011E3,1.4545647E3,3.1578329E0],"tree_param":{"num_deleted":"0","num_feature":"105","num_nodes":"5","size_leaf_vector":"1"}},{"base_weights":[-2.2034503E-3,-6.305282E-1,1.8387917E-1,-6.3667685E-2,1.1330666E-1,4.9997962E-1,-5.0932026E-1,4.6760276E-1,1.7975243E0,1.4479746E-1,-6.366724E-2,4.3410927E-1,1.8141252E-1,1.8156272E-1,5.0828148E-2,3.99665E-1,1.8147792E-1,3.619439E-2,1.7318028E-1],"categories":[],"categories_nodes":[],"categories_segments":[],"categories_sizes":[],"default_left":[0,0,0,0,0,0,0,0,0,0,0,0,0,0,0,0,0,0,0],"id":11,"left_children":[1,3,5,-1,-1,7,9,11,13,-1,-1,15,-1,-1,-1,17,-1,-1,-1],"loss_changes":[5.5299054E2,1.243988E1,7.998212E2,0E0,0E0,1.0446564E2,2.8591013E2,1.0957129E2,4.9320984E-1,0E0,0E0,1.1288257E2,0E0,0E0,0E0,1.1655832E2,0E0,0E0,0E0],"parents":[2147483647,0,0,1,1,2,2,5,5,6,6,7,7,8,8,11,11,15,15],"right_children":[2,4,6,-1,-1,8,10,12,14,-1,-1,16,-1,-1,-1,18,-1,-1,-1],"split_conditions":[4.2695674E-1,4.2920384E-1,1.1139993E-1,-6.3667685E-2,1.1330666E-1,1.3181065E-2,1.4785642E-2,1.2849685E-2,5.0108665E-1,1.4479746E-1,-6.366724E-2,2.9802322E-8,1.8141252E-1,1.8156272E-1,5.0828148E-2,6.937444E-3,1.8147792E-1,3.619439E-2,1.7318028E-1],"split_indices":[12,15,27,0,0,22,21,28,3,0,0,36,0,0,0,86,0,0,0],"split_type":[0,0,0,0,0,0,0,0,0,0,0,0,0,0,0,0,0,0,0],"sum_hessian":[4.7276445E3,1.0796661E3,3.6479785E3,1.0765518E3,3.114337E0,2.5056675E3,1.1423112E3,2.4459944E3,5.9673058E1,6.915087E1,1.0731603E3,2.3879194E3,5.8074875E1,5.8444126E1,1.2289317E0,2.331055E3,5.6864555E1,2.2681025E3,6.295239E1],"tree_param":{"num_deleted":"0","num_feature":"105","num_nodes":"19","size_leaf_vector":"1"}},{"base_weights":[7.092484E-3,1.9562232E-1,-6.275326E-2,5.4237026E-1,-6.2101656E-1,5.749584E-1,-7.054906E-2,2.4826007E-1,-6.243418E-1,6.0912144E-1,-7.062336E-2,-9.243414E-3,4.647379E-2,-6.2606566E-2,2.2262461E-2,-6.751331E-2,6.458886E-1,6.8354584E-2,-6.909282E-2],"categories":[],"categories_nodes":[],"categories_segments":[],"categories_sizes":[],"default_left":[0,0,0,0,0,0,0,0,0,0,0,0,0,0,0,0,0,0,0],"id":12,"left_children":[1,3,-1,5,7,9,-1,11,13,15,-1,-1,-1,-1,-1,-1,17,-1,-1],"loss_changes":[5.6507153E2,1.031393E3,0E0,1.0436432E2,3.2933044E0,1.09500305E2,0E0,4.008638E-1,1.7189636E0,1.1507013E2,0E0,0E0,0E0,0E0,0E0,0E0,1.1931073E2,0E0,0E0],"parents":[2147483647,0,0,1,1,3,3,4,4,5,5,7,7,8,8,9,9,16,16],"right_children":[2,4,-1,6,8,10,-1,12,14,16,-1,-1,-1,-1,-1,-1,18,-1,-1],"split_conditions":[2.9802322E-8,5.4794884E-1,-6.275326E-2,1.8512958E-1,1.4785642E-2,1.3181065E-2,-7.054906E-2,4.9827993E-1,1.2369249E-3,5E-1,-7.062336E-2,-9.243414E-3,4.647379E-2,-6.2606566E-2,2.2262461E-2,-6.751331E-2,1.6183244E-2,6.8354584E-2,-6.909282E-2],"split_indices":[36,63,0,38,21,22,0,3,31,58,0,0,0,0,0,0,23,0,0],"split_type":[0,0,0,0,0,0,0,0,0,0,0,0,0,0,0,0,0,0,0],"sum_hessian":[4.7208457E3,3.6401484E3,1.0806974E3,2.5554365E3,1.084712E3,2.4909248E3,6.4511795E1,3.8527849E0,1.0808593E3,2.4267402E3,6.418457E1,1.7195518E0,2.133233E0,1.0789241E3,1.9351919E0,6.7058716E1,2.3596814E3,2.2955073E3,6.417415E1],"tree_param":{"num_deleted":"0","num_feature":"105","num_nodes":"19","size_leaf_vector":"1"}},{"base_weights":[-1.0585716E-2,-6.2556195E-1,1.1860553E0,-6.265047E-2,9.502872E-2,-6.0766082E-2,1.2431166E-1],"categories":[],"categories_nodes":[],"categories_segments":[],"categories_sizes":[],"default_left":[0,0,0,0,0,0,0],"id":13,"left_children":[1,3,5,-1,-1,-1,-1],"loss_changes":[3.4288008E3,5.1676025E0,1.6264087E2,0E0,0E0,0E0,0E0],"parents":[2147483647,0,0,1,1,2,2],"right_children":[2,4,6,-1,-1,-1,-1],"split_conditions":[1.1139993E-1,5.427675E-1,1.4785642E-2,-6.265047E-2,9.502872E-2,-6.0766082E-2,1.2431166E-1],"split_indices":[27,6,21,0,0,0,0],"split_type":[0,0,0,0,0,0,0],"sum_hessian":[4.657285E3,3.0766262E3,1.5806587E3,3.075389E3,1.2374015E0,4.843579E1,1.5322229E3],"tree_param":{"num_deleted":"0","num_feature":"105","num_nodes":"7","size_leaf_vector":"1"}},{"base_weights":[-1.7241425E-3,1.2399266E0,-6.26389E-2,1.2430286E-1,-4.514478E-2],"categories":[],"categories_nodes":[],"categories_segments":[],"categories_sizes":[],"default_left":[0,0,0,0,0],"id":14,"left_children":[1,3,-1,-1,-1],"loss_changes":[3.6013616E3,8.714844E0,0E0,0E0,0E0],"parents":[2147483647,0,0,1,1],"right_children":[2,4,-1,-1,-1],"split_conditions":[4.2920384E-1,4.2695674E-1,-6.26389E-2,1.2430286E-1,-4.514478E-2],"split_indices":[15,12,0,0,0],"split_type":[0,0,0,0,0],"sum_hessian":[4.6412295E3,1.5531123E3,3.0881172E3,1.5505337E3,2.5786023E0],"tree_param":{"num_deleted":"0","num_feature":"105","num_nodes":"5","size_leaf_vector":"1"}},{"base_weights":[6.911689E-3,-6.1941165E-1,1.8267292E-1,-6.2390942E-2,9.632313E-2,4.7374183E-1,-5.042046E-1,4.4231576E-1,1.6890095E-1,1.268506E-1,-6.238981E-2,4.0625912E-1,1.5520599E0,3.7232018E-1,1.6881469E-1,1.6223441E-1,5.705609E-1,1.7565505E-1,3.3887044E-2,8.870824E-3,1.1099624E-1],"categories":[],"categories_nodes":[],"categories_segments":[],"categories_sizes":[],"default_left":[0,0,0,0,0,0,0,0,0,0,0,0,0,0,0,0,0,0,0,0,0],"id":15,"left_children":[1,3,5,-1,-1,7,9,11,-1,-1,-1,13,15,17,-1,-1,19,-1,-1,-1,-1],"loss_changes":[5.1713416E2,7.9287415E0,7.336231E2,0E0,0E0,9.766986E1,2.325513E2,9.993793E1,0E0,0E0,0E0,1.053353E2,4.5059204E0,1.0932971E2,0E0,0E0,1.6699693E0,0E0,0E0,0E0,0E0],"parents":[2147483647,0,0,1,1,2,2,5,5,6,6,7,7,11,11,12,12,13,13,16,16],"right_children":[2,4,6,-1,-1,8,10,12,-1,-1,-1,14,16,18,-1,-1,20,-1,-1,-1,-1],"split_conditions":[4.2695674E-1,4.2920384E-1,1.1139993E-1,-6.2390942E-2,9.632313E-2,2.0666447E-1,1.4785642E-2,2.2301346E-3,1.6890095E-1,1.268506E-1,-6.238981E-2,6.9693916E-2,3.2147765E-4,4.9720937E-1,1.6881469E-1,1.6223441E-1,5.008321E-1,1.7565505E-1,3.3887044E-2,8.870824E-3,1.1099624E-1],"split_indices":[12,15,27,0,0,34,21,30,0,0,0,39,87,52,0,0,9,0,0,0,0],"split_type":[0,0,0,0,0,0,0,0,0,0,0,0,0,0,0,0,0,0,0,0,0],"sum_hessian":[4.695632E3,1.0284033E3,3.6672285E3,1.0260929E3,2.3103263E0,2.575959E3,1.0912695E3,2.512355E3,6.3604027E1,6.841513E1,1.02285443E3,2.4346182E3,7.773693E1,2.3730796E3,6.153865E1,7.193297E1,5.8039656E0,5.477664E1,2.3183027E3,3.6805503E0,2.123415E0],"tree_param":{"num_deleted":"0","num_feature":"105","num_nodes":"21","size_leaf_vector":"1"}},{"base_weights":[5.9305322E-3,1.8278833E-1,-6.1471015E-2,4.9760187E-1,-6.1684437E-2,5.305708E-1,-6.953535E-2,-7.2560996E-2,5.641657E-1,-6.933645E-2,6.004877E-1,6.360885E-2,-6.948086E-2],"categories":[],"categories_nodes":[],"categories_segments":[],"categories_sizes":[],"default_left":[0,0,0,0,0,0,0,0,0,0,0,0,0],"id":16,"left_children":[1,3,-1,5,-1,7,-1,-1,9,-1,11,-1,-1],"loss_changes":[5.0793988E2,9.0687213E2,0E0,1.0201929E2,0E0,1.0657001E2,0E0,0E0,1.1235083E2,0E0,1.103009E2,0E0,0E0],"parents":[2147483647,0,0,1,1,3,3,5,5,8,8,10,10],"right_children":[2,4,-1,6,-1,8,-1,-1,10,-1,12,-1,-1],"split_conditions":[4.5932627E-1,2.9802322E-8,-6.1471015E-2,1.8512958E-1,-6.1684437E-2,4.9720937E-1,-6.953535E-2,-7.2560996E-2,4.898177E-1,-6.933645E-2,2.0666447E-1,6.360885E-2,-6.948086E-2],"split_indices":[84,33,0,38,0,52,0,0,53,0,34,0,0],"split_type":[0,0,0,0,0,0,0,0,0,0,0,0,0],"sum_hessian":[4.6254917E3,3.6002651E3,1.0252262E3,2.5835178E3,1.0167473E3,2.5145793E3,6.893858E1,6.496096E1,2.4496184E3,6.82597E1,2.3813586E3,2.318154E3,6.3204754E1],"tree_param":{"num_deleted":"0","num_feature":"105","num_nodes":"13","size_leaf_vector":"1"}},{"base_weights":[-5.385283E-3,-6.1507714E-1,1.0682327E0,-6.157261E-2,8.190899E-2,-5.9266645E-2,1.1164557E-1,-3.2689046E-2,3.8081735E-2],"categories":[],"categories_nodes":[],"categories_segments":[],"categories_sizes":[],"default_left":[0,0,0,0,0,0,0,0,0],"id":17,"left_children":[1,3,5,-1,7,-1,-1,-1,-1],"loss_changes":[2.9375654E3,1.3452148E0,1.308501E2,0E0,5.5770504E-1,0E0,0E0,0E0,0E0],"parents":[2147483647,0,0,1,1,2,2,4,4],"right_children":[2,4,6,-1,8,-1,-1,-1,-1],"split_conditions":[1.1139993E-1,5.412019E-1,1.4785642E-2,-6.157261E-2,5.4009765E-1,-5.9266645E-2,1.1164557E-1,-3.2689046E-2,3.8081735E-2],"split_indices":[27,6,21,0,0,0,0,0,0],"split_type":[0,0,0,0,0,0,0,0,0],"sum_hessian":[4.4857334E3,2.861281E3,1.6244523E3,2.8587356E3,2.5453544E0,4.5515537E1,1.5789368E3,1.03552E0,1.5098343E0],"tree_param":{"num_deleted":"0","num_feature":"105","num_nodes":"9","size_leaf_vector":"1"}},{"base_weights":[-1.8906478E-3,1.1132487E0,-6.155303E-2,1.1163332E-1,-4.622079E-2],"categories":[],"categories_nodes":[],"categories_segments":[],"categories_sizes":[],"default_left":[0,0,0,0,0],"id":18,"left_children":[1,3,-1,-1,-1],"loss_changes":[3.1124543E3,8.361694E0,0E0,0E0,0E0],"parents":[2147483647,0,0,1,1],"right_children":[2,4,-1,-1,-1],"split_conditions":[4.2920384E-1,5.0004554E-1,-6.155303E-2,1.1163332E-1,-4.622079E-2],"split_indices":[15,18,0,0,0],"split_type":[0,0,0,0,0],"sum_hessian":[4.5464175E3,1.6134869E3,2.9329304E3,1.610625E3,2.862015E0],"tree_param":{"num_deleted":"0","num_feature":"105","num_nodes":"5","size_leaf_vector":"1"}},{"base_weights":[1.7599702E-2,-6.0569245E-1,1.7973985E-1,-6.1226215E-2,9.905773E-2,4.358898E-1,-4.7471422E-1,4.0707886E-1,1.6585912E0,1.1446567E0,-6.122723E-2,3.7848032E-1,1.7131954E-1,1.7109154E-1,1.4563701E-2,1.1697598E-1,4.908934E-1,1.4894055E-1,3.4335473E-1,6.4122885E-2,4.1967155E-3,1.5664367E-1,3.0910162E-2],"categories":[],"categories_nodes":[],"categories_segments":[],"categories_sizes":[],"default_left":[0,0,0,0,0,0,0,0,0,0,0,0,0,0,0,0,0,0,0,0,0,0,0],"id":19,"left_children":[1,3,5,-1,-1,7,9,11,13,15,-1,17,-1,-1,-1,-1,19,-1,21,-1,-1,-1,-1],"loss_changes":[4.7088904E2,1.0693665E1,6.200516E2,0E0,0E0,9.295633E1,2.3249698E2,9.639743E1,4.5689697E0,7.6856995E-1,0E0,9.874814E1,0E0,0E0,0E0,0E0,2.935735E-1,0E0,1.0287024E2,0E0,0E0,0E0,0E0],"parents":[2147483647,0,0,1,1,2,2,5,5,6,6,7,7,8,8,9,9,11,11,16,16,18,18],"right_children":[2,4,6,-1,-1,8,10,12,14,16,-1,18,-1,-1,-1,-1,20,-1,22,-1,-1,-1,-1],"split_conditions":[4.2695674E-1,4.2920384E-1,4.1950345E-3,-6.1226215E-2,9.905773E-2,2.4598136E-3,5.4794884E-1,1.9262697E-1,4.9627262E-1,4.6834695E-1,-6.122723E-2,4.8984608E-1,1.7131954E-1,1.7109154E-1,1.4563701E-2,1.1697598E-1,4.9876636E-1,1.4894055E-1,2.0265566E-1,6.4122885E-2,4.1967155E-3,1.5664367E-1,3.0910162E-2],"split_indices":[12,15,90,0,0,24,63,35,45,48,0,47,0,0,0,0,4,0,54,0,0,0,0],"split_type":[0,0,0,0,0,0,0,0,0,0,0,0,0,0,0,0,0,0,0,0,0,0,0],"sum_hessian":[4.657391E3,9.608804E2,3.6965105E3,9.5755585E2,3.3244967E0,2.656934E3,1.0395764E3,2.5970713E3,5.986278E1,8.082E1,9.587564E2,2.5426868E3,5.4384514E1,5.7735214E1,2.127567E0,7.707135E1,3.7486465E0,7.666249E1,2.4660244E3,2.4873326E0,1.2613139E0,6.59624E1,2.400062E3],"tree_param":{"num_deleted":"0","num_feature":"105","num_nodes":"23","size_leaf_vector":"1"}},{"base_weights":[7.8120567E-3,1.7242655E-1,-6.0731757E-1,4.5279616E-1,-5.9903383E-1,-6.015048E-2,-6.844462E-2,4.8404476E-1,-6.815184E-2,-2.2162308E-3,-6.044966E-2,5.1602954E-1,-7.09924E-2,4.057581E-1,-4.9060266E-2,-6.970842E-2,5.4984313E-1,6.508793E-1,-1.0754651E-2,5.8500677E-2,-7.0972614E-2,9.31256E-2,2.3562552E-3],"categories":[],"categories_nodes":[],"categories_segments":[],"categories_sizes":[],"default_left":[0,0,0,0,0,0,0,0,0,0,0,0,0,0,0,0,0,0,0,0,0,0,0],"id":20,"left_children":[1,3,5,7,9,-1,-1,11,-1,13,-1,15,-1,17,-1,-1,19,21,-1,-1,-1,-1,-1],"loss_changes":[4.6349493E2,7.812963E2,2.154541E-2,9.4225525E1,3.1381226E0,0E0,0E0,9.8838684E1,0E0,2.1393025E0,0E0,1.0341962E2,0E0,8.064327E-1,0E0,0E0,1.0867627E2,6.997335E-1,0E0,0E0,0E0,0E0,0E0],"parents":[2147483647,0,0,1,1,2,2,3,3,4,4,7,7,9,9,11,11,13,13,16,16,17,17],"right_children":[2,4,6,8,10,-1,-1,12,-1,14,-1,16,-1,18,-1,-1,20,22,-1,-1,-1,-1,-1],"split_conditions":[2.9802322E-8,5.4794884E-1,4.2695674E-1,1.8584101E-1,4.9732864E-1,-6.015048E-2,-6.844462E-2,1.9861229E-1,-6.815184E-2,5.413732E-1,-6.044966E-2,4.8984608E-1,-7.09924E-2,5.0055754E-1,-4.9060266E-2,-6.970842E-2,1.9837463E-1,4.193449E-3,-1.0754651E-2,5.8500677E-2,-7.0972614E-2,9.31256E-2,2.3562552E-3],"split_indices":[36,63,12,37,52,0,0,41,0,0,0,47,0,66,0,0,40,23,0,0,0,0,0],"split_type":[0,0,0,0,0,0,0,0,0,0,0,0,0,0,0,0,0,0,0,0,0,0,0],"sum_hessian":[4.5752754E3,3.609941E3,9.653346E2,2.6479993E3,9.6194165E2,9.058629E2,5.9471687E1,2.5775647E3,7.043462E1,8.737741E0,9.532039E2,2.5108696E3,6.669488E1,4.852982E0,3.8847594E0,6.755673E1,2.443313E3,3.1031163E0,1.7498658E0,2.377476E3,6.583685E1,1.8097495E0,1.2933668E0],"tree_param":{"num_deleted":"0","num_feature":"105","num_nodes":"23","size_leaf_vector":"1"}},{"base_weights":[-7.687053E-3,-6.053728E-1,9.7963893E-1,-6.0604613E-2,8.761122E-2,-5.785997E-2,1.0184882E-1,1.2572819E-2,1.8279493E-3],"categories":[],"categories_nodes":[],"categories_segments":[],"categories_sizes":[],"default_left":[0,0,0,0,0,0,0,0,0],"id":21,"left_children":[1,3,5,-1,7,-1,-1,-1,-1],"loss_changes":[2.578428E3,1.322998E0,1.0033154E2,0E0,6.992966E-3,0E0,0E0,0E0,0E0],"parents":[2147483647,0,0,1,1,2,2,4,4],"right_children":[2,4,6,-1,8,-1,-1,-1,-1],"split_conditions":[1.1139993E-1,5.412019E-1,1.4785642E-2,-6.0604613E-2,5.871465E-1,-5.785997E-2,1.0184882E-1,1.2572819E-2,1.8279493E-3],"split_indices":[27,6,21,0,2,0,0,0,0],"split_type":[0,0,0,0,0,0,0,0,0],"sum_hessian":[4.3673926E3,2.7207507E3,1.6466416E3,2.718235E3,2.5157833E0,3.971665E1,1.6069249E3,1.0984511E0,1.4173322E0],"tree_param":{"num_deleted":"0","num_feature":"105","num_nodes":"9","size_leaf_vector":"1"}},{"base_weights":[-1.0771368E-2,1.0158117E0,-6.0578972E-2,1.0183107E-1,-4.368564E-2],"categories":[],"categories_nodes":[],"categories_segments":[],"categories_sizes":[],"default_left":[0,0,0,0,0],"id":22,"left_children":[1,3,-1,-1,-1],"loss_changes":[2.6583489E3,6.2418213E0,0E0,0E0,0E0],"parents":[2147483647,0,0,1,1],"right_children":[2,4,-1,-1,-1],"split_conditions":[4.2920384E-1,4.2695674E-1,-6.0578972E-2,1.0183107E-1,-4.368564E-2],"split_indices":[15,12,0,0,0],"split_type":[0,0,0,0,0],"sum_hessian":[4.349979E3,1.5958894E3,2.7540896E3,1.5934473E3,2.4421568E0],"tree_param":{"num_deleted":"0","num_feature":"105","num_nodes":"5","size_leaf_vector":"1"}},{"base_weights":[1.6314398E-2,-5.958838E-1,1.65765E-1,-6.0165327E-2,8.738415E-2,3.9263716E-1,-4.6731713E-1,3.629177E-1,1.4475034E-1,1.089315E-1,-5.987845E-1,3.3721095E-1,1.6727577E-1,1.236115E-1,-6.0165774E-2,3.054961E-1,1.4454143E-1,-3.9077308E-2,4.494414E-2,2.7027374E-2,1.3884953E-1],"categories":[],"categories_nodes":[],"categories_segments":[],"categories_sizes":[],"default_left":[0,0,0,0,0,0,0,0,0,0,0,0,0,0,0,0,0,0,0,0,0],"id":23,"left_children":[1,3,5,-1,-1,7,9,11,-1,-1,13,15,-1,17,-1,19,-1,-1,-1,-1,-1],"loss_changes":[4.2069385E2,8.176361E0,5.310006E2,0E0,0E0,8.4787415E1,2.0027815E2,8.8600586E1,0E0,0E0,1.9427185E0,9.088098E1,0E0,9.123351E-1,0E0,9.603125E1,0E0,0E0,0E0,0E0,0E0],"parents":[2147483647,0,0,1,1,2,2,5,5,6,6,7,7,10,10,11,11,13,13,15,15],"right_children":[2,4,6,-1,-1,8,10,12,-1,-1,14,16,-1,18,-1,20,-1,-1,-1,-1,-1],"split_conditions":[4.2695674E-1,5.0004554E-1,4.1950345E-3,-6.0165327E-2,8.738415E-2,1.9837463E-1,4.6834695E-1,6.97028E-1,1.4475034E-1,1.089315E-1,5.4906195E-1,1.9861229E-1,1.6727577E-1,1.3315678E-4,-6.0165774E-2,1.8584101E-1,1.4454143E-1,-3.9077308E-2,4.494414E-2,2.7027374E-2,1.3884953E-1],"split_indices":[12,18,90,0,0,40,48,88,0,0,69,41,0,88,0,37,0,0,0,0,0],"split_type":[0,0,0,0,0,0,0,0,0,0,0,0,0,0,0,0,0,0,0,0,0],"sum_hessian":[4.5959995E3,9.0124023E2,3.6947595E3,8.983045E2,2.9357061E0,2.720292E3,9.744675E2,2.6470586E3,7.323337E1,7.532308E1,8.991445E2,2.5973408E3,4.9717594E1,3.3955681E0,8.957489E2,2.5263179E3,7.1023125E1,1.2394865E0,2.1560817E0,2.4479526E3,7.836515E1],"tree_param":{"num_deleted":"0","num_feature":"105","num_nodes":"21","size_leaf_vector":"1"}},{"base_weights":[1.1827706E-2,1.6391836E-1,-5.9509516E-2,-5.953045E-1,4.1599196E-1,-6.013366E-1,-1.6663745E-1,4.466254E-1,-7.222991E-1,-5.918452E-2,-7.278197E-2,5.7317954E-1,-6.206566E-2,4.784682E-1,-7.309418E-2,-7.647787E-2,2.8437543E-1,7.9828694E-2,-3.2525323E-3,-6.98312E-2,5.1175505E-1,2.131343E-3,4.204276E-2,5.476404E-2,-6.630269E-2],"categories":[],"categories_nodes":[],"categories_segments":[],"categories_sizes":[],"default_left":[0,0,0,0,0,0,0,0,0,0,0,0,0,0,0,0,0,0,0,0,0,0,0,0,0],"id":24,"left_children":[1,3,-1,5,7,9,11,13,15,-1,-1,17,-1,19,-1,-1,21,-1,-1,-1,23,-1,-1,-1,-1],"loss_changes":[4.1677045E2,6.9117786E2,0E0,2.2276917E0,9.4853E1,6.345825E-1,5.016654E0,9.936188E1,3.2719193E0,0E0,0E0,8.1638515E-1,0E0,1.0109076E2,0E0,0E0,1.2063441E-1,0E0,0E0,0E0,1.0581775E2,0E0,0E0,0E0,0E0],"parents":[2147483647,0,0,1,1,3,3,4,4,5,5,6,6,7,7,8,8,11,11,13,13,16,16,20,20],"right_children":[2,4,-1,6,8,10,12,14,16,-1,-1,18,-1,20,-1,-1,22,-1,-1,-1,24,-1,-1,-1,-1],"split_conditions":[4.5932627E-1,5.0002563E-1,-5.9509516E-2,1.1683458E-1,2.4598136E-3,4.2695674E-1,5.213022E-4,1.6183244E-2,4.9627262E-1,-5.918452E-2,-7.278197E-2,7.405862E-6,-6.206566E-2,4.898177E-1,-7.309418E-2,-7.647787E-2,1.0991666E-3,7.9828694E-2,-3.2525323E-3,-6.98312E-2,4.445851E-3,2.131343E-3,4.204276E-2,5.476404E-2,-6.630269E-2],"split_indices":[84,60,0,60,24,12,86,23,45,0,0,26,0,53,0,0,21,0,0,0,92,0,0,0,0],"split_type":[0,0,0,0,0,0,0,0,0,0,0,0,0,0,0,0,0,0,0,0,0,0,0,0,0],"sum_hessian":[4.5129756E3,3.6092522E3,9.037236E2,8.992951E2,2.709957E3,8.864189E2,1.2876242E1,2.6395303E3,7.0426796E1,8.2982764E2,5.659127E1,4.797057E0,8.079185E0,2.5706116E3,6.8918686E1,6.7805824E1,2.6209736E0,3.265502E0,1.5315554E0,7.016348E1,2.500448E3,1.2877383E0,1.3332351E0,2.4268503E3,7.359768E1],"tree_param":{"num_deleted":"0","num_feature":"105","num_nodes":"25","size_leaf_vector":"1"}},{"base_weights":[-6.0465224E-3,-5.9622866E-1,9.054687E-1,-5.9731036E-2,8.270184E-2,-5.6755852E-2,9.407641E-2],"categories":[],"categories_nodes":[],"categories_segments":[],"categories_sizes":[],"default_left":[0,0,0,0,0,0,0],"id":25,"left_children":[1,3,5,-1,-1,-1,-1],"loss_changes":[2.2661575E3,4.430298E0,8.6608154E1,0E0,0E0,0E0,0E0],"parents":[2147483647,0,0,1,1,2,2],"right_children":[2,4,6,-1,-1,-1,-1],"split_conditions":[1.1139993E-1,5.427675E-1,1.4785642E-2,-5.9731036E-2,8.270184E-2,-5.6755852E-2,9.407641E-2],"split_indices":[27,6,21,0,0,0,0],"split_type":[0,0,0,0,0,0,0],"sum_hessian":[4.2104985E3,2.5559402E3,1.6545582E3,2.554579E3,1.3611455E0,3.8364468E1,1.6161937E3],"tree_param":{"num_deleted":"0","num_feature":"105","num_nodes":"7","size_leaf_vector":"1"}},{"base_weights":[-1.4534057E-2,9.383045E-1,-5.9706636E-2,9.406751E-2,-4.2488255E-2],"categories":[],"categories_nodes":[],"categories_segments":[],"categories_sizes":[],"default_left":[0,0,0,0,0],"id":26,"left_children":[1,3,-1,-1,-1],"loss_changes":[2.335217E3,5.5579834E0,0E0,0E0,0E0],"parents":[2147483647,0,0,1,1],"right_children":[2,4,-1,-1,-1],"split_conditions":[4.2695674E-1,4.2920384E-1,-5.9706636E-2,9.406751E-2,-4.2488255E-2],"split_indices":[12,15,0,0,0],"split_type":[0,0,0,0,0],"sum_hessian":[4.20514E3,1.5952329E3,2.609907E3,1.5927731E3,2.459827E0],"tree_param":{"num_deleted":"0","num_feature":"105","num_nodes":"5","size_leaf_vector":"1"}},{"base_weights":[1.30994925E-2,-5.821035E-1,1.5102033E-1,-5.91994E-2,9.216108E-2,3.6261094E-1,-4.6099305E-1,3.3569285E-1,1.4582332E0,1.0238673E-1,-5.891936E-1,3.0677372E-1,1.4316742E-1,1.4904074E-1,2.1092527E-2,1.1426268E-1,-5.921034E-2,2.7565405E-1,1.4071128E0,-1.5610795E-2,4.2210363E-2,1.3728127E-1,2.4174033E-2,1.4220147E-1,3.7969124E-2],"categories":[],"categories_nodes":[],"categories_segments":[],"categories_sizes":[],"default_left":[0,0,0,0,0,0,0,0,0,0,0,0,0,0,0,0,0,0,0,0,0,0,0,0,0],"id":27,"left_children":[1,3,5,-1,-1,7,9,11,13,-1,15,17,-1,-1,-1,19,-1,21,23,-1,-1,-1,-1,-1,-1],"loss_changes":[3.7139536E2,1.32039795E1,4.7580627E2,0E0,0E0,8.002173E1,1.8031497E2,8.405191E1,2.3007355E0,0E0,1.8477478E0,8.8590775E1,0E0,0E0,0E0,4.3383792E-1,0E0,9.374234E1,5.505829E-1,0E0,0E0,0E0,0E0,0E0,0E0],"parents":[2147483647,0,0,1,1,2,2,5,5,6,6,7,7,8,8,10,10,11,11,15,15,17,17,18,18],"right_children":[2,4,6,-1,-1,8,10,12,14,-1,16,18,-1,-1,-1,20,-1,22,24,-1,-1,-1,-1,-1,-1],"split_conditions":[4.2695674E-1,4.2920384E-1,4.1950345E-3,-5.91994E-2,9.216108E-2,2.4598136E-3,4.6834695E-1,6.9693916E-2,4.967394E-1,1.0238673E-1,5.4794884E-1,1.2849685E-2,1.4316742E-1,1.4904074E-1,2.1092527E-2,1.8636584E-3,-5.921034E-2,4.9526313E-1,8.728735E-3,-1.5610795E-2,4.2210363E-2,1.3728127E-1,2.4174033E-2,1.4220147E-1,3.7969124E-2],"split_indices":[12,15,90,0,0,24,48,39,45,0,63,28,0,0,0,85,0,51,22,0,0,0,0,0,0],"split_type":[0,0,0,0,0,0,0,0,0,0,0,0,0,0,0,0,0,0,0,0,0,0,0,0,0],"sum_hessian":[4.5221255E3,8.501308E2,3.6719946E3,8.451781E2,4.9527397E0,2.7289321E3,9.430627E2,2.6647683E3,6.416362E1,7.439613E1,8.686665E2,2.597509E3,6.725933E1,6.236015E1,1.8034691E0,3.420751E0,8.652458E2,2.5272832E3,7.0225845E1,2.0836322E0,1.337119E0,7.459354E1,2.4526897E3,6.884328E1,1.3825659E0],"tree_param":{"num_deleted":"0","num_feature":"105","num_nodes":"25","size_leaf_vector":"1"}},{"base_weights":[2.2369932E-2,1.6687137E-1,-5.915961E-1,3.9427274E-1,-5.88156E-2,-5.8307957E-2,-6.826447E-2,4.2220944E-1,-7.857128E-2,-7.4721985E-2,4.5185074E-1,-7.474326E-2,4.8195118E-1,5.143866E-2,-7.1672164E-2],"categories":[],"categories_nodes":[],"categories_segments":[],"categories_sizes":[],"default_left":[0,0,0,0,0,0,0,0,0,0,0,0,0,0,0],"id":28,"left_children":[1,3,5,7,-1,-1,-1,9,-1,-1,11,-1,13,-1,-1],"loss_changes":[3.9351764E2,6.1667957E2,2.5723267E-1,9.1312164E1,0E0,0E0,0E0,9.3815765E1,0E0,0E0,9.5325745E1,0E0,1.0016809E2,0E0,0E0],"parents":[2147483647,0,0,1,1,2,2,3,3,7,7,10,10,12,12],"right_children":[2,4,6,8,-1,-1,-1,10,-1,-1,12,-1,14,-1,-1],"split_conditions":[2.9802322E-8,1.1139993E-1,5.0004554E-1,1.9262697E-1,-5.88156E-2,-5.8307957E-2,-6.826447E-2,4.6103534E-1,-7.857128E-2,-7.4721985E-2,4.9720937E-1,-7.474326E-2,2.1958807E-1,5.143866E-2,-7.1672164E-2],"split_indices":[33,27,18,35,0,0,0,43,0,0,52,0,29,0,0],"split_type":[0,0,0,0,0,0,0,0,0,0,0,0,0,0,0],"sum_hessian":[4.4334395E3,3.5893804E3,8.4405884E2,2.758919E3,8.3046155E2,7.786305E2,6.542837E1,2.6957383E3,6.318064E1,6.604083E1,2.6296973E3,6.3802486E1,2.5658948E3,2.4988484E3,6.704659E1],"tree_param":{"num_deleted":"0","num_feature":"105","num_nodes":"15","size_leaf_vector":"1"}},{"base_weights":[-2.2045003E-2,-5.883163E-1,8.4575456E-1,-5.8942087E-2,7.7478215E-2,-5.571822E-2,8.779549E-2],"categories":[],"categories_nodes":[],"categories_segments":[],"categories_sizes":[],"default_left":[0,0,0,0,0,0,0],"id":29,"left_children":[1,3,5,-1,-1,-1,-1],"loss_changes":[1.9812067E3,4.129822E0,7.2407715E1,0E0,0E0,0E0,0E0],"parents":[2147483647,0,0,1,1,2,2],"right_children":[2,4,6,-1,-1,-1,-1],"split_conditions":[1.1139993E-1,5.427675E-1,1.4785642E-2,-5.8942087E-2,7.7478215E-2,-5.571822E-2,8.779549E-2],"split_indices":[27,6,21,0,0,0,0],"split_type":[0,0,0,0,0,0,0],"sum_hessian":[4.029665E3,2.4386667E3,1.5909983E3,2.4372595E3,1.4073857E0,3.5331577E1,1.5556667E3],"tree_param":{"num_deleted":"0","num_feature":"105","num_nodes":"7","size_leaf_vector":"1"}},{"base_weights":[-2.298129E-2,8.7600744E-1,-5.891952E-2,8.779336E-2,-3.9523296E-2],"categories":[],"categories_nodes":[],"categories_segments":[],"categories_sizes":[],"default_left":[0,0,0,0,0],"id":30,"left_children":[1,3,-1,-1,-1],"loss_changes":[2.0505308E3,4.1586914E0,0E0,0E0,0E0],"parents":[2147483647,0,0,1,1],"right_children":[2,4,-1,-1,-1],"split_conditions":[4.2695674E-1,4.2920384E-1,-5.891952E-2,8.779336E-2,-3.9523296E-2],"split_indices":[12,15,0,0,0],"split_type":[0,0,0,0,0],"sum_hessian":[4.026376E3,1.555744E3,2.4706318E3,1.5536993E3,2.0447206E0],"tree_param":{"num_deleted":"0","num_feature":"105","num_nodes":"5","size_leaf_vector":"1"}},{"base_weights":[2.510504E-2,-5.695373E-1,1.5349983E-1,-5.8319986E-2,1.1241068E-1,3.3575296E-1,-4.5159224E-1,1.4026581E-1,3.0984867E-1,4.448782E-1,-5.739505E-1,1.2907274E-1,2.7953422E-1,9.560748E-2,2.3908432E-1,-5.832357E-2,9.440258E-2,2.512863E-1,1.3753586E0,1.8719709E-1,1.0487578E-1,1.3474269E-1,2.2091456E-2,1.402523E-1,1.3051935E-3,1.3175167E-2,9.858461E-2],"categories":[],"categories_nodes":[],"categories_segments":[],"categories_sizes":[],"default_left":[0,0,0,0,0,0,0,0,0,0,0,0,0,0,0,0,0,0,0,0,0,0,0,0,0,0,0],"id":31,"left_children":[1,3,5,-1,-1,7,9,-1,11,13,15,-1,17,-1,19,-1,-1,21,23,25,-1,-1,-1,-1,-1,-1,-1],"loss_changes":[3.38489E2,1.8873016E1,4.0223376E2,0E0,0E0,7.702252E1,9.2877884E1,0E0,8.103711E1,1.04991E1,1.1028946E1,0E0,8.18911E1,0E0,2.9141278E0,0E0,0E0,8.596568E1,2.4440384E0,3.0050666E0,0E0,0E0,0E0,0E0,0E0,0E0,0E0],"parents":[2147483647,0,0,1,1,2,2,5,5,6,6,8,8,9,9,10,10,12,12,14,14,17,17,18,18,19,19],"right_children":[2,4,6,-1,-1,8,10,-1,12,14,16,-1,18,-1,20,-1,-1,22,24,26,-1,-1,-1,-1,-1,-1,-1],"split_conditions":[4.2920384E-1,5.0004554E-1,5.2692133E-1,-5.8319986E-2,1.1241068E-1,4.6103534E-1,4.5932627E-1,1.4026581E-1,4.898177E-1,4.9110743E-1,1.2300702E-1,1.2907274E-1,1.2369249E-3,9.560748E-2,1.8512958E-1,-5.832357E-2,9.440258E-2,2.5606656E-1,5.8009833E-1,5.013163E-1,1.0487578E-1,1.3474269E-1,2.2091456E-2,1.402523E-1,1.3051935E-3,1.3175167E-2,9.858461E-2],"split_indices":[15,18,6,0,0,43,84,0,53,48,21,0,31,0,38,0,0,55,18,73,0,0,0,0,0,0,0],"split_type":[0,0,0,0,0,0,0,0,0,0,0,0,0,0,0,0,0,0,0,0,0,0,0,0,0,0,0],"sum_hessian":[4.431301E3,7.8628705E2,3.6450137E3,7.8064526E2,5.6417756E0,2.801615E3,8.433986E2,6.515057E1,2.7364644E3,1.00973076E2,7.4242554E2,8.078969E1,2.6556748E3,2.7935322E1,7.303775E1,7.385239E2,3.9016337E0,2.5901362E3,6.553861E1,6.979613E1,3.241624E0,6.866318E1,2.521473E3,6.422838E1,1.3102393E0,6.63545E1,3.4416275E0],"tree_param":{"num_deleted":"0","num_feature":"105","num_nodes":"27","size_leaf_vector":"1"}},{"base_weights":[2.5513908E-2,1.6117875E-1,-5.860406E-1,3.733492E-1,-5.800764E-2,-5.7510793E-2,-7.012715E-2,4.0208182E-1,-7.139638E-2,4.3184716E-1,-7.296979E-2,-7.127636E-2,4.628854E-1,4.9602665E-2,-6.8573445E-2],"categories":[],"categories_nodes":[],"categories_segments":[],"categories_sizes":[],"default_left":[0,0,0,0,0,0,0,0,0,0,0,0,0,0,0],"id":32,"left_children":[1,3,5,7,-1,-1,-1,9,-1,11,-1,-1,13,-1,-1],"loss_changes":[3.603331E2,5.592313E2,5.900879E-1,8.6640045E1,0E0,0E0,0E0,9.1054565E1,0E0,9.359253E1,0E0,0E0,9.765546E1,0E0,0E0],"parents":[2147483647,0,0,1,1,2,2,3,3,7,7,9,9,12,12],"right_children":[2,4,6,8,-1,-1,-1,10,-1,12,-1,-1,14,-1,-1],"split_conditions":[2.9802322E-8,1.1139993E-1,4.2695674E-1,1.9861229E-1,-5.800764E-2,-5.7510793E-2,-7.012715E-2,1.8512958E-1,-7.139638E-2,4.9526313E-1,-7.296979E-2,-7.127636E-2,1.8584101E-1,4.9602665E-2,-6.8573445E-2],"split_indices":[36,27,12,41,0,0,0,38,0,51,0,0,37,0,0],"split_type":[0,0,0,0,0,0,0,0,0,0,0,0,0,0,0],"sum_hessian":[4.34098E3,3.553436E3,7.875438E2,2.7630586E3,7.9037756E2,7.247711E2,6.2772675E1,2.6925376E3,7.052106E1,2.624142E3,6.8395454E1,6.869993E1,2.5554421E3,2.4843296E3,7.111246E1],"tree_param":{"num_deleted":"0","num_feature":"105","num_nodes":"15","size_leaf_vector":"1"}},{"base_weights":[-2.0955775E-2,-5.809753E-1,7.9649556E-1,-5.8213145E-2,-2.8643424E-2,-5.525284E-2,8.270221E-2,7.406901E-2,-4.4930242E-2],"categories":[],"categories_nodes":[],"categories_segments":[],"categories_sizes":[],"default_left":[0,0,0,0,0,0,0,0,0],"id":33,"left_children":[1,3,5,-1,7,-1,-1,-1,-1],"loss_changes":[1.7597133E3,1.4399414E0,6.481421E1,0E0,2.2152536E0,0E0,0E0,0E0,0E0],"parents":[2147483647,0,0,1,1,2,2,4,4],"right_children":[2,4,6,-1,8,-1,-1,-1,-1],"split_conditions":[1.1139993E-1,4.1950345E-3,1.4785642E-2,-5.8213145E-2,4.992999E-1,-5.525284E-2,8.270221E-2,7.406901E-2,-4.4930242E-2],"split_indices":[27,90,21,0,3,0,0,0,0],"split_type":[0,0,0,0,0,0,0,0,0],"sum_hessian":[3.8419314E3,2.2801414E3,1.5617898E3,2.2753247E3,4.816757E0,3.4180725E1,1.5276091E3,1.4337747E0,3.3829825E0],"tree_param":{"num_deleted":"0","num_feature":"105","num_nodes":"9","size_leaf_vector":"1"}},{"base_weights":[-1.7871546E-2,8.24834E-1,-5.819068E-2,8.264532E-2,-3.7395835E-2],"categories":[],"categories_nodes":[],"categories_segments":[],"categories_sizes":[],"default_left":[0,0,0,0,0],"id":34,"left_children":[1,3,-1,-1,-1],"loss_changes":[1.820395E3,3.2896729E0,0E0,0E0,0E0],"parents":[2147483647,0,0,1,1],"right_children":[2,4,-1,-1,-1],"split_conditions":[4.2695674E-1,4.2920384E-1,-5.819068E-2,8.264532E-2,-3.7395835E-2],"split_indices":[12,15,0,0,0],"split_type":[0,0,0,0,0],"sum_hessian":[3.8278562E3,1.5346005E3,2.2932559E3,1.5328407E3,1.7597529E0],"tree_param":{"num_deleted":"0","num_feature":"105","num_nodes":"5","size_leaf_vector":"1"}},{"base_weights":[2.262299E-2,-5.6772935E-1,1.4258327E-1,-5.7522427E-2,7.853594E-2,3.1074992E-1,-4.3184143E-1,2.834403E-1,1.3160989E0,9.2298165E-2,-5.75671E-2,2.5473484E-1,1.3137606E-1,1.3322428E-1,2.9398069E-2,2.2797224E-1,1.3890141E-1,1.23114005E-1,1.9548425E-2],"categories":[],"categories_nodes":[],"categories_segments":[],"categories_sizes":[],"default_left":[0,0,0,0,0,0,0,0,0,0,0,0,0,0,0,0,0,0,0],"id":35,"left_children":[1,3,5,-1,-1,7,9,11,13,-1,-1,15,-1,-1,-1,17,-1,-1,-1],"loss_changes":[3.1034146E2,7.9572754E0,3.519439E2,0E0,0E0,7.699124E1,1.6132762E2,8.083731E1,8.334503E-1,0E0,0E0,8.077672E1,0E0,0E0,0E0,8.485445E1,0E0,0E0,0E0],"parents":[2147483647,0,0,1,1,2,2,5,5,6,6,7,7,8,8,11,11,15,15],"right_children":[2,4,6,-1,-1,8,10,12,14,-1,-1,16,-1,-1,-1,18,-1,-1,-1],"split_conditions":[4.2695674E-1,4.2920384E-1,1.1139993E-1,-5.7522427E-2,7.853594E-2,1.6183244E-2,4.6834695E-1,1.8512958E-1,1.3463182E-2,9.2298165E-2,-5.75671E-2,1.9262697E-1,1.3137606E-1,1.3322428E-1,2.9398069E-2,4.8984608E-1,1.3890141E-1,1.23114005E-1,1.9548425E-2],"split_indices":[12,15,27,0,0,23,48,38,29,0,0,35,0,0,0,47,0,0,0],"split_type":[0,0,0,0,0,0,0,0,0,0,0,0,0,0,0,0,0,0,0],"sum_hessian":[4.380046E3,7.390883E2,3.6409575E3,7.355886E2,3.499664E0,2.8167842E3,8.2417334E2,2.7435398E3,7.32445E1,7.857816E1,7.455952E2,2.6703882E3,7.3151634E1,7.180693E1,1.43757E0,2.6100076E3,6.0380486E1,8.071723E1,2.5292903E3],"tree_param":{"num_deleted":"0","num_feature":"105","num_nodes":"19","size_leaf_vector":"1"}},{"base_weights":[1.48530705E-2,-5.79485E-1,1.4365108E-1,-5.678872E-2,-6.8527095E-2,3.3546057E-1,-5.696491E-1,-7.622356E-2,3.6362973E-1,-1.436651E-1,-5.745868E-2,3.925315E-1,-7.4015623E-1,4.2039733E-2,-4.756769E-2,-7.324775E-2,4.2297137E-1,-8.288885E-2,2.432543E-1,2.3369208E-1,-3.8364846E-2,4.549725E-2,-7.309341E-2,4.1090127E-2,-1.2970472E-2,3.329767E-2,-4.1106897E-3],"categories":[],"categories_nodes":[],"categories_segments":[],"categories_sizes":[],"default_left":[0,0,0,0,0,0,0,0,0,0,0,0,0,0,0,0,0,0,0,0,0,0,0,0,0,0,0],"id":36,"left_children":[1,3,5,-1,-1,7,9,-1,11,13,-1,15,17,19,-1,-1,21,-1,23,25,-1,-1,-1,-1,-1,-1,-1],"loss_changes":[3.269615E2,5.442352E-1,4.8047546E2,0E0,0E0,8.5839355E1,1.4829559E0,0E0,8.637805E1,6.280364E-1,0E0,9.038632E1,6.240307E0,6.8058187E-1,0E0,0E0,9.492618E1,0E0,4.5974073E-1,1.6691011E-1,0E0,0E0,0E0,0E0,0E0,0E0,0E0],"parents":[2147483647,0,0,1,1,2,2,5,5,6,6,8,8,9,9,11,11,12,12,13,13,16,16,18,18,19,19],"right_children":[2,4,6,-1,-1,8,10,-1,12,14,-1,16,18,20,-1,-1,22,-1,24,26,-1,-1,-1,-1,-1,-1,-1],"split_conditions":[5E-1,4.2920384E-1,5.4794884E-1,-5.678872E-2,-6.8527095E-2,4.615807E-1,4.9732864E-1,-7.622356E-2,1.2051401E-3,1.1155009E-4,-5.745868E-2,4.6103534E-1,4.9725944E-1,5.427675E-1,-4.756769E-2,-7.324775E-2,2.0666447E-1,-8.288885E-2,6.0791236E-1,1.2051401E-3,-3.8364846E-2,4.549725E-2,-7.309341E-2,4.1090127E-2,-1.2970472E-2,3.329767E-2,-4.1106897E-3],"split_indices":[54,15,63,0,0,49,52,0,25,87,0,43,46,6,0,0,34,0,8,25,0,0,0,0,0,0,0],"split_type":[0,0,0,0,0,0,0,0,0,0,0,0,0,0,0,0,0,0,0,0,0,0,0,0,0,0,0],"sum_hessian":[4.269152E3,7.5975684E2,3.509395E3,6.9043005E2,6.9326744E1,2.7661067E3,7.432883E2,6.855601E1,2.6975508E3,8.861768E0,7.344266E2,2.6293477E3,6.820307E1,6.2431517E0,2.618616E0,6.866153E1,2.560686E3,6.27026E1,5.500471E0,4.6159806E0,1.627171E0,2.4921765E3,6.850959E1,3.724539E0,1.7759322E0,3.2353442E0,1.3806365E0],"tree_param":{"num_deleted":"0","num_feature":"105","num_nodes":"27","size_leaf_vector":"1"}},{"base_weights":[-2.5864657E-2,-5.744384E-1,7.569521E-1,-5.7564046E-2,7.1779035E-2,-5.4479647E-2,7.840962E-2],"categories":[],"categories_nodes":[],"categories_segments":[],"categories_sizes":[],"default_left":[0,0,0,0,0,0,0],"id":37,"left_children":[1,3,5,-1,-1,-1,-1],"loss_changes":[1.5756147E3,3.764038E0,5.384552E1,0E0,0E0,0E0,0E0],"parents":[2147483647,0,0,1,1,2,2],"right_children":[2,4,6,-1,-1,-1,-1],"split_conditions":[1.1139993E-1,5.427675E-1,1.4785642E-2,-5.7564046E-2,7.1779035E-2,-5.4479647E-2,7.840962E-2],"split_indices":[27,6,21,0,0,0,0],"split_type":[0,0,0,0,0,0,0],"sum_hessian":[3.667048E3,2.1562683E3,1.5107798E3,2.1548184E3,1.4498657E0,3.0469793E1,1.48031E3],"tree_param":{"num_deleted":"0","num_feature":"105","num_nodes":"7","size_leaf_vector":"1"}},{"base_weights":[-2.647787E-2,7.8167903E-1,-5.7541348E-2,7.836331E-2,-3.9372362E-2],"categories":[],"categories_nodes":[],"categories_segments":[],"categories_sizes":[],"default_left":[0,0,0,0,0],"id":38,"left_children":[1,3,-1,-1,-1],"loss_changes":[1.62424E3,3.710022E0,0E0,0E0,0E0],"parents":[2147483647,0,0,1,1],"right_children":[2,4,-1,-1,-1],"split_conditions":[4.2695674E-1,4.2920384E-1,-5.7541348E-2,7.836331E-2,-3.9372362E-2],"split_indices":[12,15,0,0,0],"split_type":[0,0,0,0,0],"sum_hessian":[3.6592678E3,1.4799799E3,2.1792878E3,1.4778563E3,2.1235073E0],"tree_param":{"num_deleted":"0","num_feature":"105","num_nodes":"5","size_leaf_vector":"1"}},{"base_weights":[2.5489185E-2,-5.5789614E-1,1.3799548E-1,-5.679682E-2,7.93056E-2,2.8706944E-1,-4.158563E-1,2.601023E-1,1.2570891E0,8.637985E-2,-5.683435E-2,1.2062111E0,2.306064E-1,1.2691906E-1,3.617546E-2,2.0665136E-1,1.2631768E-1,1.3300492E0,2.0326479E-1,4.354573E-2,-1.7212067E-2,6.7742527E-3,1.455507E-1,1.7307308E-2,1.2234926E-1],"categories":[],"categories_nodes":[],"categories_segments":[],"categories_sizes":[],"default_left":[0,0,0,0,0,0,0,0,0,0,0,0,0,0,0,0,0,0,0,0,0,0,0,0,0],"id":39,"left_children":[1,3,5,-1,-1,7,9,11,13,-1,-1,15,17,-1,-1,19,-1,21,23,-1,-1,-1,-1,-1,-1],"loss_changes":[2.7858023E2,9.787643E0,2.9388782E2,0E0,0E0,7.302318E1,1.4781146E2,7.5891205E1,3.5980988E-1,0E0,0E0,4.424301E0,7.933531E1,0E0,0E0,5.630691E-1,0E0,1.004921E1,7.941562E1,0E0,0E0,0E0,0E0,0E0,0E0],"parents":[2147483647,0,0,1,1,2,2,5,5,6,6,7,7,8,8,11,11,12,12,15,15,17,17,18,18],"right_children":[2,4,6,-1,-1,8,10,12,14,-1,-1,16,18,-1,-1,20,-1,22,24,-1,-1,-1,-1,-1,-1],"split_conditions":[4.2695674E-1,4.2920384E-1,1.1139993E-1,-5.679682E-2,7.93056E-2,1.2849685E-2,1.4785642E-2,5.705815E-1,5.0196564E-1,8.637985E-2,-5.683435E-2,5.6364626E-1,4.9725944E-1,1.2691906E-1,3.617546E-2,4.988084E-1,1.2631768E-1,5.0020325E-1,1.3181065E-2,4.354573E-2,-1.7212067E-2,6.7742527E-3,1.455507E-1,1.7307308E-2,1.2234926E-1],"split_indices":[12,15,27,0,0,28,21,50,9,0,0,44,46,0,0,52,0,67,22,0,0,0,0,0,0],"split_type":[0,0,0,0,0,0,0,0,0,0,0,0,0,0,0,0,0,0,0,0,0,0,0,0,0],"sum_hessian":[4.2422437E3,6.852127E2,3.557031E3,6.8071716E2,4.495527E0,2.803048E3,7.539828E2,2.7284634E3,7.458482E1,7.978358E1,6.741992E2,8.128475E1,2.6471785E3,7.317818E1,1.4066479E0,4.632219E0,7.6652534E1,6.3078102E1,2.5841006E3,2.7944884E0,1.8377302E0,5.8416553E0,5.7236446E1,2.510963E3,7.313757E1],"tree_param":{"num_deleted":"0","num_feature":"105","num_nodes":"25","size_leaf_vector":"1"}},{"base_weights":[1.8270988E-2,-5.728325E-1,1.369085E-1,-5.526799E-1,-7.4357346E-2,3.087627E-1,-5.683985E-2,-5.6138404E-2,3.026763E-1,3.368965E-1,-7.421867E-2,4.366892E-1,-7.2039515E-3,-7.264984E-2,3.661857E-1,5.6671347E-2,1.3445376E-2,3.9425218E-1,-7.822364E-2,-7.1285985E-2,4.256514E-2],"categories":[],"categories_nodes":[],"categories_segments":[],"categories_sizes":[],"default_left":[0,0,0,0,0,0,0,0,0,0,0,0,0,0,0,0,0,0,0,0,0],"id":40,"left_children":[1,3,5,7,-1,9,-1,-1,11,13,-1,15,-1,-1,17,-1,-1,19,-1,-1,-1],"loss_changes":[2.945944E2,2.0052338E0,4.242336E2,4.875E0,0E0,8.3444824E1,0E0,0E0,3.8377196E-1,8.563965E1,0E0,1.3244748E-1,0E0,0E0,8.631259E1,0E0,0E0,9.0869415E1,0E0,0E0,0E0],"parents":[2147483647,0,0,1,1,2,2,3,3,5,5,8,8,9,9,11,11,14,14,17,17],"right_children":[2,4,6,8,-1,10,-1,-1,12,14,-1,16,-1,-1,18,-1,-1,20,-1,-1,-1],"split_conditions":[5.0002563E-1,5.842345E-1,1.1387682E-1,4.9489707E-1,-7.4357346E-2,1.9837463E-1,-5.683985E-2,-5.6138404E-2,4.985683E-1,4.8984608E-1,-7.421867E-2,1.5831193E-3,-7.2039515E-3,-7.264984E-2,1.9262697E-1,5.6671347E-2,1.3445376E-2,4.9526313E-1,-7.822364E-2,-7.1285985E-2,4.256514E-2],"split_indices":[60,81,21,15,0,40,0,0,6,47,0,23,0,0,35,0,0,51,0,0,0],"split_type":[0,0,0,0,0,0,0,0,0,0,0,0,0,0,0,0,0,0,0,0,0],"sum_hessian":[4.198748E3,7.012063E2,3.4975417E3,6.309696E2,7.023665E1,2.8127524E3,6.847894E2,6.249538E2,6.0158477E0,2.7400803E3,7.267223E1,4.3092904E0,1.7065572E0,7.280924E1,2.667271E3,2.4012005E0,1.9080899E0,2.6042812E3,6.298981E1,7.12254E1,2.5330557E3],"tree_param":{"num_deleted":"0","num_feature":"105","num_nodes":"21","size_leaf_vector":"1"}},{"base_weights":[-2.6355546E-2,-5.689628E-1,7.235285E-1,-5.6979474E-2,1.1881049E-2,-5.36394E-2,7.479883E-2],"categories":[],"categories_nodes":[],"categories_segments":[],"categories_sizes":[],"default_left":[0,0,0,0,0,0,0],"id":41,"left_children":[1,3,5,-1,-1,-1,-1],"loss_changes":[1.4199828E3,1.2261353E0,4.5551636E1,0E0,0E0,0E0,0E0],"parents":[2147483647,0,0,1,1,2,2],"right_children":[2,4,6,-1,-1,-1,-1],"split_conditions":[1.1139993E-1,5.412019E-1,1.4785642E-2,-5.6979474E-2,1.1881049E-2,-5.36394E-2,7.479883E-2],"split_indices":[27,6,21,0,0,0,0],"split_type":[0,0,0,0,0,0,0],"sum_hessian":[3.4878108E3,2.0237155E3,1.4640953E3,2.0214419E3,2.2735157E0,2.7483622E1,1.4366117E3],"tree_param":{"num_deleted":"0","num_feature":"105","num_nodes":"7","size_leaf_vector":"1"}},{"base_weights":[-3.197486E-2,7.4532604E-1,-5.69534E-2,-4.154035E-2,7.4764505E-2],"categories":[],"categories_nodes":[],"categories_segments":[],"categories_sizes":[],"default_left":[0,0,0,0,0],"id":42,"left_children":[1,3,-1,-1,-1],"loss_changes":[1.4458215E3,4.118469E0,0E0,0E0,0E0],"parents":[2147483647,0,0,1,1],"right_children":[2,4,-1,-1,-1],"split_conditions":[4.2920384E-1,2.9802322E-8,-5.69534E-2,-4.154035E-2,7.4764505E-2],"split_indices":[15,33,0,0,0],"split_type":[0,0,0,0,0],"sum_hessian":[3.4581687E3,1.413658E3,2.0445106E3,2.4634995E0,1.4111945E3],"tree_param":{"num_deleted":"0","num_feature":"105","num_nodes":"5","size_leaf_vector":"1"}},{"base_weights":[3.0316168E-2,-5.5211115E-1,1.3266298E-1,-5.613729E-2,7.261616E-2,2.6701513E-1,-4.2427155E-1,1.19856894E-1,2.4119174E-1,3.345796E-1,-5.519805E-1,1.1629007E-1,2.1368308E-1,8.002248E-2,1.720103E-1,-5.614214E-2,8.163519E-2,1.8580522E-1,1.1868483E0,1.19666874E-1,9.000277E-2,1.5598406E-2,1.1664199E-1,1.2149253E-1,7.709565E-3,7.146948E-3,9.562614E-2],"categories":[],"categories_nodes":[],"categories_segments":[],"categories_sizes":[],"default_left":[0,0,0,0,0,0,0,0,0,0,0,0,0,0,0,0,0,0,0,0,0,0,0,0,0,0,0],"id":43,"left_children":[1,3,5,-1,-1,7,9,-1,11,13,15,-1,17,-1,19,-1,-1,21,23,25,-1,-1,-1,-1,-1,-1,-1],"loss_changes":[2.5084683E2,7.8539886E0,2.679109E2,0E0,0E0,6.9088196E1,6.763179E1,0E0,7.0934814E1,7.49862E0,8.158707E0,0E0,7.377139E1,0E0,2.7901394E0,0E0,0E0,7.738716E1,2.2671356E0,2.8387523E0,0E0,0E0,0E0,0E0,0E0,0E0,0E0],"parents":[2147483647,0,0,1,1,2,2,5,5,6,6,8,8,9,9,10,10,12,12,14,14,17,17,18,18,19,19],"right_children":[2,4,6,-1,-1,8,10,-1,12,14,16,-1,18,-1,20,-1,-1,22,24,26,-1,-1,-1,-1,-1,-1,-1],"split_conditions":[4.2695674E-1,4.2920384E-1,5.2692133E-1,-5.613729E-2,7.261616E-2,5E-1,4.5932627E-1,1.19856894E-1,4.9526313E-1,4.9110743E-1,1.2300702E-1,1.1629007E-1,1.6183244E-2,8.002248E-2,1.8512958E-1,-5.614214E-2,8.163519E-2,2.0666447E-1,1.3463182E-2,1.9262697E-1,9.000277E-2,1.5598406E-2,1.1664199E-1,1.2149253E-1,7.709565E-3,7.146948E-3,9.562614E-2],"split_indices":[12,15,6,0,0,61,84,0,51,48,21,0,23,0,38,0,0,34,29,35,0,0,0,0,0,0,0],"split_type":[0,0,0,0,0,0,0,0,0,0,0,0,0,0,0,0,0,0,0,0,0,0,0,0,0,0,0],"sum_hessian":[4.205934E3,6.27965E2,3.5779692E3,6.2400464E2,3.960401E0,2.8830073E3,6.9496185E2,7.653853E1,2.8064688E3,9.98759E1,5.95086E2,8.013633E1,2.7263325E3,2.4830847E1,7.504505E1,5.9159393E2,3.492025E0,2.651565E3,7.476738E1,7.10976E1,3.9474444E0,2.5744338E3,7.713118E1,7.282999E1,1.9373938E0,6.8251E1,2.8466082E0],"tree_param":{"num_deleted":"0","num_feature":"105","num_nodes":"27","size_leaf_vector":"1"}},{"base_weights":[2.1240778E-2,1.3259926E-1,-5.7292706E-1,2.901178E-1,-5.626138E-2,-5.5532493E-2,-7.149237E-2,3.1663844E-1,-7.800282E-1,3.4443188E-1,-7.417684E-2,-7.950829E-2,-5.377297E-4,-7.607446E-2,3.731386E-1,4.033993E-2,-7.255929E-2],"categories":[],"categories_nodes":[],"categories_segments":[],"categories_sizes":[],"default_left":[0,0,0,0,0,0,0,0,0,0,0,0,0,0,0,0,0],"id":44,"left_children":[1,3,5,7,-1,-1,-1,9,11,13,-1,-1,-1,-1,15,-1,-1],"loss_changes":[2.7265323E2,3.801813E2,1.2286682E0,8.05605E1,0E0,0E0,0E0,8.1507965E1,7.9717636E-1,8.569415E1,0E0,0E0,0E0,0E0,8.755762E1,0E0,0E0],"parents":[2147483647,0,0,1,1,2,2,3,3,7,7,8,8,9,9,14,14],"right_children":[2,4,6,8,-1,-1,-1,10,12,14,-1,-1,-1,-1,16,-1,-1],"split_conditions":[2.9802322E-8,4.5932627E-1,4.2695674E-1,2.4598136E-3,-5.626138E-2,-5.5532493E-2,-7.149237E-2,1.2849685E-2,4.9627262E-1,4.9720937E-1,-7.417684E-2,-7.950829E-2,-5.377297E-4,-7.607446E-2,1.9861229E-1,4.033993E-2,-7.255929E-2],"split_indices":[36,84,12,24,0,0,0,28,45,52,0,0,0,0,41,0,0],"split_type":[0,0,0,0,0,0,0,0,0,0,0,0,0,0,0,0,0],"sum_hessian":[4.11862E3,3.4692017E3,6.494183E2,2.828838E3,6.4036383E2,5.821631E2,6.725522E1,2.7611152E3,6.7722565E1,2.6911218E3,6.999348E1,6.6405655E1,1.3169099E0,6.7486046E1,2.6236357E3,2.5539294E3,6.970615E1],"tree_param":{"num_deleted":"0","num_feature":"105","num_nodes":"17","size_leaf_vector":"1"}},{"base_weights":[-3.142026E-2,-5.635204E-1,6.927761E-1,-5.6436148E-2,4.8606386E-3,-5.3226836E-2,7.178338E-2],"categories":[],"categories_nodes":[],"categories_segments":[],"categories_sizes":[],"default_left":[0,0,0,0,0,0,0],"id":45,"left_children":[1,3,5,-1,-1,-1,-1],"loss_changes":[1.2653481E3,1.0020142E0,4.307538E1,0E0,0E0,0E0,0E0],"parents":[2147483647,0,0,1,1,2,2],"right_children":[2,4,6,-1,-1,-1,-1],"split_conditions":[1.1139993E-1,5.412019E-1,4.6834695E-1,-5.6436148E-2,4.8606386E-3,-5.3226836E-2,7.178338E-2],"split_indices":[27,6,48,0,0,0,0],"split_type":[0,0,0,0,0,0,0],"sum_hessian":[3.2816636E3,1.891854E3,1.3898096E3,1.8893359E3,2.5180328E0,2.745231E1,1.3623573E3],"tree_param":{"num_deleted":"0","num_feature":"105","num_nodes":"7","size_leaf_vector":"1"}},{"base_weights":[-3.6780138E-2,7.1553785E-1,-5.6424595E-2,7.171232E-2,-3.5408124E-2],"categories":[],"categories_nodes":[],"categories_segments":[],"categories_sizes":[],"default_left":[0,0,0,0,0],"id":46,"left_children":[1,3,-1,-1,-1],"loss_changes":[1.2976709E3,2.5394897E0,0E0,0E0,0E0],"parents":[2147483647,0,0,1,1],"right_children":[2,4,-1,-1,-1],"split_conditions":[4.2695674E-1,5.0004554E-1,-5.6424595E-2,7.171232E-2,-3.5408124E-2],"split_indices":[12,18,0,0,0],"split_type":[0,0,0,0,0],"sum_hessian":[3.2681406E3,1.3468247E3,1.921316E3,1.3451605E3,1.6642256E0],"tree_param":{"num_deleted":"0","num_feature":"105","num_nodes":"5","size_leaf_vector":"1"}},{"base_weights":[2.2421334E-2,-5.4594755E-1,1.1813459E-1,-5.554111E-2,6.988022E-2,2.378817E-1,-4.2342404E-1,1.1466803E-1,2.1273859E-1,3.102027E-1,-5.470155E-1,1.8499166E-1,1.09868266E-1,1.271331E-1,7.680675E-2,-5.5542942E-2,7.341297E-2,1.574821E-1,1.14081405E-1,8.1367254E-2,8.3916165E-2,1.2837541E-2,1.1405156E-1,8.877356E-2,3.6061597E-3],"categories":[],"categories_nodes":[],"categories_segments":[],"categories_sizes":[],"default_left":[0,0,0,0,0,0,0,0,0,0,0,0,0,0,0,0,0,0,0,0,0,0,0,0,0],"id":47,"left_children":[1,3,5,-1,-1,7,9,-1,11,13,15,17,-1,19,-1,-1,-1,21,-1,23,-1,-1,-1,-1,-1],"loss_changes":[2.2402417E2,7.3798676E0,2.2865419E2,0E0,0E0,6.571953E1,5.806566E1,0E0,6.888047E1,7.6726055E0,6.3023224E0,7.150296E1,0E0,2.1287346E0,0E0,0E0,0E0,7.5708084E1,0E0,2.322776E0,0E0,0E0,0E0,0E0,0E0],"parents":[2147483647,0,0,1,1,2,2,5,5,6,6,8,8,9,9,10,10,11,11,13,13,17,17,19,19],"right_children":[2,4,6,-1,-1,8,10,-1,12,14,16,18,-1,20,-1,-1,-1,22,-1,24,-1,-1,-1,-1,-1],"split_conditions":[4.2695674E-1,2.1026492E-1,5.2719724E-1,-5.554111E-2,6.988022E-2,4.898177E-1,4.5932627E-1,1.1466803E-1,1.8584101E-1,4.6904808E-1,1.2300702E-1,2.9802322E-8,1.09868266E-1,1.8584101E-1,7.680675E-2,-5.5542942E-2,7.341297E-2,1.9861229E-1,1.14081405E-1,4.953346E-1,8.3916165E-2,1.2837541E-2,1.1405156E-1,8.877356E-2,3.6061597E-3],"split_indices":[12,33,6,0,0,53,84,0,37,90,21,33,0,37,0,0,0,41,0,45,0,0,0,0,0],"split_type":[0,0,0,0,0,0,0,0,0,0,0,0,0,0,0,0,0,0,0,0,0,0,0,0,0],"sum_hessian":[4.115873E3,5.925372E2,3.523336E3,5.8861584E2,3.9213195E0,2.8858008E3,6.3753516E2,7.648923E1,2.8093115E3,9.170041E1,5.458347E2,2.7251707E3,8.414096E1,6.642082E1,2.5279589E1,5.428361E2,2.9986134E0,2.6500637E3,7.510681E1,6.3456417E1,2.9644055E0,2.5749524E3,7.511132E1,2.3864818E0,6.1069935E1],"tree_param":{"num_deleted":"0","num_feature":"105","num_nodes":"25","size_leaf_vector":"1"}},{"base_weights":[2.2110771E-2,-5.643962E-1,1.2840135E-1,-5.406104E-1,-7.415602E-2,2.729166E-1,-5.5765636E-2,-5.5000514E-2,1.8215838E-1,2.9857865E-1,-7.386496E-2,2.9646567E-1,-2.828055E-2,3.252116E-1,-7.4613994E-1,4.6232447E-1,-4.917322E-4,3.5350952E-1,-7.266881E-2,-7.741396E-2,1.7959261E-2,6.2874965E-2,1.5455912E-2,3.8377356E-2,-6.944767E-2],"categories":[],"categories_nodes":[],"categories_segments":[],"categories_sizes":[],"default_left":[0,0,0,0,0,0,0,0,0,0,0,0,0,0,0,0,0,0,0,0,0,0,0,0,0],"id":48,"left_children":[1,3,5,7,-1,9,-1,-1,11,13,-1,15,-1,17,19,21,-1,23,-1,-1,-1,-1,-1,-1,-1],"loss_changes":[2.5045209E2,2.1965485E0,3.3734332E2,3.815216E0,0E0,7.316202E1,0E0,0E0,4.968878E-1,7.6510254E1,0E0,3.3849424E-1,0E0,7.9841675E1,1.9131241E0,1.2557995E-1,0E0,8.28642E1,0E0,0E0,0E0,0E0,0E0,0E0,0E0],"parents":[2147483647,0,0,1,1,2,2,3,3,5,5,8,8,9,9,11,11,13,13,14,14,15,15,17,17],"right_children":[2,4,6,8,-1,10,-1,-1,12,14,-1,16,-1,18,20,22,-1,24,-1,-1,-1,-1,-1,-1,-1],"split_conditions":[5.0002563E-1,5.842345E-1,4.5932627E-1,4.9489707E-1,-7.415602E-2,1.8512958E-1,-5.5765636E-2,-5.5000514E-2,4.980855E-1,2.4598136E-3,-7.386496E-2,1.5831193E-3,-2.828055E-2,2.0666447E-1,4.967394E-1,5.000665E-1,-4.917322E-4,1.8584101E-1,-7.266881E-2,-7.741396E-2,1.7959261E-2,6.2874965E-2,1.5455912E-2,3.8377356E-2,-6.944767E-2],"split_indices":[60,81,84,15,0,38,0,0,0,24,0,23,0,34,45,3,0,37,0,0,0,0,0,0,0],"split_type":[0,0,0,0,0,0,0,0,0,0,0,0,0,0,0,0,0,0,0,0,0,0,0,0,0],"sum_hessian":[4.0153447E3,6.1538214E2,3.3999626E3,5.461131E2,6.926903E1,2.8088848E3,5.910778E2,5.393416E2,6.7715E0,2.7400774E3,6.8807236E1,5.726163E0,1.0453371E0,2.6726328E3,6.744461E1,3.3490727E0,2.3770905E0,2.6032646E3,6.9368286E1,6.562352E1,1.8210886E0,1.496749E0,1.8523235E0,2.5308127E3,7.245175E1],"tree_param":{"num_deleted":"0","num_feature":"105","num_nodes":"25","size_leaf_vector":"1"}},{"base_weights":[-3.9378434E-2,-5.586587E-1,6.673456E-1,-5.5958577E-2,1.2546307E-2,-5.273307E-2,6.919625E-2],"categories":[],"categories_nodes":[],"categories_segments":[],"categories_sizes":[],"default_left":[0,0,0,0,0,0,0],"id":49,"left_children":[1,3,5,-1,-1,-1,-1],"loss_changes":[1.1325682E3,1.1984253E0,3.8807495E1,0E0,0E0,0E0,0E0],"parents":[2147483647,0,0,1,1,2,2],"right_children":[2,4,6,-1,-1,-1,-1],"split_conditions":[1.1139993E-1,5.412019E-1,1.4785642E-2,-5.5958577E-2,1.2546307E-2,-5.273307E-2,6.919625E-2],"split_indices":[27,6,21,0,0,0,0],"split_type":[0,0,0,0,0,0,0],"sum_hessian":[3.0841033E3,1.7779366E3,1.3061667E3,1.7757125E3,2.2241824E0,2.5958479E1,1.2802083E3],"tree_param":{"num_deleted":"0","num_feature":"105","num_nodes":"7","size_leaf_vector":"1"}},{"base_weights":[-3.9983604E-2,6.883152E-1,-5.5931564E-2,6.910654E-2,-4.244918E-2],"categories":[],"categories_nodes":[],"categories_segments":[],"categories_sizes":[],"default_left":[0,0,0,0,0],"id":50,"left_children":[1,3,-1,-1,-1],"loss_changes":[1.1648889E3,4.216919E0,0E0,0E0,0E0],"parents":[2147483647,0,0,1,1],"right_children":[2,4,-1,-1,-1],"split_conditions":[4.2920384E-1,5.0004554E-1,-5.5931564E-2,6.910654E-2,-4.244918E-2],"split_indices":[15,18,0,0,0],"split_type":[0,0,0,0,0],"sum_hessian":[3.077834E3,1.2810269E3,1.796807E3,1.2782468E3,2.7801154E0],"tree_param":{"num_deleted":"0","num_feature":"105","num_nodes":"5","size_leaf_vector":"1"}},{"base_weights":[3.0192312E-2,-5.347299E-1,1.1722324E-1,-5.4995846E-2,9.1371045E-2,2.2627239E-1,-3.887156E-1,2.035387E-1,1.1967529E-1,3.0441377E-1,-5.4148585E-1,1.7876147E-1,1.14601016E-1,7.508318E-2,1.8428272E-1,-5.5012714E-2,6.892072E-2,1.525965E-1,1.1411375E-1,1.3725702E-1,8.8394314E-2,1.07606106E-1,1.2356577E-2,8.8229224E-2,9.013159E-3],"categories":[],"categories_nodes":[],"categories_segments":[],"categories_sizes":[],"default_left":[0,0,0,0,0,0,0,0,0,0,0,0,0,0,0,0,0,0,0,0,0,0,0,0,0],"id":51,"left_children":[1,3,5,-1,-1,7,9,11,-1,13,15,17,-1,-1,19,-1,-1,21,-1,23,-1,-1,-1,-1,-1],"loss_changes":[1.9768002E2,1.2341766E1,1.9228983E2,0E0,0E0,6.30007E1,6.561409E1,6.523104E1,0E0,5.8824034E0,5.769104E0,6.860845E1,0E0,0E0,2.8328712E0,0E0,0E0,7.1190155E1,0E0,2.9159608E0,0E0,0E0,0E0,0E0,0E0],"parents":[2147483647,0,0,1,1,2,2,5,5,6,6,7,7,9,9,10,10,11,11,14,14,17,17,19,19],"right_children":[2,4,6,-1,-1,8,10,12,-1,14,16,18,-1,-1,20,-1,-1,22,-1,24,-1,-1,-1,-1,-1],"split_conditions":[4.2920384E-1,5.0004554E-1,5.2672255E-1,-5.4995846E-2,9.1371045E-2,1.9262697E-1,4.5932627E-1,2.1958807E-1,1.1967529E-1,4.9110743E-1,1.2300702E-1,5.1140785E-5,1.14601016E-1,7.508318E-2,1.8512958E-1,-5.5012714E-2,6.892072E-2,4.898177E-1,1.1411375E-1,2.7207226E-2,8.8394314E-2,1.07606106E-1,1.2356577E-2,8.8229224E-2,9.013159E-3],"split_indices":[15,18,6,0,0,35,84,29,0,48,21,102,0,0,38,0,0,53,0,62,0,0,0,0,0],"split_type":[0,0,0,0,0,0,0,0,0,0,0,0,0,0,0,0,0,0,0,0,0,0,0,0,0],"sum_hessian":[4.0184143E3,5.3574194E2,3.4826724E3,5.3078174E2,4.9602003E0,2.8655825E3,6.170898E2,2.8011743E3,6.440832E1,1.1126774E2,5.0582205E2,2.7305781E3,7.059624E1,2.2479973E1,8.8787766E1,5.0284433E2,2.9777215E0,2.6594324E3,7.114577E1,8.4316826E1,4.4709406E0,7.995654E1,2.5794758E3,3.9616973E0,8.035513E1],"tree_param":{"num_deleted":"0","num_feature":"105","num_nodes":"25","size_leaf_vector":"1"}},{"base_weights":[3.0377764E-2,-5.630972E-1,1.2783317E-1,-5.4497816E-2,-6.933466E-2,2.5885978E-1,-5.542299E-1,-7.345007E-2,2.8490388E-1,-6.300353E-2,-5.4479975E-2,3.1203836E-1,-7.349671E-2,3.4220076E-1,-6.712352E-1,-6.991358E-2,3.7325468E-2,1.5431489E-2,-7.42076E-2],"categories":[],"categories_nodes":[],"categories_segments":[],"categories_sizes":[],"default_left":[0,0,0,0,0,0,0,0,0,0,0,0,0,0,0,0,0,0,0],"id":52,"left_children":[1,3,5,-1,-1,7,9,-1,11,-1,-1,13,-1,15,17,-1,-1,-1,-1],"loss_changes":[2.2946089E2,9.427948E-1,3.046665E2,0E0,0E0,7.417691E1,4.953003E-2,0E0,7.734898E1,0E0,0E0,8.075772E1,0E0,8.5473206E1,4.860359E0,0E0,0E0,0E0,0E0],"parents":[2147483647,0,0,1,1,2,2,5,5,6,6,8,8,11,11,13,13,14,14],"right_children":[2,4,6,-1,-1,8,10,-1,12,-1,-1,14,-1,16,18,-1,-1,-1,-1],"split_conditions":[5E-1,4.2920384E-1,1.1139993E-1,-5.4497816E-2,-6.933466E-2,4.8984608E-1,8.203216E-3,-7.345007E-2,1.9837463E-1,-6.300353E-2,-5.4479975E-2,4.445851E-3,-7.349671E-2,5.6364626E-1,6.122537E-1,-6.991358E-2,3.7325468E-2,1.5431489E-2,-7.42076E-2],"split_indices":[54,15,27,0,0,47,21,0,40,0,0,92,0,44,71,0,0,0,0],"split_type":[0,0,0,0,0,0,0,0,0,0,0,0,0,0,0,0,0,0,0],"sum_hessian":[3.965104E3,5.586022E2,3.4065017E3,4.9493564E2,6.3666557E1,2.8580762E3,5.484256E2,7.232412E1,2.785752E3,5.339474E1,4.9503082E2,2.7142317E3,7.152024E1,2.634082E3,8.014978E1,7.565392E1,2.558428E3,6.241021E0,7.390876E1],"tree_param":{"num_deleted":"0","num_feature":"105","num_nodes":"19","size_leaf_vector":"1"}},{"base_weights":[-4.2893056E-2,-5.552111E-2,6.459716E-1,-5.244247E-2,6.703207E-2],"categories":[],"categories_nodes":[],"categories_segments":[],"categories_sizes":[],"default_left":[0,0,0,0,0],"id":53,"left_children":[1,-1,3,-1,-1],"loss_changes":[1.0354805E3,0E0,3.6015137E1,0E0,0E0],"parents":[2147483647,0,0,2,2],"right_children":[2,-1,4,-1,-1],"split_conditions":[4.1950345E-3,-5.552111E-2,5.4794884E-1,-5.244247E-2,6.703207E-2],"split_indices":[90,0,63,0,0],"split_type":[0,0,0,0,0],"sum_hessian":[2.9320398E3,1.6816028E3,1.2504369E3,2.5065563E1,1.2253713E3],"tree_param":{"num_deleted":"0","num_feature":"105","num_nodes":"5","size_leaf_vector":"1"}},{"base_weights":[-4.8581053E-2,6.669128E-1,-5.550296E-2,6.686218E-2,-3.4948897E-2],"categories":[],"categories_nodes":[],"categories_segments":[],"categories_sizes":[],"default_left":[0,0,0,0,0],"id":54,"left_children":[1,3,-1,-1,-1],"loss_changes":[1.0516938E3,2.3232422E0,0E0,0E0,0E0],"parents":[2147483647,0,0,1,1],"right_children":[2,4,-1,-1,-1],"split_conditions":[4.2695674E-1,4.2920384E-1,-5.550296E-2,6.686218E-2,-3.4948897E-2],"split_indices":[12,15,0,0,0],"split_type":[0,0,0,0,0],"sum_hessian":[2.9003174E3,1.2019397E3,1.6983778E3,1.2002637E3,1.6759803E0],"tree_param":{"num_deleted":"0","num_feature":"105","num_nodes":"5","size_leaf_vector":"1"}},{"base_weights":[3.800266E-2,-5.328746E-1,1.2100646E-1,-5.450381E-2,6.904639E-2,2.1642117E-1,-4.0458286E-1,1.0683304E-1,1.9129784E-1,3.684858E-1,-5.3126436E-1,1.6434345E-1,1.0307981E0,1.6539544E-1,7.039391E-1,5.48157E-1,-5.4384196E-1,1.3847828E-1,1.1203802E-1,2.3847736E-1,1.0843519E-1,1.10908926E-1,7.3660985E-2,3.5199738E-1,7.413597E-2,-2.6481224E-3,7.283991E-2,-1.37593625E-2,-5.4516166E-2,1.12006245E-2,1.1101893E-1,-1.8370304E-3,4.9447697E-2,6.277693E-3,7.729297E-2,5.2196976E-2,-3.1708218E-3],"categories":[],"categories_nodes":[],"categories_segments":[],"categories_sizes":[],"default_left":[0,0,0,0,0,0,0,0,0,0,0,0,0,0,0,0,0,0,0,0,0,0,0,0,0,0,0,0,0,0,0,0,0,0,0,0,0],"id":55,"left_children":[1,3,5,-1,-1,7,9,-1,11,13,15,17,19,21,23,25,27,29,-1,31,-1,33,-1,35,-1,-1,-1,-1,-1,-1,-1,-1,-1,-1,-1,-1,-1],"loss_changes":[1.8632104E2,7.8037415E0,1.7222679E2,0E0,0E0,6.1988144E1,5.1879868E1,0E0,6.372796E1,4.9859867E0,6.459854E0,6.7528854E1,3.4607697E0,1.4109424E0,1.0696602E-1,6.1229897E-1,1.6577148E-1,6.84581E1,0E0,4.5827708E-1,0E0,1.3840876E0,0E0,3.1583935E-1,0E0,0E0,0E0,0E0,0E0,0E0,0E0,0E0,0E0,0E0,0E0,0E0,0E0],"parents":[2147483647,0,0,1,1,2,2,5,5,6,6,8,8,9,9,10,10,11,11,12,12,13,13,14,14,15,15,16,16,17,17,19,19,21,21,23,23],"right_children":[2,4,6,-1,-1,8,10,-1,12,14,16,18,20,22,24,26,28,30,-1,32,-1,34,-1,36,-1,-1,-1,-1,-1,-1,-1,-1,-1,-1,-1,-1,-1],"split_conditions":[4.2695674E-1,4.2920384E-1,5.279158E-1,-5.450381E-2,6.904639E-2,4.8984608E-1,5.4794884E-1,1.0683304E-1,4.445851E-3,1.2763351E-2,6.906309E-3,1.6183244E-2,6.122537E-1,1.8512958E-1,5.3193706E-1,4.9949488E-1,1.4785642E-2,2.9802322E-8,1.1203802E-1,5.005221E-1,1.0843519E-1,1.9262697E-1,7.3660985E-2,4.6067596E-3,7.413597E-2,-2.6481224E-3,7.283991E-2,-1.37593625E-2,-5.4516166E-2,1.12006245E-2,1.1101893E-1,-1.8370304E-3,4.9447697E-2,6.277693E-3,7.729297E-2,5.2196976E-2,-3.1708218E-3],"split_indices":[12,15,6,0,0,47,63,0,92,27,27,23,71,38,6,67,21,36,0,67,0,35,0,21,0,0,0,0,0,0,0,0,0,0,0,0,0],"split_type":[0,0,0,0,0,0,0,0,0,0,0,0,0,0,0,0,0,0,0,0,0,0,0,0,0,0,0,0,0,0,0,0,0,0,0,0,0],"sum_hessian":[3.929709E3,4.9815012E2,3.4315588E3,4.937948E2,4.355299E0,2.9048118E3,5.26747E2,8.202129E1,2.8227905E3,7.389529E1,4.5285175E2,2.7361353E3,8.6655174E1,4.695862E1,2.693667E1,4.725472E0,4.4812628E2,2.665175E3,7.096032E1,5.8315377E0,8.082364E1,4.39596E1,2.9990177E0,3.5889547E0,2.3347715E1,1.331986E0,3.393486E0,1.7918856E0,4.4633438E2,2.5955796E3,6.9595314E1,3.3743E0,2.4572375E0,4.2000774E1,1.9588258E0,2.2374701E0,1.3514847E0],"tree_param":{"num_deleted":"0","num_feature":"105","num_nodes":"37","size_leaf_vector":"1"}},{"base_weights":[3.6976356E-2,1.2936825E-1,-5.6314147E-1,2.4942142E-1,-5.5005187E-1,-5.4049946E-2,-7.086771E-2,-7.700746E-2,2.746991E-1,-6.2177625E-2,-5.4027107E-2,2.988348E-1,-8.437709E-2,3.263346E-1,-7.4943975E-2,3.539714E-2,-7.851752E-2],"categories":[],"categories_nodes":[],"categories_segments":[],"categories_sizes":[],"default_left":[0,0,0,0,0,0,0,0,0,0,0,0,0,0,0,0,0],"id":56,"left_children":[1,3,5,7,9,-1,-1,-1,11,-1,-1,13,-1,15,-1,-1,-1],"loss_changes":[2.157216E2,2.7511905E2,1.3274536E0,7.406209E1,1.9424438E-2,0E0,0E0,0E0,7.57601E1,0E0,0E0,7.919566E1,0E0,8.227942E1,0E0,0E0,0E0],"parents":[2147483647,0,0,1,1,2,2,3,3,4,4,8,8,11,11,13,13],"right_children":[2,4,6,8,10,-1,-1,-1,12,-1,-1,14,-1,16,-1,-1,-1],"split_conditions":[2.9802322E-8,1.1387682E-1,4.2695674E-1,4.9720937E-1,7.4973623E-3,-5.4049946E-2,-7.086771E-2,-7.700746E-2,6.97028E-1,-6.2177625E-2,-5.4027107E-2,1.3181065E-2,-8.437709E-2,1.9262697E-1,-7.4943975E-2,3.539714E-2,-7.851752E-2],"split_indices":[36,21,12,52,27,0,0,0,88,0,0,22,0,35,0,0,0],"split_type":[0,0,0,0,0,0,0,0,0,0,0,0,0,0,0,0,0],"sum_hessian":[3.8883462E3,3.3702583E3,5.180879E2,2.8647002E3,5.055581E2,4.5241626E2,6.567164E1,6.859687E1,2.7961033E3,5.315948E1,4.5239862E2,2.7377576E3,5.8345844E1,2.6684438E3,6.931364E1,2.6043699E3,6.407401E1],"tree_param":{"num_deleted":"0","num_feature":"105","num_nodes":"17","size_leaf_vector":"1"}},{"base_weights":[-4.778018E-2,-5.5114437E-2,6.271711E-1,-5.193596E-2,6.50669E-2],"categories":[],"categories_nodes":[],"categories_segments":[],"categories_sizes":[],"default_left":[0,0,0,0,0],"id":57,"left_children":[1,-1,3,-1,-1],"loss_changes":[9.2212335E2,0E0,3.1575867E1,0E0,0E0],"parents":[2147483647,0,0,2,2],"right_children":[2,-1,4,-1,-1],"split_conditions":[1.1139993E-1,-5.5114437E-2,4.6834695E-1,-5.193596E-2,6.50669E-2],"split_indices":[27,0,48,0,0],"split_type":[0,0,0,0,0],"sum_hessian":[2.7121355E3,1.5536443E3,1.1584911E3,2.2842377E1,1.1356487E3],"tree_param":{"num_deleted":"0","num_feature":"105","num_nodes":"5","size_leaf_vector":"1"}},{"base_weights":[-4.9410455E-2,6.480837E-1,-5.5098128E-2,6.492219E-2,-2.8681114E-2],"categories":[],"categories_nodes":[],"categories_segments":[],"categories_sizes":[],"default_left":[0,0,0,0,0],"id":58,"left_children":[1,3,-1,-1,-1],"loss_changes":[9.464159E2,1.3903809E0,0E0,0E0,0E0],"parents":[2147483647,0,0,1,1],"right_children":[2,4,-1,-1,-1],"split_conditions":[4.2695674E-1,5.0004554E-1,-5.5098128E-2,6.492219E-2,-2.8681114E-2],"split_indices":[12,18,0,0,0],"split_type":[0,0,0,0,0],"sum_hessian":[2.7032405E3,1.1306476E3,1.5725928E3,1.129578E3,1.0696454E0],"tree_param":{"num_deleted":"0","num_feature":"105","num_nodes":"5","size_leaf_vector":"1"}},{"base_weights":[4.0989216E-2,-5.271904E-1,1.1627223E-1,-5.4055255E-2,7.885104E-2,2.0718041E-1,-3.6976334E-1,1.8402678E-1,1.1600186E0,7.740682E-2,-5.4208722E-2,1.5930517E-1,1.1021081E0,1.2452523E-1,2.4181557E-1,1.327059E-1,1.0743258E-1,2.0755965E-2,1.1288794E-1,-1.4256531E-2,3.9953187E-1,1.1299986E-1,1.0624546E-2,6.2390048E-2,1.461152E-2],"categories":[],"categories_nodes":[],"categories_segments":[],"categories_sizes":[],"default_left":[0,0,0,0,0,0,0,0,0,0,0,0,0,0,0,0,0,0,0,0,0,0,0,0,0],"id":59,"left_children":[1,3,5,-1,-1,7,9,11,13,-1,-1,15,17,-1,19,21,-1,-1,-1,-1,23,-1,-1,-1,-1],"loss_changes":[1.6699574E2,8.456749E0,1.523766E2,0E0,0E0,6.386286E1,1.075451E2,6.4207535E1,5.076515E0,0E0,0E0,6.711776E1,1.542984E0,0E0,4.8602757E-1,7.077529E1,0E0,0E0,0E0,0E0,2.091366E-1,0E0,0E0,0E0,0E0],"parents":[2147483647,0,0,1,1,2,2,5,5,6,6,7,7,8,8,11,11,12,12,14,14,15,15,20,20],"right_children":[2,4,6,-1,-1,8,10,12,14,-1,-1,16,18,-1,20,22,-1,-1,-1,-1,24,-1,-1,-1,-1],"split_conditions":[4.2920384E-1,5.0004554E-1,1.1139993E-1,-5.4055255E-2,7.885104E-2,1.2051401E-3,1.4785642E-2,2.4598136E-3,1.1048068E-3,7.740682E-2,-5.4208722E-2,1.8512958E-1,5.053218E-1,1.2452523E-1,3.665102E-3,4.9720937E-1,1.0743258E-1,2.0755965E-2,1.1288794E-1,-1.4256531E-2,4.9693933E-1,1.1299986E-1,1.0624546E-2,6.2390048E-2,1.461152E-2],"split_indices":[15,18,27,0,0,25,21,24,31,0,0,38,66,0,29,52,0,0,0,0,7,0,0,0,0],"split_type":[0,0,0,0,0,0,0,0,0,0,0,0,0,0,0,0,0,0,0,0,0,0,0,0,0],"sum_hessian":[3.9016833E3,4.5578186E2,3.4459014E3,4.5178275E2,3.9991207E0,2.9034192E3,5.4248224E2,2.8357056E3,6.771353E1,7.056985E1,4.719124E2,2.7624922E3,7.321339E1,6.16359E1,6.077632E0,2.6855688E3,7.692336E1,2.381747E0,7.0831635E1,1.7961588E0,4.281473E0,6.8334656E1,2.6172341E3,1.4954686E0,2.7860045E0],"tree_param":{"num_deleted":"0","num_feature":"105","num_nodes":"25","size_leaf_vector":"1"}},{"base_weights":[3.7445217E-2,-5.556034E-1,1.2511608E-1,-5.2487487E-1,-7.3095895E-2,2.360647E-1,-5.4692125E-1,-5.365473E-2,2.6505765E-1,-7.4122794E-2,2.6206774E-1,-6.1568856E-2,-5.3636022E-2,3.5953447E-1,-6.5328144E-3,-7.2873615E-2,2.8980803E-1,4.5481115E-3,5.5518348E-2,-7.605551E-2,3.176497E-1,-7.143892E-2,3.4745675E-2],"categories":[],"categories_nodes":[],"categories_segments":[],"categories_sizes":[],"default_left":[0,0,0,0,0,0,0,0,0,0,0,0,0,0,0,0,0,0,0,0,0,0,0],"id":60,"left_children":[1,3,5,7,-1,9,11,-1,13,-1,15,-1,-1,17,-1,-1,19,-1,-1,-1,21,-1,-1],"loss_changes":[1.988851E2,2.2710419E0,2.4858466E2,4.040207E0,0E0,7.289308E1,1.2924194E-2,0E0,2.3652855E-1,0E0,7.682173E1,0E0,0E0,3.103119E-1,0E0,0E0,7.955498E1,0E0,0E0,0E0,8.154651E1,0E0,0E0],"parents":[2147483647,0,0,1,1,2,2,3,3,5,5,6,6,8,8,10,10,13,13,16,16,20,20],"right_children":[2,4,6,8,-1,10,12,-1,14,-1,16,-1,-1,18,-1,-1,20,-1,-1,-1,22,-1,-1],"split_conditions":[5.0002563E-1,5.842345E-1,4.5932627E-1,4.9489707E-1,-7.3095895E-2,4.898177E-1,4.6495885E-1,-5.365473E-2,6.8099284E-6,-7.4122794E-2,4.9526313E-1,-6.1568856E-2,-5.3636022E-2,5.7141046E-6,-6.5328144E-3,-7.2873615E-2,4.615807E-1,4.5481115E-3,5.5518348E-2,-7.605551E-2,4.8984608E-1,-7.143892E-2,3.4745675E-2],"split_indices":[60,81,84,15,0,53,42,0,26,0,51,0,0,26,0,0,49,0,0,0,47,0,0],"split_type":[0,0,0,0,0,0,0,0,0,0,0,0,0,0,0,0,0,0,0,0,0,0,0],"sum_hessian":[3.8228855E3,4.916676E2,3.3312178E3,4.2175436E2,6.9913246E1,2.8597432E3,4.7147473E2,4.1592914E2,5.825211E0,7.3404854E1,2.7863384E3,5.513985E1,4.1633487E2,4.46125E0,1.3639612E0,7.5198364E1,2.71114E3,2.1855288E0,2.275721E0,6.932808E1,2.6418118E3,7.3513535E1,2.5682983E3],"tree_param":{"num_deleted":"0","num_feature":"105","num_nodes":"23","size_leaf_vector":"1"}},{"base_weights":[-5.5487763E-2,-5.474765E-2,6.111241E-1,-5.1208485E-2,6.323935E-1,-3.4347307E-2,6.342607E-2],"categories":[],"categories_nodes":[],"categories_segments":[],"categories_sizes":[],"default_left":[0,0,0,0,0,0,0],"id":61,"left_children":[1,-1,3,-1,5,-1,-1],"loss_changes":[8.399386E2,0E0,2.6305756E1,0E0,2.1635437E0,0E0,0E0],"parents":[2147483647,0,0,2,2,4,4],"right_children":[2,-1,4,-1,6,-1,-1],"split_conditions":[4.1950345E-3,-5.474765E-2,4.6834695E-1,-5.1208485E-2,5.4906195E-1,-3.4347307E-2,6.342607E-2],"split_indices":[90,0,48,0,69,0,0],"split_type":[0,0,0,0,0,0,0],"sum_hessian":[2.5590374E3,1.4724692E3,1.086568E3,1.9764296E1,1.0668037E3,1.6879576E0,1.0651158E3],"tree_param":{"num_deleted":"0","num_feature":"105","num_nodes":"7","size_leaf_vector":"1"}},{"base_weights":[-5.9140876E-2,6.3080275E-1,-5.4732885E-2,6.3235216E-2,-3.2006662E-2],"categories":[],"categories_nodes":[],"categories_segments":[],"categories_sizes":[],"default_left":[0,0,0,0,0],"id":62,"left_children":[1,3,-1,-1,-1],"loss_changes":[8.556521E2,1.7533569E0,0E0,0E0,0E0],"parents":[2147483647,0,0,1,1],"right_children":[2,4,-1,-1,-1],"split_conditions":[4.2695674E-1,4.2920384E-1,-5.4732885E-2,6.3235216E-2,-3.2006662E-2],"split_indices":[12,15,0,0,0],"split_type":[0,0,0,0,0],"sum_hessian":[2.5383423E3,1.0517039E3,1.4866384E3,1.0503274E3,1.3765738E0],"tree_param":{"num_deleted":"0","num_feature":"105","num_nodes":"5","size_leaf_vector":"1"}},{"base_weights":[4.163048E-2,-5.194514E-1,1.1186936E-1,-5.3649154E-2,7.664008E-2,1.9210269E-1,-3.5744968E-1,1.06015936E-1,1.679735E-1,7.0077056E-1,-5.380354E-2,1.0145249E-1,1.4179642E-1,7.51675E-2,1.7786355E-1,1.13343045E-1,9.775792E-1,3.9835945E-1,-4.1804187E-2,8.521612E-3,1.0278564E-1,2.7172077E-2,1.025174E-1,5.323543E-2,-4.2828186E-3],"categories":[],"categories_nodes":[],"categories_segments":[],"categories_sizes":[],"default_left":[0,0,0,0,0,0,0,0,0,0,0,0,0,0,0,0,0,0,0,0,0,0,0,0,0],"id":63,"left_children":[1,3,5,-1,-1,7,9,-1,11,13,-1,-1,15,-1,17,19,21,23,-1,-1,-1,-1,-1,-1,-1],"loss_changes":[1.5034448E2,9.711288E0,1.2771854E2,0E0,0E0,6.047386E1,9.502455E1,0E0,6.2316513E1,1.799675E0,0E0,0E0,6.493451E1,0E0,1.1852936E0,6.798114E1,2.7423172E0,3.8763565E-1,0E0,0E0,0E0,0E0,0E0,0E0,0E0],"parents":[2147483647,0,0,1,1,2,2,5,5,6,6,8,8,9,9,12,12,14,14,15,15,16,16,17,17],"right_children":[2,4,6,-1,-1,8,10,-1,12,14,-1,-1,16,-1,18,20,22,24,-1,-1,-1,-1,-1,-1,-1],"split_conditions":[4.2920384E-1,5.0004554E-1,5.4906195E-1,-5.3649154E-2,7.664008E-2,4.615807E-1,4.5932627E-1,1.06015936E-1,4.898177E-1,4.6834695E-1,-5.380354E-2,1.0145249E-1,7.674098E-4,7.51675E-2,4.978738E-1,6.9693916E-2,1.7506732E-3,5.897404E-1,-4.1804187E-2,8.521612E-3,1.0278564E-1,2.7172077E-2,1.025174E-1,5.323543E-2,-4.2828186E-3],"split_indices":[15,18,69,0,0,49,84,0,53,48,0,0,93,0,45,39,30,2,0,0,0,0,0,0,0],"split_type":[0,0,0,0,0,0,0,0,0,0,0,0,0,0,0,0,0,0,0,0,0,0,0,0,0],"sum_hessian":[3.8124302E3,4.2344818E2,3.388982E3,4.1848517E2,4.9629927E0,2.8947031E3,4.9427878E2,7.712607E1,2.8175771E3,7.1633095E1,4.226457E2,8.3379425E1,2.7341975E3,6.487964E1,6.753454E0,2.6452773E3,8.892019E1,5.1714344E0,1.5820196E0,2.567407E3,7.787042E1,6.040798E0,8.2879395E1,3.8081937E0,1.3632407E0],"tree_param":{"num_deleted":"0","num_feature":"105","num_nodes":"25","size_leaf_vector":"1"}},{"base_weights":[3.956731E-2,1.1945604E-1,-5.574976E-1,2.2123069E-1,-5.4365945E-1,-5.3273093E-2,-7.031979E-2,2.4588208E-1,-7.356518E-1,-6.1481353E-2,-5.3265106E-2,-7.3836446E-2,2.7152258E-1,-7.743343E-2,1.7460229E-1,2.983952E-1,-7.394634E-2,3.1026477E-2,-3.956166E-3,3.271038E-2,-7.067531E-2],"categories":[],"categories_nodes":[],"categories_segments":[],"categories_sizes":[],"default_left":[0,0,0,0,0,0,0,0,0,0,0,0,0,0,0,0,0,0,0,0,0],"id":64,"left_children":[1,3,5,7,9,-1,-1,11,13,-1,-1,-1,15,-1,17,19,-1,-1,-1,-1,-1],"loss_changes":[1.7847629E2,2.2281564E2,1.2188416E0,6.767728E1,1.6662598E-2,0E0,0E0,7.061798E1,2.674446E0,0E0,0E0,0E0,7.4122116E1,0E0,1.2139324E-1,7.6714096E1,0E0,0E0,0E0,0E0,0E0],"parents":[2147483647,0,0,1,1,2,2,3,3,4,4,7,7,8,8,12,12,14,14,15,15],"right_children":[2,4,6,8,10,-1,-1,12,14,-1,-1,-1,16,-1,18,20,-1,-1,-1,-1,-1],"split_conditions":[2.9802322E-8,1.1139993E-1,4.2695674E-1,2.4598136E-3,4.6834695E-1,-5.3273093E-2,-7.031979E-2,5E-1,4.9627262E-1,-6.1481353E-2,-5.3265106E-2,-7.3836446E-2,1.8512958E-1,-7.743343E-2,5.120669E-1,6.937444E-3,-7.394634E-2,3.1026477E-2,-3.956166E-3,3.271038E-2,-7.067531E-2],"split_indices":[36,27,12,24,48,0,0,62,45,0,0,0,38,0,0,86,0,0,0,0,0],"split_type":[0,0,0,0,0,0,0,0,0,0,0,0,0,0,0,0,0,0,0,0,0],"sum_hessian":[3.7393425E3,3.2987603E3,4.4058215E2,2.8604119E3,4.3834833E2,3.8055093E2,6.00312E1,2.7892966E3,7.111537E1,5.1382275E1,3.8696606E2,7.011299E1,2.7191836E3,6.835966E1,2.755717E0,2.649464E3,6.971947E1,1.4123416E0,1.3433753E0,2.5765483E3,7.291574E1],"tree_param":{"num_deleted":"0","num_feature":"105","num_nodes":"21","size_leaf_vector":"1"}},{"base_weights":[-5.846307E-2,-5.4407723E-2,5.95871E-1,-5.103598E-2,6.1931532E-2],"categories":[],"categories_nodes":[],"categories_segments":[],"categories_sizes":[],"default_left":[0,0,0,0,0],"id":65,"left_children":[1,-1,3,-1,-1],"loss_changes":[7.6505286E2,0E0,2.6917755E1,0E0,0E0],"parents":[2147483647,0,0,2,2],"right_children":[2,-1,4,-1,-1],"split_conditions":[4.1950345E-3,-5.4407723E-2,5.4794884E-1,-5.103598E-2,6.1931532E-2],"split_indices":[90,0,63,0,0],"split_type":[0,0,0,0,0],"sum_hessian":[2.40567E3,1.3809592E3,1.0247107E3,2.0834986E1,1.0038757E3],"tree_param":{"num_deleted":"0","num_feature":"105","num_nodes":"5","size_leaf_vector":"1"}},{"base_weights":[-6.2155157E-2,6.158581E-1,-5.4392524E-2,6.176209E-2,-3.3002052E-2],"categories":[],"categories_nodes":[],"categories_segments":[],"categories_sizes":[],"default_left":[0,0,0,0,0],"id":66,"left_children":[1,3,-1,-1,-1],"loss_changes":[7.8011633E2,1.8580627E0,0E0,0E0,0E0],"parents":[2147483647,0,0,1,1],"right_children":[2,4,-1,-1,-1],"split_conditions":[4.2695674E-1,4.2920384E-1,-5.4392524E-2,6.176209E-2,-3.3002052E-2],"split_indices":[12,15,0,0,0],"split_type":[0,0,0,0,0],"sum_hessian":[2.3862334E3,9.911177E2,1.3951156E3,9.8962036E2,1.4972703E0],"tree_param":{"num_deleted":"0","num_feature":"105","num_nodes":"5","size_leaf_vector":"1"}},{"base_weights":[4.6647433E-2,-5.215025E-1,1.124323E-1,-5.327911E-2,6.1575454E-2,1.8011093E-1,-3.8547117E-1,1.5619892E-1,9.768456E-2,4.1098714E-1,-5.213055E-1,1.02077566E-1,1.3237262E-1,2.5368032E-1,6.607262E-2,4.6119153E-2,-5.306807E-1,1.0146202E-1,1.073757E-1,-4.045409E-2,2.8764537E-1,-5.3297084E-2,5.9839278E-3,1.003372E-1,8.073322E-3,3.690124E-2,3.6588963E-3],"categories":[],"categories_nodes":[],"categories_segments":[],"categories_sizes":[],"default_left":[0,0,0,0,0,0,0,0,0,0,0,0,0,0,0,0,0,0,0,0,0,0,0,0,0,0,0],"id":67,"left_children":[1,3,5,-1,-1,7,9,11,-1,13,15,-1,17,19,-1,-1,21,-1,23,-1,25,-1,-1,-1,-1,-1,-1],"loss_changes":[1.4009796E2,5.3219147E0,1.1325275E2,0E0,0E0,5.6193703E1,4.3731182E1,5.9039177E1,0E0,2.1567335E0,3.4140549E0,0E0,6.156784E1,9.642019E-1,0E0,0E0,4.934311E-1,0E0,6.486769E1,0E0,7.3511386E-1,0E0,0E0,0E0,0E0,0E0,0E0],"parents":[2147483647,0,0,1,1,2,2,5,5,6,6,7,7,9,9,10,10,12,12,13,13,16,16,18,18,20,20],"right_children":[2,4,6,-1,-1,8,10,12,-1,14,16,-1,18,20,-1,-1,22,-1,24,-1,26,-1,-1,-1,-1,-1,-1],"split_conditions":[4.2695674E-1,4.2920384E-1,5.2889186E-1,-5.327911E-2,6.1575454E-2,1.8584101E-1,1.4785642E-2,4.6103534E-1,9.768456E-2,1.1139993E-1,5.4906195E-1,1.02077566E-1,5E-1,2.038604E-5,6.607262E-2,4.6119153E-2,5.4207253E-1,1.0146202E-1,5E-1,-4.045409E-2,6.123303E-3,-5.3297084E-2,5.9839278E-3,1.003372E-1,8.073322E-3,3.690124E-2,3.6588963E-3],"split_indices":[12,15,6,0,0,37,21,43,0,27,69,0,61,30,0,0,70,0,54,0,21,0,0,0,0,0,0],"split_type":[0,0,0,0,0,0,0,0,0,0,0,0,0,0,0,0,0,0,0,0,0,0,0,0,0,0,0],"sum_hessian":[3.7458042E3,3.879918E2,3.3578125E3,3.847047E2,3.2871075E0,2.9565723E3,4.0124033E2,2.8715847E3,8.4987434E1,5.816529E1,3.4307504E2,7.589155E1,2.795693E3,3.6923515E1,2.1241777E1,2.7872233E0,3.402878E2,7.593773E1,2.7197554E3,1.2764384E0,3.5647076E1,3.390703E2,1.2175125E0,7.747812E1,2.6422773E3,2.6566933E1,9.080143E0],"tree_param":{"num_deleted":"0","num_feature":"105","num_nodes":"27","size_leaf_vector":"1"}},{"base_weights":[3.467378E-2,1.1147105E-1,-5.577672E-1,2.0533675E-1,-5.4241896E-1,-5.293786E-2,-6.959817E-2,2.2832078E-1,-8.2087226E-2,-6.1510235E-2,-5.2920874E-2,2.5325507E-1,-7.5513E-2,-7.094718E-2,2.8042376E-1,-7.369561E-2,3.0788263E-2],"categories":[],"categories_nodes":[],"categories_segments":[],"categories_sizes":[],"default_left":[0,0,0,0,0,0,0,0,0,0,0,0,0,0,0,0,0],"id":68,"left_children":[1,3,5,7,9,-1,-1,11,-1,-1,-1,13,-1,-1,15,-1,-1],"loss_changes":[1.6698671E2,1.9950746E2,1.2841339E0,6.721025E1,6.630707E-2,0E0,0E0,6.836441E1,0E0,0E0,0E0,7.1137375E1,0E0,0E0,7.393361E1,0E0,0E0],"parents":[2147483647,0,0,1,1,2,2,3,3,4,4,7,7,11,11,14,14],"right_children":[2,4,6,8,10,-1,-1,12,-1,-1,-1,14,-1,-1,16,-1,-1],"split_conditions":[2.9802322E-8,4.5932627E-1,4.2920384E-1,6.97028E-1,1.1139993E-1,-5.293786E-2,-6.959817E-2,2.0666447E-1,-8.2087226E-2,-6.1510235E-2,-5.2920874E-2,4.8984608E-1,-7.5513E-2,-7.094718E-2,4.6103534E-1,-7.369561E-2,3.0788263E-2],"split_indices":[33,84,15,88,27,0,0,34,0,0,0,47,0,0,43,0,0],"split_type":[0,0,0,0,0,0,0,0,0,0,0,0,0,0,0,0,0],"sum_hessian":[3.6678442E3,3.2476658E3,4.201784E2,2.8405867E3,4.070793E2,3.5258856E2,6.758985E1,2.77912E3,6.14665E1,5.5600307E1,3.51479E2,2.711125E3,6.799509E1,7.372033E1,2.6374048E3,6.863321E1,2.5687715E3],"tree_param":{"num_deleted":"0","num_feature":"105","num_nodes":"17","size_leaf_vector":"1"}},{"base_weights":[-6.4207196E-2,-5.391933E-1,5.835275E-1,-5.4095577E-2,5.955829E-2,-5.053092E-2,6.06026E-2],"categories":[],"categories_nodes":[],"categories_segments":[],"categories_sizes":[],"default_left":[0,0,0,0,0,0,0],"id":69,"left_children":[1,3,5,-1,-1,-1,-1],"loss_changes":[6.8727875E2,2.8997192E0,2.3458954E1,0E0,0E0,0E0,0E0],"parents":[2147483647,0,0,1,1,2,2],"right_children":[2,4,6,-1,-1,-1,-1],"split_conditions":[1.1139993E-1,5.427675E-1,1.4785642E-2,-5.4095577E-2,5.955829E-2,-5.053092E-2,6.06026E-2],"split_indices":[27,6,21,0,0,0,0],"split_type":[0,0,0,0,0,0,0],"sum_hessian":[2.231832E3,1.2877144E3,9.441177E2,1.2862399E3,1.4744717E0,1.8678823E1,9.254389E2],"tree_param":{"num_deleted":"0","num_feature":"105","num_nodes":"7","size_leaf_vector":"1"}},{"base_weights":[-7.455374E-2,6.02891E-1,-5.4077517E-2,6.0468525E-2,-3.1955495E-2],"categories":[],"categories_nodes":[],"categories_segments":[],"categories_sizes":[],"default_left":[0,0,0,0,0],"id":70,"left_children":[1,3,-1,-1,-1],"loss_changes":[6.9923535E2,1.6870728E0,0E0,0E0,0E0],"parents":[2147483647,0,0,1,1],"right_children":[2,4,-1,-1,-1],"split_conditions":[4.2695674E-1,4.2920384E-1,-5.4077517E-2,6.0468525E-2,-3.1955495E-2],"split_indices":[12,15,0,0,0],"split_type":[0,0,0,0,0],"sum_hessian":[2.211864E3,9.015583E2,1.3103057E3,9.0015186E2,1.406416E0],"tree_param":{"num_deleted":"0","num_feature":"105","num_nodes":"5","size_leaf_vector":"1"}},{"base_weights":[4.619878E-2,-5.1760185E-1,1.0723787E-1,-5.294254E-2,5.9738558E-2,1.7203672E-1,-3.7551606E-1,1.492862E-1,1.0217954E-1,2.5610623E-1,-5.180887E-1,1.0192966E-1,1.2570105E-1,9.0574786E-2,6.390495E-2,5.734784E-2,-5.2940726E-2,1.02508225E-1,1.06469445E-1,1.7613743E-2,7.159908E-2,9.7989194E-2,7.670791E-3,-6.5326714E-3,6.265649E-2],"categories":[],"categories_nodes":[],"categories_segments":[],"categories_sizes":[],"default_left":[0,0,0,0,0,0,0,0,0,0,0,0,0,0,0,0,0,0,0,0,0,0,0,0,0],"id":71,"left_children":[1,3,5,-1,-1,7,9,11,-1,13,15,-1,17,19,-1,-1,-1,21,-1,23,-1,-1,-1,-1,-1],"loss_changes":[1.2619042E2,5.0387115E0,1.0354558E2,0E0,0E0,5.624453E1,3.541449E1,5.8194427E1,0E0,4.5581355E0,4.256874E0,0E0,6.0181866E1,2.3605678E0,0E0,0E0,0E0,6.1108036E1,0E0,2.4450426E0,0E0,0E0,0E0,0E0,0E0],"parents":[2147483647,0,0,1,1,2,2,5,5,6,6,7,7,9,9,10,10,12,12,13,13,17,17,19,19],"right_children":[2,4,6,-1,-1,8,10,12,-1,14,16,-1,18,20,-1,-1,-1,22,-1,24,-1,-1,-1,-1,-1],"split_conditions":[4.2695674E-1,4.2920384E-1,5.279158E-1,-5.294254E-2,5.9738558E-2,2.0666447E-1,4.5932627E-1,4.9720937E-1,1.0217954E-1,1.1594306E-1,4.8732306E-3,1.0192966E-1,1.9262697E-1,1.8512958E-1,6.390495E-2,5.734784E-2,-5.2940726E-2,4.953346E-1,1.06469445E-1,1.1048068E-3,7.159908E-2,9.7989194E-2,7.670791E-3,-6.5326714E-3,6.265649E-2],"split_indices":[12,15,6,0,0,34,84,52,0,27,27,0,35,38,0,0,0,45,0,31,0,0,0,0,0],"split_type":[0,0,0,0,0,0,0,0,0,0,0,0,0,0,0,0,0,0,0,0,0,0,0,0,0],"sum_hessian":[3.664234E3,3.5721948E2,3.3070144E3,3.5399088E2,3.228609E0,2.916221E3,3.9079346E2,2.841326E3,7.489496E1,7.1820305E1,3.1897314E2,7.387833E1,2.7674478E3,5.1008038E1,2.0812265E1,2.76381E0,3.1620932E2,2.7018228E3,6.5624985E1,4.659986E1,4.4081774E0,7.6123795E1,2.625699E3,4.179941E1,4.800447E0],"tree_param":{"num_deleted":"0","num_feature":"105","num_nodes":"25","size_leaf_vector":"1"}},{"base_weights":[3.9868183E-2,-5.497444E-1,1.1210828E-1,-5.145061E-1,-7.173159E-2,1.9758731E-1,-5.389581E-1,-5.2644152E-2,1.7310579E-1,2.2170685E-1,-7.4229926E-2,-6.079636E-2,-5.2613545E-2,3.488124E-1,-5.9851337E-2,2.4765478E-1,-7.1314454E-2,5.4490846E-2,-1.8345341E-3,2.2914043E-2,-3.6905E-2,-7.795888E-2,2.7311936E-1,3.0095914E-2,-7.320041E-2],"categories":[],"categories_nodes":[],"categories_segments":[],"categories_sizes":[],"default_left":[0,0,0,0,0,0,0,0,0,0,0,0,0,0,0,0,0,0,0,0,0,0,0,0,0],"id":72,"left_children":[1,3,5,7,-1,9,11,-1,13,15,-1,-1,-1,17,19,21,-1,-1,-1,-1,-1,-1,23,-1,-1],"loss_changes":[1.5300264E2,1.9461823E0,1.7817282E2,2.7789001E0,0E0,6.429726E1,8.934021E-3,0E0,2.803955E-1,6.710301E1,0E0,0E0,0E0,2.8075835E-1,4.044179E-1,7.045412E1,0E0,0E0,0E0,0E0,0E0,0E0,7.356268E1,0E0,0E0],"parents":[2147483647,0,0,1,1,2,2,3,3,5,5,6,6,8,8,9,9,13,13,14,14,15,15,22,22],"right_children":[2,4,6,8,-1,10,12,-1,14,16,-1,-1,-1,18,20,22,-1,-1,-1,-1,-1,-1,24,-1,-1],"split_conditions":[5.0002563E-1,5.842345E-1,1.1387682E-1,4.9489707E-1,-7.173159E-2,1.9837463E-1,7.4973623E-3,-5.2644152E-2,1.5831193E-3,1.8584101E-1,-7.4229926E-2,-6.079636E-2,-5.2613545E-2,1.804448E-4,4.9797848E-1,5E-1,-7.1314454E-2,5.4490846E-2,-1.8345341E-3,2.2914043E-2,-3.6905E-2,-7.795888E-2,1.9861229E-1,3.0095914E-2,-7.320041E-2],"split_indices":[60,81,21,15,0,40,27,0,23,37,0,0,0,21,0,56,0,0,0,0,0,0,41,0,0],"split_type":[0,0,0,0,0,0,0,0,0,0,0,0,0,0,0,0,0,0,0,0,0,0,0,0,0],"sum_hessian":[3.5896978E3,3.9108795E2,3.1986099E3,3.2649936E2,6.4588615E1,2.8280142E3,3.7059576E2,3.2115912E2,5.340222E0,2.758002E3,7.0012215E1,5.0799805E1,3.1979596E2,2.7606745E0,2.5795476E0,2.684233E3,7.376905E1,1.4839709E0,1.2767035E0,1.4671766E0,1.1123711E0,6.421413E1,2.6200188E3,2.5500874E3,6.993137E1],"tree_param":{"num_deleted":"0","num_feature":"105","num_nodes":"25","size_leaf_vector":"1"}},{"base_weights":[-7.27479E-2,-5.381269E-2,5.736306E-1,-4.986972E-2,5.9385264E-1,-2.9482124E-2,5.9544683E-2],"categories":[],"categories_nodes":[],"categories_segments":[],"categories_sizes":[],"default_left":[0,0,0,0,0,0,0],"id":73,"left_children":[1,-1,3,-1,5,-1,-1],"loss_changes":[6.260627E2,0E0,1.9189178E1,0E0,1.3876953E0,0E0,0E0],"parents":[2147483647,0,0,2,2,4,4],"right_children":[2,-1,4,-1,6,-1,-1],"split_conditions":[4.1950345E-3,-5.381269E-2,1.4785642E-2,-4.986972E-2,5.4906195E-1,-2.9482124E-2,5.9544683E-2],"split_indices":[90,0,21,0,69,0,0],"split_type":[0,0,0,0,0,0,0],"sum_hessian":[2.0792234E3,1.2089629E3,8.7026056E2,1.5669761E1,8.5459076E2,1.2009361E0,8.5338983E2],"tree_param":{"num_deleted":"0","num_feature":"105","num_nodes":"7","size_leaf_vector":"1"}},{"base_weights":[-7.298097E-2,5.9146255E-1,-5.3799536E-2,5.9333414E-2,-3.203468E-2],"categories":[],"categories_nodes":[],"categories_segments":[],"categories_sizes":[],"default_left":[0,0,0,0,0],"id":74,"left_children":[1,3,-1,-1,-1],"loss_changes":[6.462597E2,1.6596985E0,0E0,0E0,0E0],"parents":[2147483647,0,0,1,1],"right_children":[2,4,-1,-1,-1],"split_conditions":[4.2920384E-1,5.0004554E-1,-5.3799536E-2,5.9333414E-2,-3.203468E-2],"split_indices":[15,18,0,0,0],"split_type":[0,0,0,0,0],"sum_hessian":[2.0895894E3,8.6020264E2,1.2293867E3,8.587892E2,1.4134457E0],"tree_param":{"num_deleted":"0","num_feature":"105","num_nodes":"5","size_leaf_vector":"1"}},{"base_weights":[4.6553522E-2,-5.106871E-1,1.01540305E-1,-5.26339E-2,6.0044896E-2,1.5883283E-1,-3.5244438E-1,1.3583848E-1,9.636151E-2,2.742164E-1,-5.14707E-1,1.1204098E-1,9.71541E-2,1.4430769E-1,6.268907E-2,-5.2625515E-2,5.4590125E-2,8.6194485E-2,9.2875324E-2,8.622981E-2,6.935339E-2,5.8374587E-3,9.083119E-2,3.7377726E-3,7.720599E-2],"categories":[],"categories_nodes":[],"categories_segments":[],"categories_sizes":[],"default_left":[0,0,0,0,0,0,0,0,0,0,0,0,0,0,0,0,0,0,0,0,0,0,0,0,0],"id":75,"left_children":[1,3,5,-1,-1,7,9,11,-1,13,15,17,-1,19,-1,-1,-1,21,-1,23,-1,-1,-1,-1,-1],"loss_changes":[1.1136829E2,5.993553E0,8.608342E1,0E0,0E0,5.4229683E1,3.7859615E1,5.6712234E1,0E0,3.4348426E0,3.9003677E0,5.8585064E1,0E0,1.775328E0,0E0,0E0,0E0,6.1584503E1,0E0,1.7526139E0,0E0,0E0,0E0,0E0,0E0],"parents":[2147483647,0,0,1,1,2,2,5,5,6,6,7,7,9,9,10,10,11,11,13,13,17,17,19,19],"right_children":[2,4,6,-1,-1,8,10,12,-1,14,16,18,-1,20,-1,-1,-1,22,-1,24,-1,-1,-1,-1,-1],"split_conditions":[4.2695674E-1,5.0004554E-1,5.279158E-1,-5.26339E-2,6.0044896E-2,1.9837463E-1,4.5932627E-1,1.9861229E-1,9.636151E-2,1.1594306E-1,1.227016E-1,1.8584101E-1,9.71541E-2,1.8512958E-1,6.268907E-2,-5.2625515E-2,5.4590125E-2,4.445851E-3,9.2875324E-2,1.9262697E-1,6.935339E-2,5.8374587E-3,9.083119E-2,3.7377726E-3,7.720599E-2],"split_indices":[12,18,6,0,0,40,84,41,0,27,21,37,0,38,0,0,0,92,0,35,0,0,0,0,0],"split_type":[0,0,0,0,0,0,0,0,0,0,0,0,0,0,0,0,0,0,0,0,0,0,0,0,0],"sum_hessian":[3.63194E3,3.2545584E2,3.3064841E3,3.2145404E2,4.0018187E0,2.9365444E3,3.6993954E2,2.8561082E3,8.043637E1,7.594578E1,2.9399377E2,2.778132E3,7.797612E1,5.6531425E1,1.9414354E1,2.913256E2,2.668191E0,2.6939812E3,8.415088E1,5.217155E1,4.3598742E0,2.6068384E3,8.7142654E1,4.968683E1,2.4847221E0],"tree_param":{"num_deleted":"0","num_feature":"105","num_nodes":"25","size_leaf_vector":"1"}},{"base_weights":[4.5576047E-2,1.1396725E-1,-5.563264E-1,1.9353506E-1,-5.3694036E-2,-5.234784E-2,-6.8994224E-2,-7.246085E-2,2.1859805E-1,-7.346264E-2,2.444422E-1,-7.538933E-2,2.7050206E-1,2.9764181E-2,-7.3149286E-2],"categories":[],"categories_nodes":[],"categories_segments":[],"categories_sizes":[],"default_left":[0,0,0,0,0,0,0,0,0,0,0,0,0,0,0],"id":76,"left_children":[1,3,5,7,-1,-1,-1,-1,9,-1,11,-1,13,-1,-1],"loss_changes":[1.4448813E2,1.6331418E2,1.2107239E0,6.479252E1,0E0,0E0,0E0,0E0,6.755493E1,0E0,6.949812E1,0E0,7.082539E1,0E0,0E0],"parents":[2147483647,0,0,1,1,2,2,3,3,8,8,10,10,12,12],"right_children":[2,4,6,8,-1,-1,-1,-1,10,-1,12,-1,14,-1,-1],"split_conditions":[2.9802322E-8,4.5932627E-1,4.2920384E-1,4.9526313E-1,-5.3694036E-2,-5.234784E-2,-6.8994224E-2,-7.246085E-2,4.898177E-1,-7.346264E-2,4.615807E-1,-7.538933E-2,6.937444E-3,2.9764181E-2,-7.3149286E-2],"split_indices":[33,84,15,51,0,0,0,0,53,0,49,0,86,0,0],"split_type":[0,0,0,0,0,0,0,0,0,0,0,0,0,0,0],"sum_hessian":[3.50745E3,3.150307E3,3.5714313E2,2.8077825E3,3.4252438E2,2.906161E2,6.652704E1,7.386709E1,2.7339153E3,7.144228E1,2.6624731E3,6.702084E1,2.5954521E3,2.527691E3,6.77614E1],"tree_param":{"num_deleted":"0","num_feature":"105","num_nodes":"15","size_leaf_vector":"1"}},{"base_weights":[-6.985267E-2,-5.3545535E-2,5.629843E-1,-4.9943827E-2,5.855546E-2],"categories":[],"categories_nodes":[],"categories_segments":[],"categories_sizes":[],"default_left":[0,0,0,0,0],"id":77,"left_children":[1,-1,3,-1,-1],"loss_changes":[5.7572186E2,0E0,2.0153778E1,0E0,0E0],"parents":[2147483647,0,0,2,2],"right_children":[2,-1,4,-1,-1],"split_conditions":[4.1950345E-3,-5.3545535E-2,5.4794884E-1,-4.9943827E-2,5.855546E-2],"split_indices":[90,0,63,0,0],"split_type":[0,0,0,0,0],"sum_hessian":[1.9518909E3,1.1246189E3,8.272719E2,1.6769638E1,8.1050226E2],"tree_param":{"num_deleted":"0","num_feature":"105","num_nodes":"5","size_leaf_vector":"1"}},{"base_weights":[-7.8731105E-2,5.8211637E-1,-5.354449E-2,5.832931E-2,1.8270507E-1,3.678446E-2,-1.4802163E-2],"categories":[],"categories_nodes":[],"categories_segments":[],"categories_sizes":[],"default_left":[0,0,0,0,0,0,0],"id":78,"left_children":[1,3,-1,-1,5,-1,-1],"loss_changes":[5.8388727E2,2.6501465E-1,0E0,0E0,2.8581583E-1,0E0,0E0],"parents":[2147483647,0,0,1,1,4,4],"right_children":[2,4,-1,-1,6,-1,-1],"split_conditions":[4.2695674E-1,1.1683458E-1,-5.354449E-2,5.832931E-2,1.984729E-1,3.678446E-2,-1.4802163E-2],"split_indices":[12,60,0,0,33,0,0],"split_type":[0,0,0,0,0,0,0],"sum_hessian":[1.9325337E3,7.896564E2,1.1428773E3,7.8687775E2,2.778616E0,1.7094443E0,1.0691715E0],"tree_param":{"num_deleted":"0","num_feature":"105","num_nodes":"7","size_leaf_vector":"1"}},{"base_weights":[5.0535705E-2,-5.06979E-1,1.0146131E-1,-5.235234E-2,5.851061E-2,1.5485212E-1,-3.0919904E-1,9.356083E-2,1.2987226E-1,7.07765E-2,-5.2564956E-2,1.0467133E-1,9.693481E-2,7.622098E-2,8.842286E-1,9.276631E-2,4.779033E-3,9.4745E-4,9.403716E-2],"categories":[],"categories_nodes":[],"categories_segments":[],"categories_sizes":[],"default_left":[0,0,0,0,0,0,0,0,0,0,0,0,0,0,0,0,0,0,0],"id":79,"left_children":[1,3,5,-1,-1,7,9,-1,11,-1,-1,13,-1,15,17,-1,-1,-1,-1],"loss_changes":[1.00919014E2,5.6819153E0,7.144122E1,0E0,0E0,5.6090805E1,8.291119E1,0E0,5.9007545E1,0E0,0E0,6.0119003E1,0E0,6.3359997E1,4.6790924E0,0E0,0E0,0E0,0E0],"parents":[2147483647,0,0,1,1,2,2,5,5,6,6,8,8,11,11,13,13,14,14],"right_children":[2,4,6,-1,-1,8,10,-1,12,-1,-1,14,-1,16,18,-1,-1,-1,-1],"split_conditions":[4.2695674E-1,4.2920384E-1,1.1139993E-1,-5.235234E-2,5.851061E-2,4.9526313E-1,1.4785642E-2,9.356083E-2,1.8512958E-1,7.07765E-2,-5.2564956E-2,4.445851E-3,9.693481E-2,4.898177E-1,6.122537E-1,9.276631E-2,4.779033E-3,9.4745E-4,9.403716E-2],"split_indices":[12,15,27,0,0,51,21,0,38,0,0,92,0,53,71,0,0,0,0],"split_type":[0,0,0,0,0,0,0,0,0,0,0,0,0,0,0,0,0,0,0],"sum_hessian":[3.5517036E3,2.965231E2,3.2551807E3,2.9261087E2,3.9122417E0,2.8812112E3,3.739694E2,8.81947E1,2.7930164E3,6.522912E1,3.0874026E2,2.712706E3,8.031031E1,2.6182495E3,9.445658E1,8.35795E1,2.5346702E3,5.767224E0,8.8689354E1],"tree_param":{"num_deleted":"0","num_feature":"105","num_nodes":"19","size_leaf_vector":"1"}},{"base_weights":[3.7378944E-2,1.0151396E-1,-5.611729E-1,1.7344011E-1,-5.287187E-1,-5.209378E-2,-7.1677886E-2,-7.666919E-2,1.969917E-1,-1.6539238E-1,-5.366713E-1,2.2154453E-1,-7.323449E-2,4.1575354E-2,-4.7099393E-2,-6.0982496E-2,-5.2072424E-2,2.4686791E-1,-7.3861256E-2,-7.369524E-2,2.7346313E-2],"categories":[],"categories_nodes":[],"categories_segments":[],"categories_sizes":[],"default_left":[0,0,0,0,0,0,0,0,0,0,0,0,0,0,0,0,0,0,0,0,0],"id":80,"left_children":[1,3,5,7,9,-1,-1,-1,11,13,15,17,-1,-1,-1,-1,-1,19,-1,-1,-1],"loss_changes":[1.3299022E2,1.4191104E2,1.7258072E0,6.2343628E1,8.3794403E-1,0E0,0E0,0E0,6.270614E1,1.672594E0,4.8057556E-2,6.5131546E1,0E0,0E0,0E0,0E0,0E0,6.831746E1,0E0,0E0,0E0],"parents":[2147483647,0,0,1,1,2,2,3,3,4,4,8,8,9,9,10,10,11,11,17,17],"right_children":[2,4,6,8,10,-1,-1,-1,12,14,16,18,-1,-1,-1,-1,-1,20,-1,-1,-1],"split_conditions":[2.9802322E-8,4.1950345E-3,4.2695674E-1,4.9720937E-1,4.6904808E-1,-5.209378E-2,-7.1677886E-2,-7.666919E-2,1.8512958E-1,5.286136E-1,1.4785642E-2,2.0666447E-1,-7.323449E-2,4.1575354E-2,-4.7099393E-2,-6.0982496E-2,-5.2072424E-2,4.615807E-1,-7.3861256E-2,-7.369524E-2,2.7346313E-2],"split_indices":[36,90,12,52,90,0,0,0,38,0,21,34,0,0,0,0,0,49,0,0,0],"split_type":[0,0,0,0,0,0,0,0,0,0,0,0,0,0,0,0,0,0,0,0,0],"sum_hessian":[3.4618743E3,3.1275833E3,3.342911E2,2.8078574E3,3.197257E2,2.690663E2,6.5224785E1,6.785045E1,2.740007E3,7.3152266E0,3.1241046E2,2.6702222E3,6.978498E1,2.396841E0,4.9183855E0,4.924929E1,2.631612E2,2.6023306E3,6.78915E1,6.779309E1,2.5345374E3],"tree_param":{"num_deleted":"0","num_feature":"105","num_nodes":"21","size_leaf_vector":"1"}},{"base_weights":[-8.1686996E-2,-5.3320467E-2,5.5214554E-1,-4.9642835E-2,5.7640184E-2],"categories":[],"categories_nodes":[],"categories_segments":[],"categories_sizes":[],"default_left":[0,0,0,0,0],"id":81,"left_children":[1,-1,3,-1,-1],"loss_changes":[5.19638E2,0E0,1.9500092E1,0E0,0E0],"parents":[2147483647,0,0,2,2],"right_children":[2,-1,4,-1,-1],"split_conditions":[4.1950345E-3,-5.3320467E-2,5.4794884E-1,-4.9642835E-2,5.7640184E-2],"split_indices":[90,0,63,0,0],"split_type":[0,0,0,0,0],"sum_hessian":[1.8137026E3,1.059275E3,7.544276E2,1.6617231E1,7.378104E2],"tree_param":{"num_deleted":"0","num_feature":"105","num_nodes":"5","size_leaf_vector":"1"}},{"base_weights":[-8.8291556E-2,5.727781E-1,-5.3307008E-2,5.7440545E-2,-2.7701223E-2],"categories":[],"categories_nodes":[],"categories_segments":[],"categories_sizes":[],"default_left":[0,0,0,0,0],"id":82,"left_children":[1,3,-1,-1,-1],"loss_changes":[5.296715E2,1.1611633E0,0E0,0E0,0E0],"parents":[2147483647,0,0,1,1],"right_children":[2,4,-1,-1,-1],"split_conditions":[4.2695674E-1,4.2920384E-1,-5.3307008E-2,5.7440545E-2,-2.7701223E-2],"split_indices":[12,15,0,0,0],"split_type":[0,0,0,0,0],"sum_hessian":[1.7993839E3,7.236069E2,1.0757771E3,7.225473E2,1.0595738E0],"tree_param":{"num_deleted":"0","num_feature":"105","num_nodes":"5","size_leaf_vector":"1"}},{"base_weights":[4.344371E-2,-5.0590694E-1,8.9590356E-2,-5.2096188E-2,5.4615743E-2,1.4078327E-1,-3.21316E-1,1.19264856E-1,9.972957E-1,1.8442842E-1,-5.093345E-1,9.593604E-2,9.49942E-2,6.580109E-2,1.068249E-1,6.909847E-2,6.093688E-2,-5.2135903E-2,5.1736105E-2,9.011183E-2,7.021886E-2,-1.5465103E-1,3.560433E-2,2.8501363E-2,7.322118E-2,4.5642382E-3,9.708404E-2,1.019253E-2,-4.077473E-2,-1.2200725E-3,7.52812E-2],"categories":[],"categories_nodes":[],"categories_segments":[],"categories_sizes":[],"default_left":[0,0,0,0,0,0,0,0,0,0,0,0,0,0,0,0,0,0,0,0,0,0,0,0,0,0,0,0,0,0,0],"id":83,"left_children":[1,3,5,-1,-1,7,9,11,13,15,17,19,-1,21,-1,23,-1,-1,-1,-1,25,27,-1,29,-1,-1,-1,-1,-1,-1,-1],"loss_changes":[8.91323E1,4.6001663E0,6.825723E1,0E0,0E0,5.303851E1,3.4282623E1,5.4452545E1,4.5924225E0,4.769281E0,3.5087967E0,5.665003E1,0E0,4.4274732E-1,0E0,2.088233E0,0E0,0E0,0E0,0E0,5.8725254E1,3.104508E-1,0E0,2.216317E0,0E0,0E0,0E0,0E0,0E0,0E0,0E0],"parents":[2147483647,0,0,1,1,2,2,5,5,6,6,7,7,8,8,9,9,10,10,11,11,13,13,15,15,20,20,21,21,23,23],"right_children":[2,4,6,-1,-1,8,10,12,14,16,18,20,-1,22,-1,24,-1,-1,-1,-1,26,28,-1,30,-1,-1,-1,-1,-1,-1,-1],"split_conditions":[4.2695674E-1,4.2920384E-1,5.2672255E-1,-5.2096188E-2,5.4615743E-2,1.2051401E-3,4.5932627E-1,2.9802322E-8,5.0196123E-1,1.1594306E-1,1.2300702E-1,4.8984608E-1,9.49942E-2,1.0232152E-4,1.068249E-1,1.8584101E-1,6.093688E-2,-5.2135903E-2,5.1736105E-2,9.011183E-2,1.2369249E-3,6.477866E-3,3.560433E-2,1.9262697E-1,7.322118E-2,4.5642382E-3,9.708404E-2,1.019253E-2,-4.077473E-2,