{"learner":{"attributes":{"scikit_learn":"{\"_estimator_type\": \"classifier\"}"},"feature_names":[],"feature_types":[],"gradient_booster":{"model":{"gbtree_model_param":{"num_parallel_tree":"1","num_trees":"400"},"iteration_indptr":[0,4,8,12,16,20,24,28,32,36,40,44,48,52,56,60,64,68,72,76,80,84,88,92,96,100,104,108,112,116,120,124,128,132,136,140,144,148,152,156,160,164,168,172,176,180,184,188,192,196,200,204,208,212,216,220,224,228,232,236,240,244,248,252,256,260,264,268,272,276,280,284,288,292,296,300,304,308,312,316,320,324,328,332,336,340,344,348,352,356,360,364,368,372,376,380,384,388,392,396,400],"tree_info":[0,1,2,3,0,1,2,3,0,1,2,3,0,1,2,3,0,1,2,3,0,1,2,3,0,1,2,3,0,1,2,3,0,1,2,3,0,1,2,3,0,1,2,3,0,1,2,3,0,1,2,3,0,1,2,3,0,1,2,3,0,1,2,3,0,1,2,3,0,1,2,3,0,1,2,3,0,1,2,3,0,1,2,3,0,1,2,3,0,1,2,3,0,1,2,3,0,1,2,3,0,1,2,3,0,1,2,3,0,1,2,3,0,1,2,3,0,1,2,3,0,1,2,3,0,1,2,3,0,1,2,3,0,1,2,3,0,1,2,3,0,1,2,3,0,1,2,3,0,1,2,3,0,1,2,3,0,1,2,3,0,1,2,3,0,1,2,3,0,1,2,3,0,1,2,3,0,1,2,3,0,1,2,3,0,1,2,3,0,1,2,3,0,1,2,3,0,1,2,3,0,1,2,3,0,1,2,3,0,1,2,3,0,1,2,3,0,1,2,3,0,1,2,3,0,1,2,3,0,1,2,3,0,1,2,3,0,1,2,3,0,1,2,3,0,1,2,3,0,1,2,3,0,1,2,3,0,1,2,3,0,1,2,3,0,1,2,3,0,1,2,3,0,1,2,3,0,1,2,3,0,1,2,3,0,1,2,3,0,1,2,3,0,1,2,3,0,1,2,3,0,1,2,3,0,1,2,3,0,1,2,3,0,1,2,3,0,1,2,3,0,1,2,3,0,1,2,3,0,1,2,3,0,1,2,3,0,1,2,3,0,1,2,3,0,1,2,3,0,1,2,3,0,1,2,3,0,1,2,3,0,1,2,3,0,1,2,3,0,1,2,3,0,1,2,3,0,1,2,3,0,1,2,3,0,1,2,3,0,1,2,3,0,1,2,3,0,1,2,3],"trees":[{"base_weights":[2.0815986E-3,2.4176446E-1,-6.6614114E-2,7.3993E-1,-6.661349E-2,-6.568266E-2,7.822753E-1,8.24649E-1,-6.5625004E-2,-6.560636E-2,8.687496E-1,9.163995E-2,-6.110057E-2],"categories":[],"categories_nodes":[],"categories_segments":[],"categories_sizes":[],"default_left":[0,0,0,0,0,0,0,0,0,0,0,0,0],"id":0,"left_children":[1,3,-1,5,-1,-1,7,9,-1,-1,11,-1,-1],"loss_changes":[7.69577E2,1.5999955E3,0E0,1.3560376E2,0E0,0E0,1.3569482E2,1.4124329E2,0E0,0E0,1.4809375E2,0E0,0E0],"parents":[2147483647,0,0,1,1,3,3,6,6,7,7,10,10],"right_children":[2,4,-1,6,-1,-1,8,10,-1,-1,12,-1,-1],"split_conditions":[1.1349927E-1,2.9802322E-8,-6.6614114E-2,4.6103534E-1,-6.661349E-2,-6.568266E-2,4.702276E-1,4.8984608E-1,-6.5625004E-2,-6.560636E-2,3.8185716E-4,9.163995E-2,-6.110057E-2],"split_indices":[27,33,0,43,0,0,84,47,0,0,94,0,0],"split_type":[0,0,0,0,0,0,0,0,0,0,0,0,0],"sum_hessian":[4.803E3,3.5355E3,1.2675E3,2.283E3,1.2525E3,6.675E1,2.21625E3,2.15325E3,6.3E1,6.1875E1,2.091375E3,2.0265E3,6.4875E1],"tree_param":{"num_deleted":"0","num_feature":"105","num_nodes":"13","size_leaf_vector":"1"}},{"base_weights":[-8.561866E-3,-6.65359E-1,1.8664134E0,-6.664798E-2,1.20000005E-1,-6.560636E-2,1.998317E-1],"categories":[],"categories_nodes":[],"categories_segments":[],"categories_sizes":[],"default_left":[0,0,0,0,0,0,0],"id":1,"left_children":[1,3,5,-1,-1,-1,-1],"loss_changes":[5.934351E3,8.260742E0,4.1725635E2,0E0,0E0,0E0,0E0],"parents":[2147483647,0,0,1,1,2,2],"right_children":[2,4,6,-1,-1,-1,-1],"split_conditions":[1.13140106E-1,5.411704E-1,4.1950345E-3,-6.664798E-2,1.20000005E-1,-6.560636E-2,1.998317E-1],"split_indices":[21,0,90,0,0,0,0],"split_type":[0,0,0,0,0,0,0],"sum_hessian":[4.816875E3,3.56775E3,1.249125E3,3.56625E3,1.5E0,6.1875E1,1.18725E3],"tree_param":{"num_deleted":"0","num_feature":"105","num_nodes":"7","size_leaf_vector":"1"}},{"base_weights":[-3.130707E-4,1.9916736E0,-6.66481E-2,1.9983307E-1,-5E-2],"categories":[],"categories_nodes":[],"categories_segments":[],"categories_sizes":[],"default_left":[0,0,0,0,0],"id":2,"left_children":[1,3,-1,-1,-1],"loss_changes":[6.359305E3,2.0919922E1,0E0,0E0,0E0],"parents":[2147483647,0,0,1,1],"right_children":[2,4,-1,-1,-1],"split_conditions":[4.2603624E-1,2.030536E-1,-6.66481E-2,1.9983307E-1,-5E-2],"split_indices":[12,33,0,0,0],"split_type":[0,0,0,0,0],"sum_hessian":[4.79025E3,1.2E3,3.59025E3,1.197E3,3E0],"tree_param":{"num_deleted":"0","num_feature":"105","num_nodes":"5","size_leaf_vector":"1"}},{"base_weights":[-3.950104E-3,-6.5868014E-1,2.1614303E-1,-6.661143E-2,1.5428571E-1,6.2864494E-1,-5.4169536E-1,1.9692898E-1,5.898694E-1,1.966805E-1,-6.661159E-2,5.498243E-1,1.9685659E-1,5.0822157E-1,1.9680001E-1,4.655431E-2,1.9670103E-1],"categories":[],"categories_nodes":[],"categories_segments":[],"categories_sizes":[],"default_left":[0,0,0,0,0,0,0,0,0,0,0,0,0,0,0,0,0],"id":3,"left_children":[1,3,5,-1,-1,7,9,-1,11,-1,-1,13,-1,15,-1,-1,-1],"loss_changes":[6.93271E2,2.0837463E1,1.1259312E3,0E0,0E0,1.20065674E2,3.9757132E2,0E0,1.24127075E2,0E0,0E0,1.2910944E2,0E0,1.3255176E2,0E0,0E0,0E0],"parents":[2147483647,0,0,1,1,2,2,5,5,6,6,8,8,11,11,13,13],"right_children":[2,4,6,-1,-1,8,10,-1,12,-1,-1,14,-1,16,-1,-1,-1],"split_conditions":[4.2603624E-1,5.0004554E-1,1.13140106E-1,-6.661143E-2,1.5428571E-1,4.6103534E-1,4.1950345E-3,1.9692898E-1,1.1349927E-1,1.966805E-1,-6.661159E-2,1.8349168E-1,1.9685659E-1,2.1105348E-1,1.9680001E-1,4.655431E-2,1.9670103E-1],"split_indices":[12,18,21,0,0,43,90,0,27,0,0,37,0,23,0,0,0],"split_type":[0,0,0,0,0,0,0,0,0,0,0,0,0,0,0,0,0],"sum_hessian":[4.809E3,1.209375E3,3.599625E3,1.206E3,3.375E0,2.331E3,1.268625E3,6.4125E1,2.266875E3,5.925E1,1.209375E3,2.20425E3,6.2625E1,2.14275E3,6.15E1,2.083125E3,5.9625E1],"tree_param":{"num_deleted":"0","num_feature":"105","num_nodes":"17","size_leaf_vector":"1"}},{"base_weights":[1.0601399E-2,2.3273395E-1,-6.526653E-2,6.708193E-1,-6.458504E-1,-6.766584E-2,7.069535E-1,4.3318084E-1,-6.507742E-2,7.445828E-1,-6.766795E-2,5.841471E-1,-8.0892787E-4,-6.50154E-2,7.849424E-1,7.135378E-2,1.0860724E-2,-6.7653626E-2,8.2642265E-2],"categories":[],"categories_nodes":[],"categories_segments":[],"categories_sizes":[],"default_left":[0,0,0,0,0,0,0,0,0,0,0,0,0,0,0,0,0,0,0],"id":4,"left_children":[1,3,-1,5,7,-1,9,11,-1,13,-1,15,-1,-1,17,-1,-1,-1,-1],"loss_changes":[7.0391144E2,1.3779749E3,0E0,1.16783325E2,6.6112976E0,0E0,1.21648315E2,4.0521824E-1,0E0,1.2804651E2,0E0,1.9896472E-1,0E0,0E0,1.3407397E2,0E0,0E0,0E0,0E0],"parents":[2147483647,0,0,1,1,3,3,4,4,6,6,7,7,9,9,11,11,14,14],"right_children":[2,4,-1,6,8,-1,10,12,-1,14,-1,16,-1,-1,18,-1,-1,-1,-1],"split_conditions":[2.9802322E-8,5.4906195E-1,-6.526653E-2,4.953283E-1,4.1950345E-3,-6.766584E-2,1.8328086E-1,5.897355E-1,-6.507742E-2,4.8984608E-1,-6.766795E-2,5.399377E-1,-8.0892787E-4,-6.50154E-2,5E-1,7.135378E-2,1.0860724E-2,-6.7653626E-2,8.2642265E-2],"split_indices":[36,69,0,45,90,0,38,2,0,47,0,0,0,0,61,0,0,0,0],"split_type":[0,0,0,0,0,0,0,0,0,0,0,0,0,0,0,0,0,0,0],"sum_hessian":[4.7756562E3,3.5780063E3,1.1976498E3,2.3876816E3,1.1903247E3,6.189342E1,2.3257883E3,5.0118833E0,1.1853129E3,2.2646604E3,6.112782E1,3.4930604E0,1.5188229E0,6.3264694E1,2.2013958E3,2.3524873E0,1.140573E0,6.033395E1,2.1410618E3],"tree_param":{"num_deleted":"0","num_feature":"105","num_nodes":"19","size_leaf_vector":"1"}},{"base_weights":[-2.549514E-3,-6.499344E-1,1.5560207E0,-6.516775E-2,1.3024609E-1,-5.433959E-1,1.6479354E-1,1.1826428E-1,-6.402188E-2],"categories":[],"categories_nodes":[],"categories_segments":[],"categories_sizes":[],"default_left":[0,0,0,0,0,0,0,0,0],"id":5,"left_children":[1,3,5,-1,-1,7,-1,-1,-1],"loss_changes":[4.8518574E3,1.24104E1,2.732085E2,0E0,0E0,1.0774971E1,0E0,0E0,0E0],"parents":[2147483647,0,0,1,1,2,2,5,5],"right_children":[2,4,6,-1,-1,8,-1,-1,-1],"split_conditions":[1.13140106E-1,5.411704E-1,4.6516204E-1,-6.516775E-2,1.3024609E-1,4.773453E-1,1.6479354E-1,1.1826428E-1,-6.402188E-2],"split_indices":[21,0,42,0,0,48,0,0,0],"split_type":[0,0,0,0,0,0,0,0,0],"sum_hessian":[4.8066025E3,3.3964138E3,1.4101888E3,3.39405E3,2.3638425E0,5.894385E1,1.351245E3,2.5351872E0,5.6408665E1],"tree_param":{"num_deleted":"0","num_feature":"105","num_nodes":"9","size_leaf_vector":"1"}},{"base_weights":[-3.215709E-3,1.6435506E0,-6.516608E-2,1.647905E-1,-4.7121257E-2],"categories":[],"categories_nodes":[],"categories_segments":[],"categories_sizes":[],"default_left":[0,0,0,0,0],"id":6,"left_children":[1,3,-1,-1,-1],"loss_changes":[5.0855605E3,1.316626E1,0E0,0E0,0E0],"parents":[2147483647,0,0,1,1],"right_children":[2,4,-1,-1,-1],"split_conditions":[4.2603624E-1,4.2822084E-1,-6.516608E-2,1.647905E-1,-4.7121257E-2],"split_indices":[12,15,0,0,0],"split_type":[0,0,0,0,0],"sum_hessian":[4.760482E3,1.344502E3,3.4159802E3,1.3419596E3,2.5423195E0],"tree_param":{"num_deleted":"0","num_feature":"105","num_nodes":"5","size_leaf_vector":"1"}},{"base_weights":[8.421603E-3,-6.438516E-1,2.1166004E-1,-6.5070085E-2,1.312888E-1,5.7306665E-1,-5.1774114E-1,1.814027E-1,5.3575855E-1,1.630111E-1,-6.498518E-1,1.8852879E-1,4.9923325E-1,3.4107754E-5,-6.50701E-2,4.607289E-1,1.8848227E-1,4.205981E-2,1.8844317E-1],"categories":[],"categories_nodes":[],"categories_segments":[],"categories_sizes":[],"default_left":[0,0,0,0,0,0,0,0,0,0,0,0,0,0,0,0,0,0,0],"id":7,"left_children":[1,3,5,-1,-1,7,9,-1,11,-1,13,-1,15,-1,-1,17,-1,-1,-1],"loss_changes":[6.366725E2,1.6145264E1,9.6555414E2,0E0,0E0,1.1240997E2,3.45456E2,0E0,1.1632007E2,0E0,6.31897E-1,0E0,1.2277734E2,0E0,0E0,1.281164E2,0E0,0E0,0E0],"parents":[2147483647,0,0,1,1,2,2,5,5,6,6,8,8,10,10,12,12,15,15],"right_children":[2,4,6,-1,-1,8,10,-1,12,-1,14,-1,16,-1,-1,18,-1,-1,-1],"split_conditions":[4.2603624E-1,5.0004554E-1,1.13140106E-1,-6.5070085E-2,1.312888E-1,4.8984608E-1,1.3397714E-2,1.814027E-1,4.9526313E-1,1.630111E-1,4.972207E-1,1.8852879E-1,2.9802322E-8,3.4107754E-5,-6.50701E-2,1.7403962E-1,1.8848227E-1,4.205981E-2,1.8844317E-1],"split_indices":[12,18,21,0,0,47,27,0,51,0,52,0,36,0,0,34,0,0,0],"split_type":[0,0,0,0,0,0,0,0,0,0,0,0,0,0,0,0,0,0,0],"sum_hessian":[4.8006196E3,1.1399376E3,3.6606821E3,1.1366266E3,3.3111036E0,2.4479678E3,1.2127145E3,7.005743E1,2.3779104E3,6.9612785E1,1.1431017E3,6.1328903E1,2.3165815E3,1.4917728E0,1.1416099E3,2.2552427E3,6.1338722E1,2.1946753E3,6.0567287E1],"tree_param":{"num_deleted":"0","num_feature":"105","num_nodes":"19","size_leaf_vector":"1"}},{"base_weights":[4.5140916E-3,2.0791025E-1,-6.379029E-2,5.979982E-1,-6.387772E-2,6.319232E-1,-6.9785826E-2,-6.8643704E-2,6.6787666E-1,-6.021793E-1,7.076886E-1,7.891574E-2,-6.987238E-2,7.4715994E-2,-6.858289E-2],"categories":[],"categories_nodes":[],"categories_segments":[],"categories_sizes":[],"default_left":[0,0,0,0,0,0,0,0,0,0,0,0,0,0,0],"id":8,"left_children":[1,3,-1,5,-1,7,-1,-1,9,11,13,-1,-1,-1,-1],"loss_changes":[6.2337756E2,1.1971708E3,0E0,1.0951758E2,0E0,1.1508905E2,0E0,0E0,1.1948743E2,1.0237436E1,1.26118286E2,0E0,0E0,0E0,0E0],"parents":[2147483647,0,0,1,1,3,3,5,5,8,8,9,9,10,10],"right_children":[2,4,-1,6,-1,8,-1,-1,10,12,14,-1,-1,-1,-1],"split_conditions":[1.13140106E-1,2.9802322E-8,-6.379029E-2,4.000402E-1,-6.387772E-2,4.9526313E-1,-6.9785826E-2,-6.8643704E-2,5.705815E-1,6.0237426E-1,1.8349168E-1,7.891574E-2,-6.987238E-2,7.4715994E-2,-6.858289E-2],"split_indices":[21,33,0,102,0,51,0,0,50,71,37,0,0,0,0],"split_type":[0,0,0,0,0,0,0,0,0,0,0,0,0,0,0],"sum_hessian":[4.7687866E3,3.6225305E3,1.1462559E3,2.4801592E3,1.1423715E3,2.4173853E3,6.277382E1,6.369497E1,2.3536904E3,7.110845E1,2.2825818E3,4.1485295E0,6.695992E1,2.22016E3,6.2421993E1],"tree_param":{"num_deleted":"0","num_feature":"105","num_nodes":"15","size_leaf_vector":"1"}},{"base_weights":[6.132264E-3,-6.3694286E-1,1.344349E0,-6.384422E-2,-1.5110333E-1,-6.1977603E-2,1.4117707E-1,-5.7343263E-2,1.1223196E-1],"categories":[],"categories_nodes":[],"categories_segments":[],"categories_sizes":[],"default_left":[0,0,0,0,0,0,0,0,0],"id":9,"left_children":[1,3,5,-1,7,-1,-1,-1,-1],"loss_changes":[4.0645002E3,2.227295E0,2.0387646E2,0E0,6.626194E0,0E0,0E0,0E0,0E0],"parents":[2147483647,0,0,1,1,2,2,4,4],"right_children":[2,4,6,-1,8,-1,-1,-1,-1],"split_conditions":[1.13140106E-1,5.592557E-1,1.3397714E-2,-6.384422E-2,5.7686627E-1,-6.1977603E-2,1.4117707E-1,-5.7343263E-2,1.1223196E-1],"split_indices":[21,6,27,0,18,0,0,0,0],"split_type":[0,0,0,0,0,0,0,0,0],"sum_hessian":[4.7210156E3,3.1890525E3,1.5319633E3,3.1789282E3,1.01241665E1,5.0569904E1,1.4813934E3,8.01552E0,2.1086464E0],"tree_param":{"num_deleted":"0","num_feature":"105","num_nodes":"9","size_leaf_vector":"1"}},{"base_weights":[-4.0592323E-3,1.4087127E0,-6.383625E-2,1.4120919E-1,-4.5230404E-2],"categories":[],"categories_nodes":[],"categories_segments":[],"categories_sizes":[],"default_left":[0,0,0,0,0],"id":10,"left_children":[1,3,-1,-1,-1],"loss_changes":[4.2165854E3,9.807617E0,0E0,0E0,0E0],"parents":[2147483647,0,0,1,1],"right_children":[2,4,-1,-1,-1],"split_conditions":[4.2603624E-1,4.2822084E-1,-6.383625E-2,1.4120919E-1,-4.5230404E-2],"split_indices":[12,15,0,0,0],"split_type":[0,0,0,0,0],"sum_hessian":[4.7033467E3,1.4569927E3,3.246354E3,1.4545928E3,2.399944E0],"tree_param":{"num_deleted":"0","num_feature":"105","num_nodes":"5","size_leaf_vector":"1"}},{"base_weights":[-1.9633295E-3,-6.313745E-1,1.8436308E-1,-6.366842E-2,1.1234875E-1,4.9990067E-1,-5.0694436E-1,4.632993E-1,1.7355797E0,1.4476436E-1,-6.366833E-2,1.72128E0,4.288024E-1,1.8565775E-1,1.8053497E0,1.00792415E-1,1.8161224E-1,3.9349642E-1,1.7422222E-1,-3.7177265E-2,5.2744526E-2,1.8194695E-1,5.4372843E-2,3.7085127E-2,-3.7177265E-2,3.5654385E-2,1.7415832E-1],"categories":[],"categories_nodes":[],"categories_segments":[],"categories_sizes":[],"default_left":[0,0,0,0,0,0,0,0,0,0,0,0,0,0,0,0,0,0,0,0,0,0,0,0,0,0,0],"id":11,"left_children":[1,3,5,-1,-1,7,9,11,13,-1,-1,15,17,19,21,23,-1,25,-1,-1,-1,-1,-1,-1,-1,-1,-1],"loss_changes":[5.546146E2,1.0780487E1,7.962107E2,0E0,0E0,1.12531494E2,2.9103656E2,1.04939575E2,7.421173E0,0E0,0E0,9.755234E0,1.0928494E2,9.971075E-1,2.313385E-1,7.2927904E-1,0E0,1.1448819E2,0E0,0E0,0E0,0E0,0E0,0E0,0E0,0E0,0E0],"parents":[2147483647,0,0,1,1,2,2,5,5,6,6,7,7,8,8,11,11,12,12,13,13,14,14,15,15,17,17],"right_children":[2,4,6,-1,-1,8,10,12,14,-1,-1,16,18,20,22,24,-1,26,-1,-1,-1,-1,-1,-1,-1,-1,-1],"split_conditions":[4.2603624E-1,4.2822084E-1,1.13140106E-1,-6.366842E-2,1.1234875E-1,4.445851E-3,4.1950345E-3,5.0002563E-1,1.3602107E-2,1.4476436E-1,-6.366833E-2,5.0033087E-1,1.9456604E-1,4.770383E-3,4.6922565E-3,5.0168854E-1,1.8161224E-1,2.0314692E-1,1.7422222E-1,-3.7177265E-2,5.2744526E-2,1.8194695E-1,5.4372843E-2,3.7085127E-2,-3.7177265E-2,3.5654385E-2,1.7415832E-1],"split_indices":[12,15,21,0,0,92,90,60,29,0,0,81,40,22,86,1,0,24,0,0,0,0,0,0,0,0,0],"split_type":[0,0,0,0,0,0,0,0,0,0,0,0,0,0,0,0,0,0,0,0,0,0,0,0,0,0,0],"sum_hessian":[4.727151E3,1.079205E3,3.647946E3,1.0765847E3,2.6202703E0,2.5048975E3,1.1430485E3,2.4341711E3,7.0726295E1,7.051678E1,1.0725317E3,6.3664192E1,2.370507E3,3.204316E0,6.752198E1,3.634109E0,6.0030083E1,2.3097192E3,6.07879E1,1.1845961E0,2.0197198E0,6.633738E1,1.1845961E0,2.4495127E0,1.1845961E0,2.2493271E3,6.0392094E1],"tree_param":{"num_deleted":"0","num_feature":"105","num_nodes":"27","size_leaf_vector":"1"}},{"base_weights":[6.5194173E-3,1.9593544E-1,-6.277021E-2,5.415844E-1,-6.2168556E-1,-6.884066E-2,5.7643974E-1,2.6717058E-1,-6.259621E-2,6.122831E-1,-7.063057E-2,6.1445457E-1,-4.200595E-2,6.514136E-1,-6.6615874E-1,6.749883E-3,8.0749325E-2,6.896623E-2,-6.880994E-2,2.1791046E-2,-7.0704855E-2],"categories":[],"categories_nodes":[],"categories_segments":[],"categories_sizes":[],"default_left":[0,0,0,0,0,0,0,0,0,0,0,0,0,0,0,0,0,0,0,0,0],"id":12,"left_children":[1,3,-1,5,7,-1,9,11,-1,13,-1,15,-1,17,19,-1,-1,-1,-1,-1,-1],"loss_changes":[5.6760614E2,1.0285385E3,0E0,1.1005109E2,4.2783203E0,0E0,1.1481543E2,1.6612935E0,0E0,1.215318E2,0E0,4.0074039E-1,0E0,1.2084015E2,2.7708054E0,0E0,0E0,0E0,0E0,0E0,0E0],"parents":[2147483647,0,0,1,1,3,3,4,4,6,6,7,7,9,9,11,11,13,13,14,14],"right_children":[2,4,-1,6,8,-1,10,12,-1,14,-1,16,-1,18,20,-1,-1,-1,-1,-1,-1],"split_conditions":[2.9802322E-8,5.4906195E-1,-6.277021E-2,4.972207E-1,4.1950345E-3,-6.884066E-2,1.7403962E-1,4.1250815E-3,-6.259621E-2,6.937444E-3,-7.063057E-2,4.9870795E-1,-4.200595E-2,1.8328086E-1,6.166811E-1,6.749883E-3,8.0749325E-2,6.896623E-2,-6.880994E-2,2.1791046E-2,-7.0704855E-2],"split_indices":[36,69,0,52,90,0,34,23,0,86,0,5,0,38,65,0,0,0,0,0,0],"split_type":[0,0,0,0,0,0,0,0,0,0,0,0,0,0,0,0,0,0,0,0,0],"sum_hessian":[4.722841E3,3.637238E3,1.085603E3,2.5567224E3,1.0805156E3,6.993898E1,2.4867834E3,4.879337E0,1.0756362E3,2.4196934E3,6.709002E1,3.311702E0,1.5676347E0,2.348307E3,7.1386505E1,1.2159877E0,2.095714E0,2.2835862E3,6.472066E1,2.9644136E0,6.842209E1],"tree_param":{"num_deleted":"0","num_feature":"105","num_nodes":"21","size_leaf_vector":"1"}},{"base_weights":[-1.0556126E-2,-6.2493217E-1,1.1852725E0,-6.264791E-2,4.5136496E-2,-6.0819805E-2,1.24318026E-1,-5.1994067E-2,1.0720823E-1],"categories":[],"categories_nodes":[],"categories_segments":[],"categories_sizes":[],"default_left":[0,0,0,0,0,0,0,0,0],"id":13,"left_children":[1,3,5,-1,7,-1,-1,-1,-1],"loss_changes":[3.4231765E3,3.218628E0,1.6499072E2,0E0,5.212698E0,0E0,0E0,0E0,0E0],"parents":[2147483647,0,0,1,1,2,2,4,4],"right_children":[2,4,6,-1,8,-1,-1,-1,-1],"split_conditions":[1.13140106E-1,4.560232E-3,4.1950345E-3,-6.264791E-2,5.4121214E-1,-6.0819805E-2,1.24318026E-1,-5.1994067E-2,1.0720823E-1],"split_indices":[21,84,90,0,6,0,0,0,0],"split_type":[0,0,0,0,0,0,0,0,0],"sum_hessian":[4.65735E3,3.0769797E3,1.5803702E3,3.0699578E3,7.0221434E0,4.91339E1,1.5312363E3,4.8481503E0,2.1739936E0],"tree_param":{"num_deleted":"0","num_feature":"105","num_nodes":"9","size_leaf_vector":"1"}},{"base_weights":[-1.820052E-3,1.239815E0,-6.264004E-2,1.2430179E-1,-4.5963988E-2],"categories":[],"categories_nodes":[],"categories_segments":[],"categories_sizes":[],"default_left":[0,0,0,0,0],"id":14,"left_children":[1,3,-1,-1,-1],"loss_changes":[3.6013086E3,9.03125E0,0E0,0E0,0E0],"parents":[2147483647,0,0,1,1],"right_children":[2,4,-1,-1,-1],"split_conditions":[4.2603624E-1,4.2822084E-1,-6.264004E-2,1.2430179E-1,-4.5963988E-2],"split_indices":[12,15,0,0,0],"split_type":[0,0,0,0,0],"sum_hessian":[4.6418467E3,1.5531921E3,3.0886545E3,1.5505385E3,2.6536741E0],"tree_param":{"num_deleted":"0","num_feature":"105","num_nodes":"5","size_leaf_vector":"1"}},{"base_weights":[6.75372E-3,-6.176121E-1,1.8217255E-1,-6.23912E-2,1.0593436E-1,4.7160718E-1,-4.871266E-1,1.673044E0,4.3784088E-1,1.2529657E0,-6.204997E-1,4.9426172E-2,1.6873565E-1,1.7609899E-1,4.0674758E-1,1.2690756E-1,3.1088611E-2,1.9380032E-1,-6.240123E-2,1.7604452E-1,3.7491044E-1,4.5894038E-2,-1.4308862E-2,1.6854402E-1,3.403528E-2],"categories":[],"categories_nodes":[],"categories_segments":[],"categories_sizes":[],"default_left":[0,0,0,0,0,0,0,0,0,0,0,0,0,0,0,0,0,0,0,0,0,0,0,0,0],"id":15,"left_children":[1,3,5,-1,-1,7,9,11,13,15,17,-1,-1,-1,19,-1,-1,21,-1,-1,23,-1,-1,-1,-1],"loss_changes":[5.145041E2,1.1546082E1,7.10636E2,0E0,0E0,1.0314673E2,2.5783002E2,3.409729E-1,1.0180612E2,8.071976E-1,3.0653687E0,0E0,0E0,0E0,1.0432883E2,0E0,0E0,5.287639E-1,0E0,0E0,1.072749E2,0E0,0E0,0E0,0E0],"parents":[2147483647,0,0,1,1,2,2,5,5,6,6,7,7,8,8,9,9,10,10,14,14,17,17,20,20],"right_children":[2,4,6,-1,-1,8,10,12,14,16,18,-1,-1,-1,20,-1,-1,22,-1,-1,24,-1,-1,-1,-1],"split_conditions":[4.2603624E-1,4.2822084E-1,5.4794884E-1,-6.23912E-2,1.0593436E-1,4.972207E-1,7.020019E-3,4.9890715E-1,5E-1,5.309624E-1,4.1950345E-3,4.9426172E-2,1.6873565E-1,1.7609899E-1,4.615807E-1,1.2690756E-1,3.1088611E-2,4.985341E-1,-6.240123E-2,1.7604452E-1,5E-1,4.5894038E-2,-1.4308862E-2,1.6854402E-1,3.403528E-2],"split_indices":[12,15,63,0,0,52,27,3,62,6,90,0,0,0,49,0,0,42,0,0,59,0,0,0,0],"split_type":[0,0,0,0,0,0,0,0,0,0,0,0,0,0,0,0,0,0,0,0,0,0,0,0,0],"sum_hessian":[4.6955454E3,1.0293333E3,3.6662124E3,1.0261063E3,3.226878E0,2.5596162E3,1.1065962E3,6.8644165E1,2.490972E3,7.818161E1,1.0284146E3,1.2497288E0,6.739444E1,5.591513E1,2.435057E3,7.652589E1,1.6557178E0,4.18451E0,1.0242301E3,5.470569E1,2.380351E3,2.1388733E0,2.045637E0,5.992802E1,2.320423E3],"tree_param":{"num_deleted":"0","num_feature":"105","num_nodes":"25","size_leaf_vector":"1"}},{"base_weights":[5.327567E-3,1.7998077E-1,-6.1633646E-2,4.9134067E-1,-6.1448313E-2,-6.921027E-2,5.246335E-1,-7.411923E-2,5.5772156E-1,5.918689E-1,-7.256624E-2,6.2856935E-2,-6.946961E-2],"categories":[],"categories_nodes":[],"categories_segments":[],"categories_sizes":[],"default_left":[0,0,0,0,0,0,0,0,0,0,0,0,0],"id":16,"left_children":[1,3,-1,5,-1,-1,7,-1,9,11,-1,-1,-1],"loss_changes":[5.0262714E2,8.9426025E2,0E0,1.02683044E2,0E0,0E0,1.06230286E2,0E0,1.08353455E2,1.13729675E2,0E0,0E0,0E0],"parents":[2147483647,0,0,1,1,3,3,6,6,8,8,9,9],"right_children":[2,4,-1,6,-1,-1,8,-1,10,12,-1,-1,-1],"split_conditions":[2.9802322E-8,1.1349927E-1,-6.1633646E-2,4.6103534E-1,-6.1448313E-2,-6.921027E-2,4.898177E-1,-7.411923E-2,1.9720215E-1,1.8401597E-1,-7.256624E-2,6.2856935E-2,-6.946961E-2],"split_indices":[36,27,0,43,0,0,53,0,41,30,0,0,0],"split_type":[0,0,0,0,0,0,0,0,0,0,0,0,0],"sum_hessian":[4.6272603E3,3.6129358E3,1.0143246E3,2.5959382E3,1.0169977E3,7.048973E1,2.5254485E3,6.378711E1,2.4616614E3,2.3983857E3,6.327563E1,2.3323643E3,6.602137E1],"tree_param":{"num_deleted":"0","num_feature":"105","num_nodes":"13","size_leaf_vector":"1"}},{"base_weights":[-5.4070144E-3,-6.141502E-1,1.069359E0,-6.157623E-2,9.687849E-2,-5.9238352E-2,1.1164534E-1],"categories":[],"categories_nodes":[],"categories_segments":[],"categories_sizes":[],"default_left":[0,0,0,0,0,0,0],"id":17,"left_children":[1,3,5,-1,-1,-1,-1],"loss_changes":[2.9363174E3,7.907715E0,1.27662476E2,0E0,0E0,0E0,0E0],"parents":[2147483647,0,0,1,1,2,2],"right_children":[2,4,6,-1,-1,-1,-1],"split_conditions":[1.13140106E-1,5.411704E-1,1.3397714E-2,-6.157623E-2,9.687849E-2,-5.9238352E-2,1.1164534E-1],"split_indices":[21,0,27,0,0,0,0],"split_type":[0,0,0,0,0,0,0],"sum_hessian":[4.4860176E3,2.8641838E3,1.6218339E3,2.8618804E3,2.3035238E0,4.4377567E1,1.5774563E3],"tree_param":{"num_deleted":"0","num_feature":"105","num_nodes":"7","size_leaf_vector":"1"}},{"base_weights":[-2.0328066E-3,1.1139491E0,-6.155957E-2,1.1163255E-1,-4.2795654E-2],"categories":[],"categories_nodes":[],"categories_segments":[],"categories_sizes":[],"default_left":[0,0,0,0,0],"id":18,"left_children":[1,3,-1,-1,-1],"loss_changes":[3.1149255E3,6.3916016E0,0E0,0E0,0E0],"parents":[2147483647,0,0,1,1],"right_children":[2,4,-1,-1,-1],"split_conditions":[4.2822084E-1,5.0004554E-1,-6.155957E-2,1.1163255E-1,-4.2795654E-2],"split_indices":[15,18,0,0,0],"split_type":[0,0,0,0,0],"sum_hessian":[4.547161E3,1.6128342E3,2.934327E3,1.6106278E3,2.20644E0],"tree_param":{"num_deleted":"0","num_feature":"105","num_nodes":"5","size_leaf_vector":"1"}},{"base_weights":[1.770928E-2,-6.0475147E-1,1.7975855E-1,-6.1226245E-2,1.02267586E-1,4.357338E-1,-4.7041216E-1,1.7166732E-1,4.0600577E-1,1.1254725E0,-6.123327E-2,1.7147635E-1,3.7688383E-1,1.1705779E-1,2.8380767E-1,1.5713286E-1,3.435802E-1,-7.788685E-3,4.5544993E-2,3.1252734E-2,1.7134278E-1],"categories":[],"categories_nodes":[],"categories_segments":[],"categories_sizes":[],"default_left":[0,0,0,0,0,0,0,0,0,0,0,0,0,0,0,0,0,0,0,0,0],"id":19,"left_children":[1,3,5,-1,-1,7,9,-1,11,13,-1,-1,15,-1,17,-1,19,-1,-1,-1,-1],"loss_changes":[4.699396E2,1.2389435E1,6.153987E2,0E0,0E0,1.0032019E2,2.3729915E2,0E0,9.821716E1,2.9200592E0,0E0,0E0,1.0044946E2,0E0,3.879471E-1,0E0,1.0458157E2,0E0,0E0,0E0,0E0],"parents":[2147483647,0,0,1,1,2,2,5,5,6,6,8,8,9,9,12,12,14,14,16,16],"right_children":[2,4,6,-1,-1,8,10,-1,12,14,-1,-1,16,-1,18,-1,20,-1,-1,-1,-1],"split_conditions":[4.2603624E-1,4.2822084E-1,5.4794884E-1,-6.1226245E-2,1.02267586E-1,4.898177E-1,4.1950345E-3,1.7166732E-1,4.97202E-1,4.6516204E-1,-6.123327E-2,1.7147635E-1,1.7866565E-1,1.1705779E-1,4.974026E-1,1.5713286E-1,1.8631022E-1,-7.788685E-3,4.5544993E-2,3.1252734E-2,1.7134278E-1],"split_indices":[12,15,63,0,0,53,90,0,46,42,0,0,54,0,64,0,35,0,0,0,0],"split_type":[0,0,0,0,0,0,0,0,0,0,0,0,0,0,0,0,0,0,0,0,0],"sum_hessian":[4.656818E3,9.613532E2,3.6954646E3,9.575577E2,3.795559E0,2.6517773E3,1.0436873E3,5.885943E1,2.592918E3,8.466835E1,9.590189E2,5.5180714E1,2.5377373E3,7.999081E1,4.6775427E0,6.7585365E1,2.4701519E3,1.6811504E0,2.996392E0,2.4165986E3,5.3553345E1],"tree_param":{"num_deleted":"0","num_feature":"105","num_nodes":"21","size_leaf_vector":"1"}},{"base_weights":[7.4231764E-3,1.728239E-1,-6.062013E-2,4.5285162E-1,-5.993231E-1,-7.4575804E-2,4.8354015E-1,1.3692275E-1,-6.039388E-1,-7.109069E-2,5.1554555E-1,4.409668E-1,-4.1547365E-2,-6.0486842E-2,-5.347978E-3,5.4891014E-1,-7.1137495E-2,7.2642975E-2,-6.8956586E-3,5.8363624E-2,-7.110032E-2],"categories":[],"categories_nodes":[],"categories_segments":[],"categories_sizes":[],"default_left":[0,0,0,0,0,0,0,0,0,0,0,0,0,0,0,0,0,0,0,0,0],"id":20,"left_children":[1,3,-1,5,7,-1,9,11,13,-1,15,17,-1,-1,-1,19,-1,-1,-1,-1,-1],"loss_changes":[4.6477905E2,7.8019934E2,0E0,9.775018E1,3.3464966E0,0E0,9.90791E1,1.3250928E0,4.5614624E-1,0E0,1.0335785E2,7.5903356E-1,0E0,0E0,0E0,1.0757739E2,0E0,0E0,0E0,0E0,0E0],"parents":[2147483647,0,0,1,1,3,3,4,4,6,6,7,7,8,8,10,10,11,11,15,15],"right_children":[2,4,-1,6,8,-1,10,12,14,-1,16,18,-1,-1,-1,20,-1,-1,-1,-1,-1],"split_conditions":[2.9802322E-8,5.4794884E-1,-6.062013E-2,4.615807E-1,4.972207E-1,-7.4575804E-2,4.953283E-1,5.411704E-1,1.2207454E-3,-7.109069E-2,2.251182E-1,4.1250815E-3,-4.1547365E-2,-6.0486842E-2,-5.347978E-3,1.8349168E-1,-7.1137495E-2,7.2642975E-2,-6.8956586E-3,5.8363624E-2,-7.110032E-2],"split_indices":[36,63,0,49,52,0,45,0,25,0,29,23,0,0,0,37,0,0,0,0,0],"split_type":[0,0,0,0,0,0,0,0,0,0,0,0,0,0,0,0,0,0,0,0,0],"sum_hessian":[4.5773457E3,3.6060608E3,9.7128503E2,2.6466406E3,9.594202E2,6.548971E1,2.581151E3,5.7988286E0,9.536214E2,6.6804016E1,2.5143467E3,3.8703003E0,1.9285285E0,9.51915E2,1.7064058E0,2.4483203E3,6.6026375E1,2.2090526E0,1.6612476E0,2.3831714E3,6.5148926E1],"tree_param":{"num_deleted":"0","num_feature":"105","num_nodes":"21","size_leaf_vector":"1"}},{"base_weights":[-7.686483E-3,-6.047706E-1,9.7509485E-1,-6.0609967E-2,8.530151E-2,-5.801772E-2,1.0185261E-1],"categories":[],"categories_nodes":[],"categories_segments":[],"categories_sizes":[],"default_left":[0,0,0,0,0,0,0],"id":21,"left_children":[1,3,5,-1,-1,-1,-1],"loss_changes":[2.5641064E3,5.783386E0,1.12140625E2,0E0,0E0,0E0,0E0],"parents":[2147483647,0,0,1,1,2,2],"right_children":[2,4,6,-1,-1,-1,-1],"split_conditions":[1.13140106E-1,5.411704E-1,1.3397714E-2,-6.0609967E-2,8.530151E-2,-5.801772E-2,1.0185261E-1],"split_indices":[21,0,27,0,0,0,0],"split_type":[0,0,0,0,0,0,0],"sum_hessian":[4.3676143E3,2.7171858E3,1.6504287E3,2.7152947E3,1.8912796E0,4.4500668E1,1.605928E3],"tree_param":{"num_deleted":"0","num_feature":"105","num_nodes":"7","size_leaf_vector":"1"}},{"base_weights":[-1.096185E-2,1.0168236E0,-6.058649E-2,1.0183003E-1,-3.591273E-2],"categories":[],"categories_nodes":[],"categories_segments":[],"categories_sizes":[],"default_left":[0,0,0,0,0],"id":22,"left_children":[1,3,-1,-1,-1],"loss_changes":[2.6615955E3,3.6081543E0,0E0,0E0,0E0],"parents":[2147483647,0,0,1,1],"right_children":[2,4,-1,-1,-1],"split_conditions":[4.2603624E-1,4.2822084E-1,-6.058649E-2,1.0183003E-1,-3.591273E-2],"split_indices":[12,15,0,0,0],"split_type":[0,0,0,0,0],"sum_hessian":[4.3510396E3,1.5948993E3,2.7561404E3,1.5934492E3,1.450114E0],"tree_param":{"num_deleted":"0","num_feature":"105","num_nodes":"5","size_leaf_vector":"1"}},{"base_weights":[1.6246779E-2,-5.958178E-1,1.6563423E-1,-6.0165506E-2,8.9852355E-2,3.91042E-1,-4.5863295E-1,3.6039075E-1,1.401039E0,1.0836349E-1,-5.998072E-1,3.3007154E-1,1.4526407E-1,3.3105007E-1,1.4585339E-1,4.7502786E-2,-6.0169395E-2,1.393521E-1,2.9629418E-1,7.08945E-2,-1.6784793E-2,-3.9144315E-2,4.5479015E-2,1.5218753E-1,2.6452934E-2],"categories":[],"categories_nodes":[],"categories_segments":[],"categories_sizes":[],"default_left":[0,0,0,0,0,0,0,0,0,0,0,0,0,0,0,0,0,0,0,0,0,0,0,0,0],"id":23,"left_children":[1,3,5,-1,-1,7,9,11,13,-1,15,17,-1,19,-1,21,-1,-1,23,-1,-1,-1,-1,-1,-1],"loss_changes":[4.204874E2,8.410675E0,5.203258E2,0E0,0E0,8.35878E1,2.142599E2,8.687158E1,4.4178467E0,0E0,1.1271057E0,9.182269E1,0E0,1.1287463E0,0E0,8.110556E-1,0E0,0E0,9.653381E1,0E0,0E0,0E0,0E0,0E0,0E0],"parents":[2147483647,0,0,1,1,2,2,5,5,6,6,7,7,8,8,10,10,11,11,13,13,15,15,18,18],"right_children":[2,4,6,-1,-1,8,10,12,14,-1,16,18,-1,20,-1,22,-1,-1,24,-1,-1,-1,-1,-1,-1],"split_conditions":[4.2603624E-1,5.0004554E-1,4.560232E-3,-6.0165506E-2,8.9852355E-2,6.937444E-3,4.1950345E-3,1.7403962E-1,6.166811E-1,1.0836349E-1,5.4906195E-1,4.8984608E-1,1.4526407E-1,4.9697164E-1,1.4585339E-1,8.14831E-3,-6.0169395E-2,1.393521E-1,4.615807E-1,7.08945E-2,-1.6784793E-2,-3.9144315E-2,4.5479015E-2,1.5218753E-1,2.6452934E-2],"split_indices":[12,18,84,0,0,86,90,34,65,0,69,47,0,1,0,29,0,0,49,0,0,0,0,0,0],"split_type":[0,0,0,0,0,0,0,0,0,0,0,0,0,0,0,0,0,0,0,0,0,0,0,0,0],"sum_hessian":[4.59669E3,9.0122723E2,3.6954624E3,8.9831555E2,2.911682E0,2.7153787E3,9.800839E2,2.6367168E3,7.866183E1,8.1630455E1,8.984534E2,2.5667693E3,6.994745E1,4.355889E0,7.430594E1,2.5408955E0,8.9591254E2,7.777694E1,2.4889924E3,2.238952E0,2.116937E0,1.241642E0,1.2992533E0,6.1695316E1,2.427297E3],"tree_param":{"num_deleted":"0","num_feature":"105","num_nodes":"25","size_leaf_vector":"1"}},{"base_weights":[1.16690695E-2,-5.9648407E-1,1.6510338E-1,-6.0249656E-1,-2.2867662E-1,4.1939247E-1,-5.9648182E-2,-5.9181016E-2,-7.2814964E-2,5.241046E-1,-6.085024E-2,4.483014E-1,-7.653848E-2,7.377582E-2,1.0788883E-2,-6.967221E-2,4.7990453E-1,5.1376474E-1,-6.7658615E-1,5.4710876E-2,-7.277727E-2,4.1037835E-2,-7.161127E-2],"categories":[],"categories_nodes":[],"categories_segments":[],"categories_sizes":[],"default_left":[0,0,0,0,0,0,0,0,0,0,0,0,0,0,0,0,0,0,0,0,0,0,0],"id":24,"left_children":[1,3,5,7,9,11,-1,-1,-1,13,-1,15,-1,-1,-1,-1,17,19,21,-1,-1,-1,-1],"loss_changes":[4.2154068E2,1.875E0,6.9886255E2,7.706909E-1,4.965358E0,9.299014E1,0E0,0E0,0E0,4.5279992E-1,0E0,9.590881E1,0E0,0E0,0E0,0E0,1.01018616E2,1.03821106E2,3.4543076E0,0E0,0E0,0E0,0E0],"parents":[2147483647,0,0,1,1,2,2,3,3,4,4,5,5,9,9,11,11,16,16,17,17,18,18],"right_children":[2,4,6,8,10,12,-1,-1,-1,14,-1,16,-1,-1,-1,-1,18,20,22,-1,-1,-1,-1],"split_conditions":[5.0002563E-1,1.1679025E-1,1.1349927E-1,4.2603624E-1,2.0513491E-4,8.178554E-1,-5.9648182E-2,-5.9181016E-2,-7.2814964E-2,6.386261E-5,-6.085024E-2,4.6103534E-1,-7.653848E-2,7.377582E-2,1.0788883E-2,-6.967221E-2,6.937444E-3,1.9456604E-1,9.364584E-3,5.4710876E-2,-7.277727E-2,4.1037835E-2,-7.161127E-2],"split_indices":[60,60,27,12,21,77,0,0,0,30,0,43,0,0,0,0,86,40,23,0,0,0,0],"split_type":[0,0,0,0,0,0,0,0,0,0,0,0,0,0,0,0,0,0,0,0,0,0,0],"sum_hessian":[4.5155063E3,9.0914124E2,3.606365E3,8.938907E2,1.5250511E1,2.7039727E3,9.023922E2,8.290891E2,6.480158E1,4.9869533E0,1.0263558E1,2.6401733E3,6.3799446E1,2.7848732E0,2.20208E0,7.034742E1,2.569826E3,2.4972656E3,7.2560165E1,2.4324954E3,6.4770386E1,2.2167947E0,7.0343376E1],"tree_param":{"num_deleted":"0","num_feature":"105","num_nodes":"23","size_leaf_vector":"1"}},{"base_weights":[-6.206236E-3,-5.952696E-1,9.079898E-1,-5.9730906E-2,8.872841E-2,-5.6902207E-2,9.408205E-2],"categories":[],"categories_nodes":[],"categories_segments":[],"categories_sizes":[],"default_left":[0,0,0,0,0,0,0],"id":25,"left_children":[1,3,5,-1,-1,-1,-1],"loss_changes":[2.269256E3,8.278259E0,8.060608E1,0E0,0E0,0E0,0E0],"parents":[2147483647,0,0,1,1,2,2],"right_children":[2,4,6,-1,-1,-1,-1],"split_conditions":[1.13140106E-1,5.411704E-1,1.3397714E-2,-5.9730906E-2,8.872841E-2,-5.6902207E-2,9.408205E-2],"split_indices":[21,0,27,0,0,0,0],"split_type":[0,0,0,0,0,0,0],"sum_hessian":[4.2118765E3,2.5616333E3,1.6502429E3,2.5587107E3,2.9227142E0,3.5528442E1,1.6147145E3],"tree_param":{"num_deleted":"0","num_feature":"105","num_nodes":"7","size_leaf_vector":"1"}},{"base_weights":[-1.4614353E-2,9.390239E-1,-5.9707314E-2,9.406071E-2,-3.7151214E-2],"categories":[],"categories_nodes":[],"categories_segments":[],"categories_sizes":[],"default_left":[0,0,0,0,0],"id":26,"left_children":[1,3,-1,-1,-1],"loss_changes":[2.337063E3,3.659668E0,0E0,0E0,0E0],"parents":[2147483647,0,0,1,1],"right_children":[2,4,-1,-1,-1],"split_conditions":[4.2603624E-1,4.2822084E-1,-5.9707314E-2,9.406071E-2,-3.7151214E-2],"split_indices":[12,15,0,0,0],"split_type":[0,0,0,0,0],"sum_hessian":[4.205466E3,1.5944005E3,2.6110652E3,1.5927587E3,1.6418662E0],"tree_param":{"num_deleted":"0","num_feature":"105","num_nodes":"5","size_leaf_vector":"1"}},{"base_weights":[1.352977E-2,-5.839628E-1,1.518246E-1,-5.9200462E-2,9.131375E-2,3.550298E-1,-4.962602E-1,3.2983616E-1,1.4962457E-1,5.4110384E-1,-5.9011203E-1,2.985599E-1,1.3142258E0,3.3374935E-1,9.663467E-2,7.1238824E-3,-5.9207626E-2,1.3726841E-1,2.673697E-1,3.3652505E-1,1.3631445E0,2.5683734E-1,1.1496762E-1,-1.5327144E-4,1.2795012E-3,2.3638658E-2,1.426095E-1,5.444637E-2,-7.354615E-3,1.3724963E-1,4.525426E-2,1.8251775E-2,1.1047294E-1],"categories":[],"categories_nodes":[],"categories_segments":[],"categories_sizes":[],"default_left":[0,0,0,0,0,0,0,0,0,0,0,0,0,0,0,0,0,0,0,0,0,0,0,0,0,0,0,0,0,0,0,0,0],"id":27,"left_children":[1,3,5,-1,-1,7,9,11,-1,13,15,17,19,21,-1,23,-1,-1,25,27,29,31,-1,-1,-1,-1,-1,-1,-1,-1,-1,-1,-1],"loss_changes":[3.7376102E2,1.0776215E1,4.838953E2,0E0,0E0,7.992023E1,8.572055E1,8.3897125E1,0E0,6.1405697E0,9.484558E-1,8.8571976E1,3.5593567E0,2.89262E0,0E0,1.9765152E-4,0E0,0E0,9.232515E1,4.9461323E-1,5.7434082E-2,2.804883E0,0E0,0E0,0E0,0E0,0E0,0E0,0E0,0E0,0E0,0E0,0E0],"parents":[2147483647,0,0,1,1,2,2,5,5,6,6,7,7,9,9,10,10,11,11,12,12,13,13,15,15,18,18,19,19,20,20,21,21],"right_children":[2,4,6,-1,-1,8,10,12,-1,14,16,18,20,22,-1,24,-1,-1,26,28,30,32,-1,-1,-1,-1,-1,-1,-1,-1,-1,-1,-1],"split_conditions":[4.2603624E-1,4.2822084E-1,5.2690035E-1,-5.9200462E-2,9.131375E-2,1.8631022E-1,1.3397714E-2,4.445851E-3,1.4962457E-1,1.13140106E-1,4.1950345E-3,4.953283E-1,1.3602107E-2,1.0851913E-3,9.663467E-2,5.3019524E-1,-5.9207626E-2,1.3726841E-1,1.9456604E-1,4.5546247E-3,1.1766975E-2,1.8631022E-1,1.1496762E-1,-1.5327144E-4,1.2795012E-3,2.3638658E-2,1.426095E-1,5.444637E-2,-7.354615E-3,1.3724963E-1,4.525426E-2,1.8251775E-2,1.1047294E-1],"split_indices":[12,15,0,0,0,35,27,92,0,21,90,45,29,25,0,0,0,0,40,27,23,35,0,0,0,0,0,0,0,0,0,0,0],"split_type":[0,0,0,0,0,0,0,0,0,0,0,0,0,0,0,0,0,0,0,0,0,0,0,0,0,0,0,0,0,0,0,0,0],"sum_hessian":[4.521229E3,8.4918134E2,3.6720476E3,8.452456E2,3.935736E0,2.7958643E3,8.7618335E2,2.7367366E3,5.9127583E1,7.229757E1,8.038858E2,2.653725E3,8.301146E1,4.979948E1,2.249809E1,2.6266184E0,8.0125916E2,7.367021E1,2.580055E3,4.33097E0,7.868049E1,4.6711113E1,3.088367E0,1.3284948E0,1.2981236E0,2.5140364E3,6.601872E1,2.65629E0,1.6746798E0,7.737857E1,1.3019158E0,4.406406E1,2.6470504E0],"tree_param":{"num_deleted":"0","num_feature":"105","num_nodes":"33","size_leaf_vector":"1"}},{"base_weights":[2.1432482E-2,1.6707617E-1,-5.943421E-1,3.937739E-1,-5.877442E-2,-5.830471E-2,-7.1008205E-2,-7.85085E-2,4.218535E-1,4.5153174E-1,-7.48236E-2,-6.968459E-2,4.839054E-1,5.190711E-2,-6.503947E-2],"categories":[],"categories_nodes":[],"categories_segments":[],"categories_sizes":[],"default_left":[0,0,0,0,0,0,0,0,0,0,0,0,0,0,0],"id":28,"left_children":[1,3,5,7,-1,-1,-1,-1,9,11,-1,-1,13,-1,-1],"loss_changes":[3.982219E2,6.146822E2,6.963196E-1,9.176105E1,0E0,0E0,0E0,0E0,9.404532E1,9.820026E1,0E0,0E0,1.0248212E2,0E0,0E0],"parents":[2147483647,0,0,1,1,2,2,3,3,8,8,9,9,12,12],"right_children":[2,4,6,8,-1,-1,-1,-1,10,12,-1,-1,14,-1,-1],"split_conditions":[2.9802322E-8,1.1349927E-1,5.0004554E-1,4.97202E-1,-5.877442E-2,-5.830471E-2,-7.1008205E-2,-7.85085E-2,1.9720215E-1,4.8984608E-1,-7.48236E-2,-6.968459E-2,3.8185716E-4,5.190711E-2,-6.503947E-2],"split_indices":[33,27,18,46,0,0,0,0,41,47,0,0,94,0,0],"split_type":[0,0,0,0,0,0,0,0,0,0,0,0,0,0,0],"sum_hessian":[4.4381865E3,3.5898418E3,8.483447E2,2.7610767E3,8.2876514E2,7.78417E2,6.992773E1,6.3609623E1,2.697467E3,2.6313396E3,6.612739E1,7.158292E1,2.5597566E3,2.4833113E3,7.6445435E1],"tree_param":{"num_deleted":"0","num_feature":"105","num_nodes":"15","size_leaf_vector":"1"}},{"base_weights":[-2.1950789E-2,-5.883784E-1,8.456356E-1,-5.8942158E-2,6.749096E-2,-5.6249328E-2,8.789073E-2],"categories":[],"categories_nodes":[],"categories_segments":[],"categories_sizes":[],"default_left":[0,0,0,0,0,0,0],"id":29,"left_children":[1,3,5,-1,-1,-1,-1],"loss_changes":[1.9825845E3,3.6140137E0,7.515393E1,0E0,0E0,0E0,0E0],"parents":[2147483647,0,0,1,1,2,2],"right_children":[2,4,6,-1,-1,-1,-1],"split_conditions":[1.13140106E-1,5.411704E-1,1.3397714E-2,-5.8942158E-2,6.749096E-2,-5.6249328E-2,8.789073E-2],"split_indices":[21,0,27,0,0,0,0],"split_type":[0,0,0,0,0,0,0],"sum_hessian":[4.032346E3,2.4397861E3,1.5925598E3,2.4383064E3,1.4798814E0,3.639372E1,1.556166E3],"tree_param":{"num_deleted":"0","num_feature":"105","num_nodes":"7","size_leaf_vector":"1"}},{"base_weights":[-2.3106279E-2,8.759389E-1,-5.891902E-2,8.778758E-2,-3.9634373E-2],"categories":[],"categories_nodes":[],"categories_segments":[],"categories_sizes":[],"default_left":[0,0,0,0,0],"id":30,"left_children":[1,3,-1,-1,-1],"loss_changes":[2.0505286E3,4.184204E0,0E0,0E0,0E0],"parents":[2147483647,0,0,1,1],"right_children":[2,4,-1,-1,-1],"split_conditions":[4.2603624E-1,4.2822084E-1,-5.891902E-2,8.778758E-2,-3.9634373E-2],"split_indices":[12,15,0,0,0],"split_type":[0,0,0,0,0],"sum_hessian":[4.0270437E3,1.5557229E3,2.4713208E3,1.5536676E3,2.055297E0],"tree_param":{"num_deleted":"0","num_feature":"105","num_nodes":"5","size_leaf_vector":"1"}},{"base_weights":[2.6244078E-2,-5.674906E-1,1.5462422E-1,-5.8320917E-2,1.1062932E-1,3.3433342E-1,-4.7036514E-1,3.0843976E-1,1.4058806E-1,5.246587E-1,-5.8097214E-1,1.4752565E-1,2.8301576E-1,8.9751005E-1,3.1504768E-1,2.426864E-2,-5.8328565E-2,1.3361707E-1,2.5351772E-1,9.252801E-2,3.9303653E-2,2.3581429E-1,1.1023128E-1,1.286307E-1,2.2091586E-2,1.4617083E-2,1.07219435E-1],"categories":[],"categories_nodes":[],"categories_segments":[],"categories_sizes":[],"default_left":[0,0,0,0,0,0,0,0,0,0,0,0,0,0,0,0,0,0,0,0,0,0,0,0,0,0,0],"id":31,"left_children":[1,3,5,-1,-1,7,9,11,-1,13,15,-1,17,19,21,-1,-1,-1,23,-1,-1,25,-1,-1,-1,-1,-1],"loss_changes":[3.3801282E2,2.1387299E1,4.0965628E2,0E0,0E0,7.815204E1,8.996193E1,8.165869E1,0E0,6.1275997E0,1.5394592E0,0E0,8.381871E1,4.2268753E-2,3.1113133E0,0E0,0E0,0E0,8.848624E1,0E0,0E0,3.6202667E0,0E0,0E0,0E0,0E0,0E0],"parents":[2147483647,0,0,1,1,2,2,5,5,6,6,7,7,9,9,10,10,12,12,13,13,14,14,18,18,21,21],"right_children":[2,4,6,-1,-1,8,10,12,-1,14,16,-1,18,20,22,-1,-1,-1,24,-1,-1,26,-1,-1,-1,-1,-1],"split_conditions":[4.2822084E-1,5.0004554E-1,5.2690035E-1,-5.8320917E-2,1.1062932E-1,1.9720215E-1,1.3397714E-2,4.97202E-1,1.4058806E-1,5.1658595E-1,5.4794884E-1,1.4752565E-1,5E-1,5.355899E-1,7.563566E-4,2.426864E-2,-5.8328565E-2,1.3361707E-1,4.6103534E-1,9.252801E-2,3.9303653E-2,8.534035E-4,1.1023128E-1,1.286307E-1,2.2091586E-2,1.4617083E-2,1.07219435E-1],"split_indices":[15,18,0,0,0,41,27,46,0,42,63,0,54,6,25,0,0,0,43,0,0,31,0,0,0,0,0],"split_type":[0,0,0,0,0,0,0,0,0,0,0,0,0,0,0,0,0,0,0,0,0,0,0,0,0,0,0],"sum_hessian":[4.432331E3,7.873876E2,3.6449436E3,7.8070746E2,6.6800957E0,2.8312983E3,8.136454E2,2.7657524E3,6.554582E1,8.1022385E1,7.3262305E2,5.7762436E1,2.70799E3,2.797654E1,5.304584E1,1.7609878E0,7.3086206E2,7.257513E1,2.6354148E3,2.5726227E1,2.2503142E0,4.9375988E1,3.6698532E0,7.94692E1,2.5559456E3,4.56572E1,3.7187862E0],"tree_param":{"num_deleted":"0","num_feature":"105","num_nodes":"27","size_leaf_vector":"1"}},{"base_weights":[2.4703033E-2,1.600835E-1,-5.849577E-1,3.717601E-1,-5.743059E-1,-5.750788E-2,-6.857842E-2,4.0007225E-1,-7.156098E-2,-2.3356488E-1,-5.803616E-2,4.2916453E-1,-7.286955E-2,-4.248205E-1,5.1602036E-2,4.5948884E-1,-7.302344E-2,2.0116182E-2,-5.451271E-2,4.91188E-2,-7.298564E-2],"categories":[],"categories_nodes":[],"categories_segments":[],"categories_sizes":[],"default_left":[0,0,0,0,0,0,0,0,0,0,0,0,0,0,0,0,0,0,0,0,0],"id":32,"left_children":[1,3,5,7,9,-1,-1,11,-1,13,-1,15,-1,17,-1,19,-1,-1,-1,-1,-1],"loss_changes":[3.5876724E2,5.5312836E2,3.923645E-1,8.5304016E1,1.5073242E0,0E0,0E0,8.871881E1,0E0,2.4523168E0,0E0,9.2630035E1,0E0,1.0855715E0,0E0,9.683002E1,0E0,0E0,0E0,0E0,0E0],"parents":[2147483647,0,0,1,1,2,2,3,3,4,4,7,7,9,9,11,11,13,13,15,15],"right_children":[2,4,6,8,10,-1,-1,12,-1,14,-1,16,-1,18,-1,20,-1,-1,-1,-1,-1],"split_conditions":[2.9802322E-8,4.560232E-3,4.2822084E-1,2.0314692E-1,4.702276E-1,-5.750788E-2,-6.857842E-2,1.8328086E-1,-7.156098E-2,4.9982366E-1,-5.803616E-2,1.8349168E-1,-7.286955E-2,7.874422E-3,5.1602036E-2,1.8401597E-1,-7.302344E-2,2.0116182E-2,-5.451271E-2,4.91188E-2,-7.298564E-2],"split_indices":[33,84,15,24,84,0,0,38,0,5,0,37,0,27,0,30,0,0,0,0,0],"split_type":[0,0,0,0,0,0,0,0,0,0,0,0,0,0,0,0,0,0,0,0,0],"sum_hessian":[4.3446543E3,3.5557961E3,7.8885803E2,2.7605913E3,7.952048E2,7.245688E2,6.428928E1,2.691153E3,6.9438225E1,1.4576615E1,7.806282E2,2.6241396E3,6.701345E1,1.1958643E1,2.6179717E0,2.5578425E3,6.6297165E1,1.8194678E0,1.0139175E1,2.492011E3,6.583156E1],"tree_param":{"num_deleted":"0","num_feature":"105","num_nodes":"21","size_leaf_vector":"1"}},{"base_weights":[-2.0747947E-2,-5.8217436E-2,7.9346776E-1,-5.567461E-2,8.259437E-1,-4.0217664E-2,8.279797E-2],"categories":[],"categories_nodes":[],"categories_segments":[],"categories_sizes":[],"default_left":[0,0,0,0,0,0,0],"id":33,"left_children":[1,-1,3,-1,5,-1,-1],"loss_changes":[1.7585076E3,0E0,6.9303955E1,0E0,4.1673584E0,0E0,0E0],"parents":[2147483647,0,0,2,2,4,4],"right_children":[2,-1,4,-1,6,-1,-1],"split_conditions":[4.560232E-3,-5.8217436E-2,1.3397714E-2,-5.567461E-2,5.4794884E-1,-4.0217664E-2,8.279797E-2],"split_indices":[84,0,27,0,63,0,0],"split_type":[0,0,0,0,0,0,0],"sum_hessian":[3.8448987E3,2.2758892E3,1.5690095E3,3.6473007E1,1.5325366E3,2.2110293E0,1.5303256E3],"tree_param":{"num_deleted":"0","num_feature":"105","num_nodes":"7","size_leaf_vector":"1"}},{"base_weights":[-1.8206708E-2,8.248401E-1,-5.819943E-2,8.263917E-2,-3.656701E-2],"categories":[],"categories_nodes":[],"categories_segments":[],"categories_sizes":[],"default_left":[0,0,0,0,0],"id":34,"left_children":[1,3,-1,-1,-1],"loss_changes":[1.821106E3,3.1385498E0,0E0,0E0,0E0],"parents":[2147483647,0,0,1,1],"right_children":[2,4,-1,-1,-1],"split_conditions":[4.2603624E-1,4.2822084E-1,-5.819943E-2,8.263917E-2,-3.656701E-2],"split_indices":[12,15,0,0,0],"split_type":[0,0,0,0,0],"sum_hessian":[3.8294827E3,1.5344761E3,2.2950066E3,1.5327843E3,1.6918044E0],"tree_param":{"num_deleted":"0","num_feature":"105","num_nodes":"5","size_leaf_vector":"1"}},{"base_weights":[2.2941088E-2,-5.668067E-1,1.4278084E-1,-5.752323E-2,7.881274E-2,3.1126648E-1,-4.2402452E-1,1.3213038E-1,2.840267E-1,9.439743E-2,-5.7543993E-1,2.5591692E-1,1.3186796E-1,2.8424214E-3,-5.7660103E-2,2.2714841E-1,1.324646E-1,1.968486E-2,1.322975E-1],"categories":[],"categories_nodes":[],"categories_segments":[],"categories_sizes":[],"default_left":[0,0,0,0,0,0,0,0,0,0,0,0,0,0,0,0,0,0,0],"id":35,"left_children":[1,3,5,-1,-1,7,9,-1,11,-1,13,15,-1,-1,-1,17,-1,-1,-1],"loss_changes":[3.099399E2,8.9086E0,3.4818805E2,0E0,0E0,7.693854E1,1.736173E2,0E0,7.92809E1,0E0,5.4429626E-1,8.167883E1,0E0,0E0,0E0,8.599153E1,0E0,0E0,0E0],"parents":[2147483647,0,0,1,1,2,2,5,5,6,6,8,8,10,10,11,11,15,15],"right_children":[2,4,6,-1,-1,8,10,-1,12,-1,14,16,-1,-1,-1,18,-1,-1,-1],"split_conditions":[4.2603624E-1,4.2822084E-1,4.560232E-3,-5.752323E-2,7.881274E-2,4.9526313E-1,1.3397714E-2,1.3213038E-1,1.8349168E-1,9.439743E-2,5.705815E-1,1.8328086E-1,1.3186796E-1,2.8424214E-3,-5.7660103E-2,4.000402E-1,1.324646E-1,1.968486E-2,1.322975E-1],"split_indices":[12,15,84,0,0,51,27,0,37,0,50,38,0,0,0,102,0,0,0],"split_type":[0,0,0,0,0,0,0,0,0,0,0,0,0,0,0,0,0,0,0],"sum_hessian":[4.3832656E3,7.396444E2,3.643621E3,7.356453E2,3.9990978E0,2.809064E3,8.3455707E2,7.2520836E1,2.7365432E3,8.264518E1,7.519119E2,2.6653767E3,7.11665E1,1.3979032E0,7.50514E2,2.5966904E3,6.868629E1,2.5279712E3,6.871923E1],"tree_param":{"num_deleted":"0","num_feature":"105","num_nodes":"19","size_leaf_vector":"1"}},{"base_weights":[1.471409E-2,1.4297333E-1,-5.795696E-1,3.338912E-1,-5.693979E-1,-5.6786146E-2,-6.895579E-2,3.6144692E-1,-7.630265E-2,-3.506626E-2,-5.7467587E-2,3.9294776E-1,-6.645833E-1,1.1675638E-1,-3.9012246E-2,-7.001604E-2,4.2424992E-1,2.9166493E-1,-7.3330894E-2,2.9571828E-1,-3.792607E-2,4.5524728E-2,-7.6494455E-2,5.9645712E-2,-4.4721335E-2,3.694421E-2,3.037404E-3],"categories":[],"categories_nodes":[],"categories_segments":[],"categories_sizes":[],"default_left":[0,0,0,0,0,0,0,0,0,0,0,0,0,0,0,0,0,0,0,0,0,0,0,0,0,0,0],"id":36,"left_children":[1,3,5,7,9,-1,-1,11,-1,13,-1,15,17,19,-1,-1,21,23,-1,25,-1,-1,-1,-1,-1,-1,-1],"loss_changes":[3.2571478E2,4.7818884E2,5.852356E-1,8.4074554E1,2.0758057E0,0E0,0E0,8.769275E1,0E0,4.9481386E-1,0E0,9.012146E1,5.533764E0,6.987007E-1,0E0,0E0,9.444589E1,1.6502147E0,0E0,9.47583E-2,0E0,0E0,0E0,0E0,0E0,0E0,0E0],"parents":[2147483647,0,0,1,1,2,2,3,3,4,4,7,7,9,9,11,11,12,12,13,13,16,16,17,17,19,19],"right_children":[2,4,6,8,10,-1,-1,12,-1,14,-1,16,18,20,-1,-1,22,24,-1,26,-1,-1,-1,-1,-1,-1,-1],"split_conditions":[2.9802322E-8,5.4906195E-1,4.2603624E-1,1.7403962E-1,4.972207E-1,-5.6786146E-2,-6.895579E-2,4.445851E-3,-7.630265E-2,5.4275066E-1,-5.7467587E-2,4.6103534E-1,6.122537E-1,2.3739388E-4,-3.9012246E-2,-7.001604E-2,1.8631022E-1,7.231808E-5,-7.3330894E-2,5.0622463E-1,-3.792607E-2,4.5524728E-2,-7.6494455E-2,5.9645712E-2,-4.4721335E-2,3.694421E-2,3.037404E-3],"split_indices":[36,69,12,34,52,0,0,92,0,6,0,43,71,26,0,0,35,32,0,64,0,0,0,0,0,0,0],"split_type":[0,0,0,0,0,0,0,0,0,0,0,0,0,0,0,0,0,0,0,0,0,0,0,0,0,0,0],"sum_hessian":[4.2711304E3,3.5135828E3,7.575476E2,2.771376E3,7.422067E2,6.902357E2,6.73119E1,2.7041162E3,6.7259674E1,7.334289E0,7.3487244E2,2.624167E3,7.994932E1,5.607621E0,1.7266676E0,7.245864E1,2.5517083E3,5.143181E0,7.480614E1,4.4175816E0,1.1900399E0,2.487487E3,6.422129E1,3.7776346E0,1.3655462E0,3.150052E0,1.2675295E0],"tree_param":{"num_deleted":"0","num_feature":"105","num_nodes":"27","size_leaf_vector":"1"}},{"base_weights":[-2.5557509E-2,-5.756412E-2,7.537008E-1,-5.5302538E-2,7.85337E-2],"categories":[],"categories_nodes":[],"categories_segments":[],"categories_sizes":[],"default_left":[0,0,0,0,0],"id":37,"left_children":[1,-1,3,-1,-1],"loss_changes":[1.5739825E3,0E0,6.3248108E1,0E0,0E0],"parents":[2147483647,0,0,2,2],"right_children":[2,-1,4,-1,-1],"split_conditions":[5.4794884E-1,-5.756412E-2,4.1950345E-3,-5.5302538E-2,7.85337E-2],"split_indices":[63,0,90,0,0],"split_type":[0,0,0,0,0],"sum_hessian":[3.6698782E3,2.1514302E3,1.5184478E3,3.5503544E1,1.4829442E3],"tree_param":{"num_deleted":"0","num_feature":"105","num_nodes":"5","size_leaf_vector":"1"}},{"base_weights":[-2.6584871E-2,7.820908E-1,-5.7540864E-2,7.835807E-2,-3.5692427E-2],"categories":[],"categories_nodes":[],"categories_segments":[],"categories_sizes":[],"default_left":[0,0,0,0,0],"id":38,"left_children":[1,3,-1,-1,-1],"loss_changes":[1.6251401E3,2.7919312E0,0E0,0E0,0E0],"parents":[2147483647,0,0,1,1],"right_children":[2,4,-1,-1,-1],"split_conditions":[4.2603624E-1,4.2822084E-1,-5.7540864E-2,7.835807E-2,-3.5692427E-2],"split_indices":[12,15,0,0,0],"split_type":[0,0,0,0,0],"sum_hessian":[3.6596929E3,1.4794062E3,2.1802866E3,1.4777853E3,1.6208993E0],"tree_param":{"num_deleted":"0","num_feature":"105","num_nodes":"5","size_leaf_vector":"1"}},{"base_weights":[2.605033E-2,-5.604081E-1,1.3883284E-1,-5.67975E-2,7.173259E-2,2.8560516E-1,-4.3991944E-1,1.3719277E-1,2.61034E-1,4.247288E-1,-5.639524E-1,1.2595908E-1,2.331453E-1,2.730898E-1,8.53575E-1,7.254564E-2,-5.680693E-2,2.0366266E-1,1.2156536E-1,2.1286677E-1,9.507649E-2,8.811494E-2,2.547656E-2,1.20423175E-1,1.7245019E-2,1.00867346E-1,1.5339618E-2],"categories":[],"categories_nodes":[],"categories_segments":[],"categories_sizes":[],"default_left":[0,0,0,0,0,0,0,0,0,0,0,0,0,0,0,0,0,0,0,0,0,0,0,0,0,0,0],"id":39,"left_children":[1,3,5,-1,-1,7,9,-1,11,13,15,-1,17,19,21,-1,-1,23,-1,25,-1,-1,-1,-1,-1,-1,-1],"loss_changes":[2.809986E2,7.0326843E0,3.0278204E2,0E0,0E0,7.552243E1,7.758209E1,0E0,7.715726E1,5.6874886E0,3.7624054E0,0E0,7.816069E1,2.6026525E0,1.6044807E-1,0E0,0E0,8.190167E1,0E0,2.893629E0,0E0,0E0,0E0,0E0,0E0,0E0,0E0],"parents":[2147483647,0,0,1,1,2,2,5,5,6,6,8,8,9,9,10,10,12,12,13,13,14,14,17,17,19,19],"right_children":[2,4,6,-1,-1,8,10,-1,12,14,16,-1,18,20,22,-1,-1,24,-1,26,-1,-1,-1,-1,-1,-1,-1],"split_conditions":[4.2603624E-1,4.2822084E-1,5.265724E-1,-5.67975E-2,7.173259E-2,4.898177E-1,4.1950345E-3,1.3719277E-1,4.972207E-1,4.9919385E-1,1.0911179E-2,1.2595908E-1,2.1105348E-1,5.011523E-1,7.8416447E-4,7.254564E-2,-5.680693E-2,5E-1,1.2156536E-1,8.853176E-2,9.507649E-2,8.811494E-2,2.547656E-2,1.20423175E-1,1.7245019E-2,1.00867346E-1,1.5339618E-2],"split_indices":[12,15,0,0,0,53,90,0,52,68,21,0,23,67,24,0,0,57,0,56,0,0,0,0,0,0,0],"split_type":[0,0,0,0,0,0,0,0,0,0,0,0,0,0,0,0,0,0,0,0,0,0,0,0,0,0,0],"sum_hessian":[4.2462217E3,6.842447E2,3.5619768E3,6.8076855E2,3.4761086E0,2.8417993E3,7.201774E2,6.1643085E1,2.7801562E3,9.0044205E1,6.301332E2,7.433739E1,2.7058188E3,6.773135E1,2.231285E1,1.4478754E0,6.286853E2,2.6281616E3,7.765734E1,6.341037E1,4.3209825E0,2.0879862E1,1.4329903E0,7.8367744E1,2.549794E3,3.2993393E0,6.011103E1],"tree_param":{"num_deleted":"0","num_feature":"105","num_nodes":"27","size_leaf_vector":"1"}},{"base_weights":[1.7747553E-2,-5.7973546E-1,1.3507973E-1,-5.612665E-2,-7.446816E-2,3.055561E-1,-5.6836773E-2,3.3217743E-1,-7.436451E-2,-7.0984416E-2,3.609073E-1,-7.803246E-2,3.8918844E-1,-7.7972405E-2,4.1842867E-2],"categories":[],"categories_nodes":[],"categories_segments":[],"categories_sizes":[],"default_left":[0,0,0,0,0,0,0,0,0,0,0,0,0,0,0],"id":40,"left_children":[1,3,5,-1,-1,7,-1,9,-1,-1,11,-1,13,-1,-1],"loss_changes":[2.9459286E2,1.6833496E0,4.2137723E2,0E0,0E0,7.923175E1,0E0,8.2839325E1,0E0,0E0,8.696939E1,0E0,8.9907776E1,0E0,0E0],"parents":[2147483647,0,0,1,1,2,2,5,5,7,7,10,10,12,12],"right_children":[2,4,6,-1,-1,8,-1,10,-1,-1,12,-1,14,-1,-1],"split_conditions":[1.1679025E-1,4.2603624E-1,1.1349927E-1,-5.612665E-2,-7.446816E-2,1.9456604E-1,-5.6836773E-2,4.8984608E-1,-7.436451E-2,-7.0984416E-2,4.898177E-1,-7.803246E-2,4.615807E-1,-7.7972405E-2,4.1842867E-2],"split_indices":[60,12,27,0,0,40,0,47,0,0,53,0,49,0,0],"split_type":[0,0,0,0,0,0,0,0,0,0,0,0,0,0,0],"sum_hessian":[4.200111E3,6.887735E2,3.5113374E3,6.233771E2,6.539641E1,2.826836E3,6.845015E2,2.757552E3,6.928385E1,7.335316E1,2.684199E3,6.42662E1,2.6199326E3,6.3311573E1,2.556621E3],"tree_param":{"num_deleted":"0","num_feature":"105","num_nodes":"15","size_leaf_vector":"1"}},{"base_weights":[-2.573879E-2,-5.6976862E-2,7.193708E-1,-5.451077E-2,7.490116E-2],"categories":[],"categories_nodes":[],"categories_segments":[],"categories_sizes":[],"default_left":[0,0,0,0,0],"id":41,"left_children":[1,-1,3,-1,-1],"loss_changes":[1.4162747E3,0E0,5.5671326E1,0E0,0E0],"parents":[2147483647,0,0,2,2],"right_children":[2,-1,4,-1,-1],"split_conditions":[4.560232E-3,-5.6976862E-2,5.4906195E-1,-5.451077E-2,7.490116E-2],"split_indices":[84,0,69,0,0],"split_type":[0,0,0,0,0],"sum_hessian":[3.4918418E3,2.0183854E3,1.4734564E3,3.3350132E1,1.4401063E3],"tree_param":{"num_deleted":"0","num_feature":"105","num_nodes":"5","size_leaf_vector":"1"}},{"base_weights":[-3.2069735E-2,7.4558985E-1,-5.6950636E-2,-3.957171E-2,7.476035E-2],"categories":[],"categories_nodes":[],"categories_segments":[],"categories_sizes":[],"default_left":[0,0,0,0,0],"id":42,"left_children":[1,3,-1,-1,-1],"loss_changes":[1.4463453E3,3.5460205E0,0E0,0E0,0E0],"parents":[2147483647,0,0,1,1],"right_children":[2,4,-1,-1,-1],"split_conditions":[4.2822084E-1,2.9802322E-8,-5.6950636E-2,-3.957171E-2,7.476035E-2],"split_indices":[15,33,0,0,0],"split_type":[0,0,0,0,0],"sum_hessian":[3.4586145E3,1.4132638E3,2.0453507E3,2.1446967E0,1.4111191E3],"tree_param":{"num_deleted":"0","num_feature":"105","num_nodes":"5","size_leaf_vector":"1"}},{"base_weights":[3.0866561E-2,-5.5225945E-1,1.3316953E-1,-5.613783E-2,7.125693E-2,2.6599815E-1,-4.3042278E-1,1.2639602E-1,2.4142158E-1,4.097714E-1,-5.560324E-1,1.15458526E-1,2.1369989E-1,2.4904208E-1,8.0625035E-2,4.4350743E-2,-5.614809E-2,1.2064185E-1,1.860084E-1,1.887594E-1,9.538608E-2,1.16389506E-1,1.5558888E-2,1.2996654E-2,9.172042E-2],"categories":[],"categories_nodes":[],"categories_segments":[],"categories_sizes":[],"default_left":[0,0,0,0,0,0,0,0,0,0,0,0,0,0,0,0,0,0,0,0,0,0,0,0,0],"id":43,"left_children":[1,3,5,-1,-1,7,9,-1,11,13,15,-1,17,19,-1,-1,-1,-1,21,23,-1,-1,-1,-1,-1],"loss_changes":[2.5139746E2,7.654648E0,2.684867E2,0E0,0E0,7.086565E1,7.242929E1,0E0,7.147629E1,5.5060205E0,3.4925232E0,0E0,7.540116E1,2.5888176E0,0E0,0E0,0E0,0E0,7.9467865E1,2.5052454E0,0E0,0E0,0E0,0E0,0E0],"parents":[2147483647,0,0,1,1,2,2,5,5,6,6,8,8,9,9,10,10,12,12,13,13,18,18,19,19],"right_children":[2,4,6,-1,-1,8,10,-1,12,14,16,-1,18,20,-1,-1,-1,-1,22,24,-1,-1,-1,-1,-1],"split_conditions":[4.2603624E-1,4.2822084E-1,5.265724E-1,-5.613783E-2,7.125693E-2,4.898177E-1,4.1950345E-3,1.2639602E-1,4.8984608E-1,1.13140106E-1,5.4794884E-1,1.15458526E-1,1.4496684E-1,1.8631022E-1,8.0625035E-2,4.4350743E-2,-5.614809E-2,1.2064185E-1,4.953283E-1,2.2890803E-1,9.538608E-2,1.16389506E-1,1.5558888E-2,1.2996654E-2,9.172042E-2],"split_indices":[12,15,0,0,0,53,90,0,47,21,63,0,61,35,0,0,0,0,45,31,0,0,0,0,0],"split_type":[0,0,0,0,0,0,0,0,0,0,0,0,0,0,0,0,0,0,0,0,0,0,0,0,0],"sum_hessian":[4.21192E3,6.2798914E2,3.583931E3,6.240462E2,3.9429204E0,2.9007937E3,6.8313715E2,6.85081E1,2.8322856E3,8.855261E1,5.9458453E2,8.2251114E1,2.7500344E3,6.416769E1,2.4384922E1,2.7875783E0,5.9179694E2,7.3474236E1,2.6765603E3,6.0279808E1,3.8878794E0,7.9624825E1,2.5969355E3,5.6868374E1,3.4114366E0],"tree_param":{"num_deleted":"0","num_feature":"105","num_nodes":"25","size_leaf_vector":"1"}},{"base_weights":[2.1205332E-2,1.3296174E-1,-5.7165813E-1,2.9065272E-1,-5.631357E-1,-5.553301E-2,-6.96811E-2,3.180342E-1,-7.6027684E-2,-6.339799E-2,-5.5514652E-2,3.452238E-1,-7.6072074E-2,-7.6172106E-2,3.734731E-1,-6.995601E-2,4.047179E-2],"categories":[],"categories_nodes":[],"categories_segments":[],"categories_sizes":[],"default_left":[0,0,0,0,0,0,0,0,0,0,0,0,0,0,0,0,0],"id":44,"left_children":[1,3,5,7,9,-1,-1,11,-1,-1,-1,13,-1,-1,15,-1,-1],"loss_changes":[2.7307904E2,3.8080734E2,9.4888306E-1,8.161726E1,1.07421875E-2,0E0,0E0,8.1121735E1,0E0,0E0,0E0,8.439261E1,0E0,0E0,8.823831E1,0E0,0E0],"parents":[2147483647,0,0,1,1,2,2,3,3,4,4,7,7,11,11,14,14],"right_children":[2,4,6,8,10,-1,-1,12,-1,-1,-1,14,-1,-1,16,-1,-1],"split_conditions":[2.9802322E-8,1.13140106E-1,4.2822084E-1,1.7403962E-1,4.1950345E-3,-5.553301E-2,-6.96811E-2,1.9720215E-1,-7.6027684E-2,-6.339799E-2,-5.5514652E-2,4.615807E-1,-7.6072074E-2,-7.6172106E-2,4.6103534E-1,-6.995601E-2,4.047179E-2],"split_indices":[33,21,15,34,90,0,0,41,0,0,0,49,0,0,43,0,0],"split_type":[0,0,0,0,0,0,0,0,0,0,0,0,0,0,0,0,0],"sum_hessian":[4.119409E3,3.4667021E3,6.527073E2,2.8268923E3,6.398098E2,5.821894E2,7.051785E1,2.7557888E3,7.110343E1,5.6899292E1,5.829105E2,2.6887012E3,6.70877E1,6.6262215E1,2.622439E3,7.359487E1,2.548844E3],"tree_param":{"num_deleted":"0","num_feature":"105","num_nodes":"17","size_leaf_vector":"1"}},{"base_weights":[-3.0919664E-2,-5.6438673E-2,6.916648E-1,-5.3844173E-2,7.187872E-2],"categories":[],"categories_nodes":[],"categories_segments":[],"categories_sizes":[],"default_left":[0,0,0,0,0],"id":45,"left_children":[1,-1,3,-1,-1],"loss_changes":[1.2678367E3,0E0,4.6993164E1,0E0,0E0],"parents":[2147483647,0,0,2,2],"right_children":[2,-1,4,-1,-1],"split_conditions":[4.560232E-3,-5.6438673E-2,5.4906195E-1,-5.3844173E-2,7.187872E-2],"split_indices":[84,0,69,0,0],"split_type":[0,0,0,0,0],"sum_hessian":[3.2870117E3,1.8910863E3,1.3959254E3,2.9707731E1,1.3662177E3],"tree_param":{"num_deleted":"0","num_feature":"105","num_nodes":"5","size_leaf_vector":"1"}},{"base_weights":[-3.7063416E-2,7.1578425E-1,-5.6426626E-2,7.171177E-2,-3.2909375E-2],"categories":[],"categories_nodes":[],"categories_segments":[],"categories_sizes":[],"default_left":[0,0,0,0,0],"id":46,"left_children":[1,3,-1,-1,-1],"loss_changes":[1.2985906E3,2.1134644E0,0E0,0E0,0E0],"parents":[2147483647,0,0,1,1],"right_children":[2,4,-1,-1,-1],"split_conditions":[4.2603624E-1,5.0004554E-1,-5.6426626E-2,7.171177E-2,-3.2909375E-2],"split_indices":[12,18,0,0,0],"split_type":[0,0,0,0,0],"sum_hessian":[3.2697869E3,1.3465503E3,1.9232367E3,1.3451475E3,1.4028844E0],"tree_param":{"num_deleted":"0","num_feature":"105","num_nodes":"5","size_leaf_vector":"1"}},{"base_weights":[2.2933912E-2,-5.4493654E-1,1.1846478E-1,-5.5541437E-2,7.030524E-2,2.365334E-1,-4.4889954E-1,2.1250486E-1,1.1949827E-1,3.5818487E-1,-5.510354E-1,1.8557997E-1,1.1143637E0,1.341813E-1,6.770132E-1,2.9966166E-2,-5.5387855E-1,1.1042126E-1,1.571336E-1,1.1422079E-1,8.002321E-3,5.8281757E-2,8.4376425E-2,2.2468744E-1,7.782817E-1,-1.5441665E-1,-5.55299E-2,1.2505352E-1,1.3124502E-2,2.063971E-2,-2.5473556E-2,4.935096E-2,1.1567733E-3,7.987111E-2,2.7286002E-2,8.575431E-3,-3.150194E-2],"categories":[],"categories_nodes":[],"categories_segments":[],"categories_sizes":[],"default_left":[0,0,0,0,0,0,0,0,0,0,0,0,0,0,0,0,0,0,0,0,0,0,0,0,0,0,0,0,0,0,0,0,0,0,0,0,0],"id":47,"left_children":[1,3,5,-1,-1,7,9,11,-1,13,15,17,19,21,23,-1,25,-1,27,-1,-1,29,-1,31,33,35,-1,-1,-1,-1,-1,-1,-1,-1,-1,-1,-1],"loss_changes":[2.2378394E2,8.158173E0,2.3663336E2,0E0,0E0,6.707092E1,5.0362007E1,6.90724E1,0E0,4.834708E0,1.4734955E0,7.225199E1,2.284874E0,2.1996024E0,1.1174479E0,0E0,2.2018433E-1,0E0,7.596561E1,0E0,0E0,1.8511763E0,0E0,3.7051085E-1,1.5893936E-2,1.5412869E-1,0E0,0E0,0E0,0E0,0E0,0E0,0E0,0E0,0E0,0E0,0E0],"parents":[2147483647,0,0,1,1,2,2,5,5,6,6,7,7,9,9,10,10,11,11,12,12,13,13,14,14,16,16,18,18,21,21,23,23,24,24,25,25],"right_children":[2,4,6,-1,-1,8,10,12,-1,14,16,18,20,22,24,-1,26,-1,28,-1,-1,30,-1,32,34,36,-1,-1,-1,-1,-1,-1,-1,-1,-1,-1,-1],"split_conditions":[4.2603624E-1,2.030536E-1,5.272843E-1,-5.5541437E-2,7.030524E-2,1.7403962E-1,4.1950345E-3,4.445851E-3,1.1949827E-1,5.3130376E-1,1.0911179E-2,4.6103534E-1,1.0669125E-2,1.8631022E-1,4.9913463E-1,2.9966166E-2,1.13140106E-1,1.1042126E-1,4.97202E-1,1.1422079E-1,8.002321E-3,4.6260282E-3,8.4376425E-2,4.9897408E-1,7.563566E-4,5.144014E-4,-5.55299E-2,1.2505352E-1,1.3124502E-2,2.063971E-2,-2.5473556E-2,4.935096E-2,1.1567733E-3,7.987111E-2,2.7286002E-2,8.575431E-3,-3.150194E-2],"split_indices":[12,33,0,0,0,34,90,92,0,0,21,43,23,35,10,0,21,0,46,0,0,21,0,5,25,25,0,0,0,0,0,0,0,0,0,0,0],"split_type":[0,0,0,0,0,0,0,0,0,0,0,0,0,0,0,0,0,0,0,0,0,0,0,0,0,0,0,0,0,0,0,0,0,0,0,0,0],"sum_hessian":[4.1229233E3,5.9303033E2,3.5298933E3,5.886431E2,4.3871775E0,2.9223374E3,6.0755585E2,2.8520574E3,7.028002E1,6.7967255E1,5.395886E2,2.7705488E3,8.150863E1,4.07546E1,2.7212652E1,1.4496324E0,5.38139E2,8.208007E1,2.6884688E3,7.92704E1,2.2382298E0,3.7794136E1,2.9604619E0,5.566785E0,2.1645868E1,2.2955003E0,5.3584344E2,6.1088673E1,2.62738E3,2.5885914E1,1.1908224E1,1.8798982E0,3.6868865E0,2.0247179E1,1.398689E0,1.1066396E0,1.1888607E0],"tree_param":{"num_deleted":"0","num_feature":"105","num_nodes":"37","size_leaf_vector":"1"}},{"base_weights":[2.1431409E-2,-5.6356287E-1,1.2663633E-1,-5.403349E-1,-7.4365065E-2,2.7150133E-1,-5.5210984E-1,-5.4989934E-2,2.0558868E-1,2.9804796E-1,-7.540012E-2,-2.1657132E-1,-5.5946887E-1,3.795808E-1,-3.3840578E-2,-7.897221E-2,3.246981E-1,-5.160078E-2,3.1913754E-1,-6.374794E-2,-5.496567E-2,6.288491E-2,-1.5132579E-2,3.5371107E-1,-7.39912E-2,6.713258E-2,-1.9550664E-2,3.832246E-2,-7.244177E-2],"categories":[],"categories_nodes":[],"categories_segments":[],"categories_sizes":[],"default_left":[0,0,0,0,0,0,0,0,0,0,0,0,0,0,0,0,0,0,0,0,0,0,0,0,0,0,0,0,0],"id":48,"left_children":[1,3,5,7,-1,9,11,-1,13,15,-1,17,19,21,-1,-1,23,-1,25,-1,-1,-1,-1,27,-1,-1,-1,-1,-1],"loss_changes":[2.474523E2,2.1618652E0,3.352162E2,4.0120697E0,0E0,7.669533E1,1.3596497E0,0E0,8.522187E-1,7.965263E1,0E0,2.4909747E0,9.831238E-2,9.2425716E-1,0E0,0E0,8.2855774E1,0E0,1.185683E0,0E0,0E0,0E0,0E0,8.312784E1,0E0,0E0,0E0,0E0,0E0],"parents":[2147483647,0,0,1,1,2,2,3,3,5,5,6,6,8,8,9,9,11,11,12,12,13,13,16,16,18,18,23,23],"right_children":[2,4,6,8,-1,10,12,-1,14,16,-1,18,20,22,-1,-1,24,-1,26,-1,-1,-1,-1,28,-1,-1,-1,-1,-1],"split_conditions":[5.0002563E-1,5.842345E-1,4.1950345E-3,4.2603624E-1,-7.4365065E-2,2.1105348E-1,4.6998668E-1,-5.4989934E-2,1.2913346E-4,4.97202E-1,-7.540012E-2,4.9970436E-1,1.13140106E-1,6.386261E-5,-3.3840578E-2,-7.897221E-2,1.8401597E-1,-5.160078E-2,8.14831E-3,-6.374794E-2,-5.496567E-2,6.288491E-2,-1.5132579E-2,1.9456604E-1,-7.39912E-2,6.713258E-2,-1.9550664E-2,3.832246E-2,-7.244177E-2],"split_indices":[60,81,90,12,0,23,90,0,90,46,0,11,21,30,0,0,30,0,29,0,0,0,0,40,0,0,0,0,0],"split_type":[0,0,0,0,0,0,0,0,0,0,0,0,0,0,0,0,0,0,0,0,0,0,0,0,0,0,0,0,0],"sum_hessian":[4.0185608E3,6.118726E2,3.406688E3,5.455121E2,6.636052E1,2.80798E3,5.9870807E2,5.3886536E2,6.646706E0,2.7378171E3,7.016299E1,1.3502125E1,5.8520593E2,5.2649803E0,1.3817263E0,6.4787186E1,2.6730298E3,8.684607E0,4.8175178E0,5.8236553E1,5.269694E2,3.4572635E0,1.8077166E0,2.6027664E3,7.026336E1,2.6794407E0,2.138077E0,2.5340422E3,6.872428E1],"tree_param":{"num_deleted":"0","num_feature":"105","num_nodes":"29","size_leaf_vector":"1"}},{"base_weights":[-3.88251E-2,-5.5877537E-1,6.668513E-1,-5.5957407E-2,1.7020388E-2,-5.365872E-2,6.9309264E-2],"categories":[],"categories_nodes":[],"categories_segments":[],"categories_sizes":[],"default_left":[0,0,0,0,0,0,0],"id":49,"left_children":[1,3,5,-1,-1,-1,-1],"loss_changes":[1.1342068E3,1.1314087E0,4.178595E1,0E0,0E0,0E0,0E0],"parents":[2147483647,0,0,1,1,2,2],"right_children":[2,4,6,-1,-1,-1,-1],"split_conditions":[1.13140106E-1,5.399377E-1,4.1950345E-3,-5.5957407E-2,1.7020388E-2,-5.365872E-2,6.9309264E-2],"split_indices":[21,0,90,0,0,0,0],"split_type":[0,0,0,0,0,0,0],"sum_hessian":[3.0891685E3,1.7787635E3,1.3104048E3,1.7770491E3,1.7145636E0,2.7549038E1,1.2828558E3],"tree_param":{"num_deleted":"0","num_feature":"105","num_nodes":"7","size_leaf_vector":"1"}},{"base_weights":[-3.9945606E-2,6.884713E-1,-5.592817E-2,6.910489E-2,-4.1327875E-2],"categories":[],"categories_nodes":[],"categories_segments":[],"categories_sizes":[],"default_left":[0,0,0,0,0],"id":50,"left_children":[1,3,-1,-1,-1],"loss_changes":[1.1650074E3,3.9257202E0,0E0,0E0,0E0],"parents":[2147483647,0,0,1,1],"right_children":[2,4,-1,-1,-1],"split_conditions":[4.2822084E-1,5.0004554E-1,-5.592817E-2,6.910489E-2,-4.1327875E-2],"split_indices":[15,18,0,0,0],"split_type":[0,0,0,0,0],"sum_hessian":[3.0776235E3,1.2808239E3,1.7967997E3,1.2782063E3,2.617631E0],"tree_param":{"num_deleted":"0","num_feature":"105","num_nodes":"5","size_leaf_vector":"1"}},{"base_weights":[3.027957E-2,-5.323235E-1,1.1698701E-1,-5.4996144E-2,8.849282E-2,2.2070844E-1,-4.168107E-1,1.1464863E-1,1.936097E-1,4.1358367E-1,-5.4225194E-1,1.6786595E-1,1.1385132E-1,2.6000848E-1,7.3900217E-1,2.8992197E-1,-5.483576E-1,1.4082797E-1,1.1411645E-1,1.5828246E-1,6.0149634E-1,7.81135E-2,3.683567E-1,-2.0135117E-3,4.3714575E-2,1.1791504E-2,-5.5015225E-2,1.1373319E-2,1.13599576E-1,6.4163044E-2,7.902959E-3,7.316687E-2,4.7932654E-3,1.2199707E-2,5.128E-2],"categories":[],"categories_nodes":[],"categories_segments":[],"categories_sizes":[],"default_left":[0,0,0,0,0,0,0,0,0,0,0,0,0,0,0,0,0,0,0,0,0,0,0,0,0,0,0,0,0,0,0,0,0,0,0],"id":51,"left_children":[1,3,5,-1,-1,7,9,-1,11,13,15,17,-1,19,21,23,25,27,-1,29,31,-1,33,-1,-1,-1,-1,-1,-1,-1,-1,-1,-1,-1,-1],"loss_changes":[1.9645747E2,1.3930313E1,1.9327518E2,0E0,0E0,7.308763E1,5.9392517E1,0E0,6.889935E1,3.5617037E0,2.6685333E0,7.2632286E1,0E0,1.7310822E0,7.9870224E-2,2.0287684E-1,6.515503E-1,7.2470535E1,0E0,1.5529469E0,8.086901E-1,0E0,9.028214E-2,0E0,0E0,0E0,0E0,0E0,0E0,0E0,0E0,0E0,0E0,0E0,0E0],"parents":[2147483647,0,0,1,1,2,2,5,5,6,6,8,8,9,9,10,10,11,11,13,13,14,14,15,15,16,16,17,17,19,19,20,20,22,22],"right_children":[2,4,6,-1,-1,8,10,-1,12,14,16,18,-1,20,22,24,26,28,-1,30,32,-1,34,-1,-1,-1,-1,-1,-1,-1,-1,-1,-1,-1,-1],"split_conditions":[4.2822084E-1,5.0004554E-1,5.272843E-1,-5.4996144E-2,8.849282E-2,4.972207E-1,1.3397714E-2,1.1464863E-1,1.8401597E-1,4.9919385E-1,5.4794884E-1,1.8328086E-1,1.1385132E-1,7.662177E-5,8.121792E-3,4.9882913E-1,4.8780572E-1,1.8349168E-1,1.1411645E-1,4.995634E-1,7.020019E-3,7.81135E-2,5.100602E-1,-2.0135117E-3,4.3714575E-2,1.1791504E-2,-5.5015225E-2,1.1373319E-2,1.13599576E-1,6.4163044E-2,7.902959E-3,7.316687E-2,4.7932654E-3,1.2199707E-2,5.128E-2],"split_indices":[15,18,0,0,0,52,27,0,30,68,63,38,0,88,28,4,42,37,0,52,27,0,70,0,0,0,0,0,0,0,0,0,0,0,0],"split_type":[0,0,0,0,0,0,0,0,0,0,0,0,0,0,0,0,0,0,0,0,0,0,0,0,0,0,0,0,0,0,0,0,0,0,0],"sum_hessian":[4.024987E3,5.3680133E2,3.4881858E3,5.3080725E2,5.994033E0,2.9211653E3,5.670207E2,8.189994E1,2.8392651E3,7.411278E1,4.9290793E2,2.765108E3,7.415727E1,5.157291E1,2.253987E1,3.251574E0,4.8965634E2,2.691484E3,7.362404E1,4.086355E1,1.0709362E1,1.924474E1,3.2951295E0,1.3247824E0,1.9267917E0,1.1415558E0,4.8851477E2,2.6212317E3,7.025225E1,4.756793E0,3.6106754E1,8.409984E0,2.2993786E0,1.899678E0,1.3954515E0],"tree_param":{"num_deleted":"0","num_feature":"105","num_nodes":"35","size_leaf_vector":"1"}},{"base_weights":[2.9719183E-2,-5.6334037E-1,1.2709635E-1,-5.4498117E-2,-6.9452725E-2,2.583226E-1,-5.5447316E-1,2.856116E-1,-6.9927686E-1,-6.2943004E-2,-5.447892E-2,3.126085E-1,-7.343866E-2,-7.3597126E-2,8.71712E-2,-7.365998E-2,3.4013444E-1,3.7864074E-2,-1.6607564E-2,-7.574774E-2,3.683269E-2],"categories":[],"categories_nodes":[],"categories_segments":[],"categories_sizes":[],"default_left":[0,0,0,0,0,0,0,0,0,0,0,0,0,0,0,0,0,0,0,0,0],"id":52,"left_children":[1,3,5,-1,-1,7,9,11,13,-1,-1,15,-1,-1,17,-1,19,-1,-1,-1,-1],"loss_changes":[2.2932689E2,9.704132E-1,3.0519467E2,0E0,0E0,7.4955734E1,5.7037354E-2,7.684137E1,2.3599396E0,0E0,0E0,7.854898E1,0E0,0E0,3.9065182E-1,0E0,8.204953E1,0E0,0E0,0E0,0E0],"parents":[2147483647,0,0,1,1,2,2,5,5,6,6,7,7,8,8,11,11,14,14,16,16],"right_children":[2,4,6,-1,-1,8,10,12,14,-1,-1,16,-1,-1,18,-1,20,-1,-1,-1,-1],"split_conditions":[5E-1,4.2822084E-1,1.13140106E-1,-5.4498117E-2,-6.9452725E-2,3.8185716E-4,4.1950345E-3,1.8328086E-1,4.972207E-1,-6.2943004E-2,-5.447892E-2,4.953283E-1,-7.343866E-2,-7.3597126E-2,5.049956E-1,-7.365998E-2,4.615807E-1,3.7864074E-2,-1.6607564E-2,-7.574774E-2,3.683269E-2],"split_indices":[54,15,21,0,0,94,90,38,52,0,0,45,0,0,0,0,49,0,0,0,0],"split_type":[0,0,0,0,0,0,0,0,0,0,0,0,0,0,0,0,0,0,0,0,0],"sum_hessian":[3.9687566E3,5.590669E2,3.4096897E3,4.949539E2,6.411302E1,2.8597146E3,5.499752E2,2.7811606E3,7.855385E1,5.5601875E1,4.9437332E2,2.7101238E3,7.1036964E1,7.511336E1,3.440485E0,6.862383E1,2.6415E3,1.3693329E0,2.0711522E0,6.550083E1,2.575999E3],"tree_param":{"num_deleted":"0","num_feature":"105","num_nodes":"21","size_leaf_vector":"1"}},{"base_weights":[-4.1699924E-2,-5.5308384E-1,6.431781E-1,-5.551174E-2,6.0514357E-2,-5.3346075E-2,6.710901E-2],"categories":[],"categories_nodes":[],"categories_segments":[],"categories_sizes":[],"default_left":[0,0,0,0,0,0,0],"id":53,"left_children":[1,3,5,-1,-1,-1,-1],"loss_changes":[1.0293008E3,4.298767E0,4.161963E1,0E0,0E0,0E0,0E0],"parents":[2147483647,0,0,1,1,2,2],"right_children":[2,4,6,-1,-1,-1,-1],"split_conditions":[1.13140106E-1,5.411704E-1,4.1950345E-3,-5.551174E-2,6.0514357E-2,-5.3346075E-2,6.710901E-2],"split_indices":[21,0,90,0,0,0,0],"split_type":[0,0,0,0,0,0,0],"sum_hessian":[2.9368657E3,1.6815103E3,1.2553555E3,1.6790829E3,2.4273405E0,2.8669516E1,1.2266859E3],"tree_param":{"num_deleted":"0","num_feature":"105","num_nodes":"7","size_leaf_vector":"1"}},{"base_weights":[-4.861093E-2,6.6732407E-1,-5.5497367E-2,6.686192E-2,-3.1134425E-2],"categories":[],"categories_nodes":[],"categories_segments":[],"categories_sizes":[],"default_left":[0,0,0,0,0],"id":54,"left_children":[1,3,-1,-1,-1],"loss_changes":[1.0522897E3,1.7323608E0,0E0,0E0,0E0],"parents":[2147483647,0,0,1,1],"right_children":[2,4,-1,-1,-1],"split_conditions":[4.2603624E-1,4.2822084E-1,-5.5497367E-2,6.686192E-2,-3.1134425E-2],"split_indices":[12,15,0,0,0],"split_type":[0,0,0,0,0],"sum_hessian":[2.9006636E3,1.2015297E3,1.6991339E3,1.2002582E3,1.2715689E0],"tree_param":{"num_deleted":"0","num_feature":"105","num_nodes":"5","size_leaf_vector":"1"}},{"base_weights":[3.8574465E-2,-5.359911E-1,1.2170317E-1,-5.4504074E-2,6.2540665E-2,2.2358759E-1,-3.7246138E-1,1.1366022E-1,1.994832E-1,8.049803E-1,-5.4558325E-1,1.0659419E0,1.7281456E-1,1.5664607E-2,8.193716E-2,1.3027281E-2,-5.486067E-2,1.0761376E-1,2.8941546E-2,1.4384642E-1,1.0362073E0,1.029971E-1,1.1316459E-2,1.905779E-2,1.0814805E-1],"categories":[],"categories_nodes":[],"categories_segments":[],"categories_sizes":[],"default_left":[0,0,0,0,0,0,0,0,0,0,0,0,0,0,0,0,0,0,0,0,0,0,0,0,0],"id":55,"left_children":[1,3,5,-1,-1,7,9,-1,11,13,15,17,19,-1,-1,-1,-1,-1,-1,21,23,-1,-1,-1,-1],"loss_changes":[1.8823482E2,5.5763702E0,1.734064E2,0E0,0E0,6.259874E1,1.2046404E2,0E0,6.411164E1,5.7964706E-1,1.1216125E0,3.448105E-1,6.7395424E1,0E0,0E0,0E0,0E0,0E0,0E0,7.095529E1,3.1440277E0,0E0,0E0,0E0,0E0],"parents":[2147483647,0,0,1,1,2,2,5,5,6,6,8,8,9,9,10,10,11,11,12,12,19,19,20,20],"right_children":[2,4,6,-1,-1,8,10,-1,12,14,16,18,20,-1,-1,-1,-1,-1,-1,22,24,-1,-1,-1,-1],"split_conditions":[4.2603624E-1,4.2822084E-1,5.4794884E-1,-5.4504074E-2,6.2540665E-2,4.615807E-1,7.020019E-3,1.1366022E-1,4.972207E-1,4.981283E-1,4.6516204E-1,5.316339E-1,4.445851E-3,1.5664607E-2,8.193716E-2,1.3027281E-2,-5.486067E-2,1.0761376E-1,2.8941546E-2,4.8984608E-1,6.122537E-1,1.029971E-1,1.1316459E-2,1.905779E-2,1.0814805E-1],"split_indices":[12,15,63,0,0,49,27,0,52,4,42,6,92,0,0,0,0,0,0,47,71,0,0,0,0],"split_type":[0,0,0,0,0,0,0,0,0,0,0,0,0,0,0,0,0,0,0,0,0,0,0,0,0],"sum_hessian":[3.938661E3,4.9713513E2,3.4415256E3,4.93818E2,3.3171234E0,2.8537095E3,5.878162E2,7.22154E1,2.7814941E3,7.488133E1,5.129349E2,8.1891304E1,2.6996028E3,1.8841454E0,7.2997185E1,2.0969317E0,5.1083795E2,8.044919E1,1.4421153E0,2.613096E3,8.650676E1,8.635986E1,2.526736E3,4.660764E0,8.1846E1],"tree_param":{"num_deleted":"0","num_feature":"105","num_nodes":"25","size_leaf_vector":"1"}},{"base_weights":[3.7463274E-2,1.3061859E-1,-5.636488E-1,2.519652E-1,-5.5201155E-1,-5.404983E-2,-7.061911E-2,2.7908686E-1,-7.08476E-1,-6.368693E-2,-5.4023445E-2,3.056819E-1,-7.471629E-2,-7.4208707E-1,2.5611583E-2,3.3156693E-1,-8.0284186E-2,-7.540118E-2,-5.9662005E-3,3.5927627E-2,-7.687987E-2],"categories":[],"categories_nodes":[],"categories_segments":[],"categories_sizes":[],"default_left":[0,0,0,0,0,0,0,0,0,0,0,0,0,0,0,0,0,0,0,0,0],"id":56,"left_children":[1,3,5,7,9,-1,-1,11,13,-1,-1,15,-1,17,-1,19,-1,-1,-1,-1,-1],"loss_changes":[2.1787718E2,2.7916745E2,1.3411407E0,7.471701E1,1.6433716E-1,0E0,0E0,7.618283E1,2.746399E0,0E0,0E0,7.81228E1,0E0,5.77137E-1,0E0,8.114035E1,0E0,0E0,0E0,0E0,0E0],"parents":[2147483647,0,0,1,1,2,2,3,3,4,4,7,7,8,8,11,11,13,13,15,15],"right_children":[2,4,6,8,10,-1,-1,12,14,-1,-1,16,-1,18,-1,20,-1,-1,-1,-1,-1],"split_conditions":[2.9802322E-8,1.1349927E-1,4.2603624E-1,6.937444E-3,6.7876126E-3,-5.404983E-2,-7.061911E-2,1.8349168E-1,5.8565444E-1,-6.368693E-2,-5.4023445E-2,1.8631022E-1,-7.471629E-2,1.131817E-2,2.5611583E-2,1.9720215E-1,-8.0284186E-2,-7.540118E-2,-5.9662005E-3,3.5927627E-2,-7.687987E-2],"split_indices":[36,27,12,86,21,0,0,37,44,0,0,35,0,29,0,41,0,0,0,0,0],"split_type":[0,0,0,0,0,0,0,0,0,0,0,0,0,0,0,0,0,0,0,0,0],"sum_hessian":[3.8885723E3,3.3674897E3,5.210826E2,2.85976E3,5.0772958E2,4.5239954E2,6.868307E1,2.7819116E3,7.7848335E1,5.5409405E1,4.523202E2,2.7123245E3,6.958716E1,7.544997E1,2.3983693E0,2.6511194E3,6.1205143E1,7.4051094E1,1.3988745E0,2.586656E3,6.4463486E1],"tree_param":{"num_deleted":"0","num_feature":"105","num_nodes":"21","size_leaf_vector":"1"}},{"base_weights":[-4.689237E-2,-5.5104703E-2,6.241287E-1,-5.2564707E-2,6.510049E-1,2.1568699E-2,6.514485E-2],"categories":[],"categories_nodes":[],"categories_segments":[],"categories_sizes":[],"default_left":[0,0,0,0,0,0,0],"id":57,"left_children":[1,-1,3,-1,5,-1,-1],"loss_changes":[9.191966E2,0E0,3.636383E1,0E0,7.949829E-2,0E0,0E0],"parents":[2147483647,0,0,2,2,4,4],"right_children":[2,-1,4,-1,6,-1,-1],"split_conditions":[4.560232E-3,-5.5104703E-2,5.4906195E-1,-5.2564707E-2,4.972207E-1,2.1568699E-2,6.514485E-2],"split_indices":[84,0,69,0,52,0,0],"split_type":[0,0,0,0,0,0,0],"sum_hessian":[2.7151013E3,1.550415E3,1.1646862E3,2.617901E1,1.1385072E3,1.6548506E0,1.1368523E3],"tree_param":{"num_deleted":"0","num_feature":"105","num_nodes":"7","size_leaf_vector":"1"}},{"base_weights":[-4.937361E-2,6.4773846E-1,-5.509414E-2,6.492156E-2,-3.2178506E-2],"categories":[],"categories_nodes":[],"categories_segments":[],"categories_sizes":[],"default_left":[0,0,0,0,0],"id":58,"left_children":[1,3,-1,-1,-1],"loss_changes":[9.458471E2,1.8299866E0,0E0,0E0,0E0],"parents":[2147483647,0,0,1,1],"right_children":[2,4,-1,-1,-1],"split_conditions":[4.2603624E-1,5.0004554E-1,-5.509414E-2,6.492156E-2,-3.2178506E-2],"split_indices":[12,18,0,0,0],"split_type":[0,0,0,0,0],"sum_hessian":[2.703113E3,1.130951E3,1.572162E3,1.1295604E3,1.3905557E0],"tree_param":{"num_deleted":"0","num_feature":"105","num_nodes":"5","size_leaf_vector":"1"}},{"base_weights":[4.0719498E-2,-5.223251E-1,1.155124E-1,-5.405547E-2,8.284588E-2,2.0651703E-1,-3.6507908E-1,1.8156934E-1,1.0924126E-1,7.797421E-2,-5.428448E-2,1.5389048E-1,1.0391234E0,1.0294529E-1,1.2564321E-1,3.278208E-1,1.075416E-1,9.742338E-3,1.06703036E-1,-3.4864568E-3,6.6819765E-2],"categories":[],"categories_nodes":[],"categories_segments":[],"categories_sizes":[],"default_left":[0,0,0,0,0,0,0,0,0,0,0,0,0,0,0,0,0,0,0,0,0],"id":59,"left_children":[1,3,5,-1,-1,7,9,11,-1,-1,-1,13,15,-1,17,19,-1,-1,-1,-1,-1],"loss_changes":[1.6458519E2,1.1733101E1,1.5094568E2,0E0,0E0,6.391662E1,1.1226651E2,6.684088E1,0E0,0E0,0E0,6.75294E1,1.9213715E0,0E0,7.0329605E1,7.2877115E-1,0E0,0E0,0E0,0E0,0E0],"parents":[2147483647,0,0,1,1,2,2,5,5,6,6,7,7,11,11,12,12,14,14,15,15],"right_children":[2,4,6,-1,-1,8,10,12,-1,-1,-1,14,16,-1,18,20,-1,-1,-1,-1,-1],"split_conditions":[4.2822084E-1,5.0004554E-1,1.13140106E-1,-5.405547E-2,8.284588E-2,6.964892E-2,4.1950345E-3,6.937444E-3,1.0924126E-1,7.797421E-2,-5.428448E-2,5E-1,9.364584E-3,1.0294529E-1,1.7403962E-1,5.000366E-1,1.075416E-1,9.742338E-3,1.06703036E-1,-3.4864568E-3,6.6819765E-2],"split_indices":[15,18,21,0,0,39,90,86,0,0,0,61,23,0,34,72,0,0,0,0,0],"split_type":[0,0,0,0,0,0,0,0,0,0,0,0,0,0,0,0,0,0,0,0,0],"sum_hessian":[3.905864E3,4.5730045E2,3.4485637E3,4.5180295E2,5.4975076E0,2.8999924E3,5.485712E2,2.8217346E3,7.825785E1,7.327699E1,4.7529425E2,2.734649E3,8.708552E1,8.4359764E1,2.6502893E3,4.7146745E0,8.237084E1,2.5742256E3,7.606368E1,2.7170827E0,1.9975916E0],"tree_param":{"num_deleted":"0","num_feature":"105","num_nodes":"21","size_leaf_vector":"1"}},{"base_weights":[3.681745E-2,1.2331422E-1,-5.596136E-1,2.3434184E-1,-5.41448E-1,-5.3643722E-2,-6.929948E-2,2.618856E-1,-6.73796E-1,3.1065863E-1,-5.4886806E-1,-7.9572745E-2,2.873456E-1,2.8204852E-1,-7.4651584E-2,4.5058493E-2,-2.636654E-3,-6.2958516E-2,-5.3630393E-2,-7.951405E-2,3.1343615E-1,4.896943E-1,-1.7328924E-2,-7.1034096E-2,3.421746E-2,7.254283E-2,-6.2394296E-3],"categories":[],"categories_nodes":[],"categories_segments":[],"categories_sizes":[],"default_left":[0,0,0,0,0,0,0,0,0,0,0,0,0,0,0,0,0,0,0,0,0,0,0,0,0,0,0],"id":60,"left_children":[1,3,5,7,9,-1,-1,11,13,15,17,-1,19,21,-1,-1,-1,-1,-1,-1,23,25,-1,-1,-1,-1,-1],"loss_changes":[1.974003E2,2.4674512E2,1.1264343E0,7.181241E1,3.1959686E0,0E0,0E0,7.509329E1,6.089916E0,2.367993E-1,1.4381409E-1,0E0,7.694734E1,7.188975E-1,0E0,0E0,0E0,0E0,0E0,0E0,7.828372E1,6.7868567E-1,0E0,0E0,0E0,0E0,0E0],"parents":[2147483647,0,0,1,1,2,2,3,3,4,4,7,7,8,8,9,9,10,10,12,12,13,13,20,20,21,21],"right_children":[2,4,6,8,10,-1,-1,12,14,16,18,-1,20,22,-1,-1,-1,-1,-1,-1,24,26,-1,-1,-1,-1,-1],"split_conditions":[2.9802322E-8,4.1950345E-3,4.2603624E-1,4.445851E-3,5.4906195E-1,-5.3643722E-2,-6.929948E-2,4.898177E-1,6.122537E-1,5.2857053E-1,1.13140106E-1,-7.9572745E-2,4.97202E-1,7.231808E-5,-7.4651584E-2,4.5058493E-2,-2.636654E-3,-6.2958516E-2,-5.3630393E-2,-7.951405E-2,4.8984608E-1,1.835823E-5,-1.7328924E-2,-7.1034096E-2,3.421746E-2,7.254283E-2,-6.2394296E-3],"split_indices":[36,90,12,92,69,0,0,53,71,0,21,0,46,32,0,0,0,0,0,0,47,102,0,0,0,0,0],"split_type":[0,0,0,0,0,0,0,0,0,0,0,0,0,0,0,0,0,0,0,0,0,0,0,0,0,0,0],"sum_hessian":[3.8240388E3,3.340395E3,4.8364392E2,2.8628872E3,4.775078E2,4.1632495E2,6.731896E1,2.7793027E3,8.358446E1,3.7694082E0,4.737384E2,6.4622345E1,2.7146804E3,5.705931E0,7.787853E1,2.4254582E0,1.34395E0,5.719342E1,4.1654498E2,6.3196835E1,2.6514836E3,3.8670182E0,1.838913E0,7.174985E1,2.5797336E3,2.489897E0,1.3771212E0],"tree_param":{"num_deleted":"0","num_feature":"105","num_nodes":"27","size_leaf_vector":"1"}},{"base_weights":[-5.47294E-2,-5.4671343E-2,5.944238E-1,-5.5788614E-2,6.3281214E-1,-3.4468118E-2,6.346909E-2],"categories":[],"categories_nodes":[],"categories_segments":[],"categories_sizes":[],"default_left":[0,0,0,0,0,0,0],"id":61,"left_children":[1,-1,3,-1,5,-1,-1],"loss_changes":[8.187431E2,0E0,4.9246124E1,0E0,2.1839905E0,0E0,0E0],"parents":[2147483647,0,0,2,2,4,4],"right_children":[2,-1,4,-1,6,-1,-1],"split_conditions":[4.1950345E-3,-5.4671343E-2,4.6834695E-1,-5.5788614E-2,5.4906195E-1,-3.4468118E-2,6.346909E-2],"split_indices":[90,0,48,0,69,0,0],"split_type":[0,0,0,0,0,0,0],"sum_hessian":[2.561578E3,1.4572821E3,1.1042958E3,3.516644E1,1.0691293E3,1.7009027E0,1.0674285E3],"tree_param":{"num_deleted":"0","num_feature":"105","num_nodes":"7","size_leaf_vector":"1"}},{"base_weights":[-5.9159644E-2,6.31206E-1,-5.4728474E-2,6.323395E-2,-2.7659139E-2],"categories":[],"categories_nodes":[],"categories_segments":[],"categories_sizes":[],"default_left":[0,0,0,0,0],"id":62,"left_children":[1,3,-1,-1,-1],"loss_changes":[8.5610034E2,1.2576294E0,0E0,0E0,0E0],"parents":[2147483647,0,0,1,1],"right_children":[2,4,-1,-1,-1],"split_conditions":[4.2603624E-1,4.2822084E-1,-5.4728474E-2,6.323395E-2,-2.7659139E-2],"split_indices":[12,15,0,0,0],"split_type":[0,0,0,0,0],"sum_hessian":[2.5384465E3,1.0512908E3,1.4871559E3,1.0502828E3,1.0079446E0],"tree_param":{"num_deleted":"0","num_feature":"105","num_nodes":"5","size_leaf_vector":"1"}},{"base_weights":[4.116561E-2,-5.195622E-1,1.113452E-1,-5.3649344E-2,7.603207E-2,1.8641937E-1,-4.1151863E-1,9.887163E-2,1.6097595E-1,4.083191E-1,-5.149025E-1,1.3727978E-1,1.0828189E-1,1.77209E-1,6.73875E-2,7.916282E-2,-5.362379E-2,1.1077521E-1,1.1324534E-1,6.347415E-2,1.1733966E-1,1.8903048E-1,-4.521563E-2,8.9065395E-3,1.1218665E-1,-2.9881466E-2,2.3077456E-2,8.163422E-3,5.7891525E-2],"categories":[],"categories_nodes":[],"categories_segments":[],"categories_sizes":[],"default_left":[0,0,0,0,0,0,0,0,0,0,0,0,0,0,0,0,0,0,0,0,0,0,0,0,0,0,0,0,0],"id":63,"left_children":[1,3,5,-1,-1,7,9,-1,11,13,15,17,-1,19,-1,21,-1,-1,23,-1,25,27,-1,-1,-1,-1,-1,-1,-1],"loss_changes":[1.5015521E2,9.605934E0,1.3317767E2,0E0,0E0,6.0381348E1,3.632086E1,0E0,6.2670456E1,2.842845E0,4.8433075E0,6.52973E1,0E0,6.69599E-1,0E0,9.029079E-1,0E0,0E0,6.668016E1,0E0,1.2608056E0,4.68144E-1,0E0,0E0,0E0,0E0,0E0,0E0,0E0],"parents":[2147483647,0,0,1,1,2,2,5,5,6,6,8,8,9,9,10,10,11,11,13,13,15,15,18,18,20,20,21,21],"right_children":[2,4,6,-1,-1,8,10,-1,12,14,16,18,-1,20,-1,22,-1,-1,24,-1,26,28,-1,-1,-1,-1,-1,-1,-1],"split_conditions":[4.2822084E-1,5.0004554E-1,5.282861E-1,-5.3649344E-2,7.603207E-2,4.6103534E-1,5.3669614E-1,9.887163E-2,1.9720215E-1,5.3130376E-1,1.13140106E-1,4.97202E-1,1.0828189E-1,5.001581E-1,6.73875E-2,5.9828633E-1,-5.362379E-2,1.1077521E-1,8.178554E-1,6.347415E-2,1.0575589E-3,5.9549814E-1,-4.521563E-2,8.9065395E-3,1.1218665E-1,-2.9881466E-2,2.3077456E-2,8.163422E-3,5.7891525E-2],"split_indices":[15,18,0,0,0,43,69,0,41,0,21,46,0,60,0,8,0,0,77,0,28,2,0,0,0,0,0,0,0],"split_type":[0,0,0,0,0,0,0,0,0,0,0,0,0,0,0,0,0,0,0,0,0,0,0,0,0,0,0,0,0],"sum_hessian":[3.8132585E3,4.234592E2,3.3897993E3,4.1850375E2,4.9554534E0,2.9647554E3,4.2504395E2,8.996815E1,2.874787E3,4.7266808E1,3.7777713E2,2.8038623E3,7.092495E1,2.6163948E1,2.1102858E1,1.3003247E1,3.647739E2,6.667179E1,2.7371904E3,1.9163946E0,2.4247553E1,1.130897E1,1.6942767E0,2.6741702E3,6.3020287E1,4.84364E0,1.9403913E1,9.814801E0,1.4941697E0],"tree_param":{"num_deleted":"0","num_feature":"105","num_nodes":"29","size_leaf_vector":"1"}},{"base_weights":[3.8962968E-2,-5.5629826E-1,1.2085491E-1,-5.2172935E-1,-7.4363284E-2,2.2359946E-1,-5.451535E-1,-5.3272467E-2,3.0179527E-1,2.4915355E-1,-6.8898565E-1,-6.224506E-2,-5.3251494E-2,4.6168718E-1,-8.768252E-3,2.7406958E-1,-7.5367264E-2,-7.246722E-2,3.5880256E-2,6.387004E-2,1.6795773E-3,-7.749051E-2,2.9953188E-1,3.2715112E-2,-7.409457E-2],"categories":[],"categories_nodes":[],"categories_segments":[],"categories_sizes":[],"default_left":[0,0,0,0,0,0,0,0,0,0,0,0,0,0,0,0,0,0,0,0,0,0,0,0,0],"id":64,"left_children":[1,3,5,7,-1,9,11,-1,13,15,17,-1,-1,19,-1,21,-1,-1,-1,-1,-1,-1,23,-1,-1],"loss_changes":[1.8257628E2,2.545395E0,2.2539188E2,3.6536942E0,0E0,6.669888E1,9.864807E-2,0E0,3.9674354E-1,6.9563705E1,3.1755524E0,0E0,0E0,3.2124382E-1,0E0,7.259367E1,0E0,0E0,0E0,0E0,0E0,0E0,7.627379E1,0E0,0E0],"parents":[2147483647,0,0,1,1,2,2,3,3,5,5,6,6,8,8,9,9,10,10,13,13,15,15,22,22],"right_children":[2,4,6,8,-1,10,12,-1,14,16,18,-1,-1,20,-1,22,-1,-1,-1,-1,-1,-1,24,-1,-1],"split_conditions":[5.0002563E-1,5.842345E-1,1.1349927E-1,4.2603624E-1,-7.4363284E-2,3.8185716E-4,4.6834695E-1,-5.3272467E-2,6.386261E-5,1.7403962E-1,5.841783E-1,-6.224506E-2,-5.3251494E-2,4.9801394E-1,-8.768252E-3,4.898177E-1,-7.5367264E-2,-7.246722E-2,3.5880256E-2,6.387004E-2,1.6795773E-3,-7.749051E-2,1.8349168E-1,3.2715112E-2,-7.409457E-2],"split_indices":[60,81,27,12,0,94,48,0,30,34,18,0,0,0,0,53,0,0,0,0,0,0,37,0,0],"split_type":[0,0,0,0,0,0,0,0,0,0,0,0,0,0,0,0,0,0,0,0,0,0,0,0,0],"sum_hessian":[3.7429985E3,4.519613E2,3.2910374E3,3.8474857E2,6.721274E1,2.8517625E3,4.3927475E2,3.800277E2,4.720842E0,2.7747903E3,7.697235E1,5.4950287E1,3.8432446E2,3.2154188E0,1.505423E0,2.7082288E3,6.6561424E1,7.473532E1,2.237028E0,1.9885738E0,1.2268451E0,6.3482765E1,2.644746E3,2.577025E3,6.772101E1],"tree_param":{"num_deleted":"0","num_feature":"105","num_nodes":"25","size_leaf_vector":"1"}},{"base_weights":[-5.760021E-2,-5.440684E-2,5.938144E-1,-5.1582932E-2,6.1943305E-1,8.121655E-3,6.1996352E-2],"categories":[],"categories_nodes":[],"categories_segments":[],"categories_sizes":[],"default_left":[0,0,0,0,0,0,0],"id":65,"left_children":[1,-1,3,-1,5,-1,-1],"loss_changes":[7.6497186E2,0E0,2.9658722E1,0E0,2.3782349E-1,0E0,0E0],"parents":[2147483647,0,0,2,2,4,4],"right_children":[2,-1,4,-1,6,-1,-1],"split_conditions":[4.560232E-3,-5.440684E-2,5.4906195E-1,-5.1582932E-2,4.6516204E-1,8.121655E-3,6.1996352E-2],"split_indices":[84,0,69,0,42,0,0],"split_type":[0,0,0,0,0,0,0],"sum_hessian":[2.4119597E3,1.380892E3,1.0310679E3,2.2835562E1,1.0082323E3,1.1445491E0,1.00708777E3],"tree_param":{"num_deleted":"0","num_feature":"105","num_nodes":"7","size_leaf_vector":"1"}},{"base_weights":[-6.260719E-2,6.162707E-1,-5.4398883E-2,6.1761286E-2,-2.9263368E-2],"categories":[],"categories_nodes":[],"categories_segments":[],"categories_sizes":[],"default_left":[0,0,0,0,0],"id":66,"left_children":[1,3,-1,-1,-1],"loss_changes":[7.8112946E2,1.390564E0,0E0,0E0,0E0],"parents":[2147483647,0,0,1,1],"right_children":[2,4,-1,-1,-1],"split_conditions":[4.2603624E-1,4.2822084E-1,-5.4398883E-2,6.1761286E-2,-2.9263368E-2],"split_indices":[12,15,0,0,0],"split_type":[0,0,0,0,0],"sum_hessian":[2.388216E3,9.9073395E2,1.397482E3,9.8959314E2,1.1408144E0],"tree_param":{"num_deleted":"0","num_feature":"105","num_nodes":"5","size_leaf_vector":"1"}},{"base_weights":[4.7206435E-2,-5.1900524E-1,1.1276153E-1,-5.3279262E-2,6.223019E-2,1.8718773E-1,-3.466033E-1,1.0246482E-1,1.636943E-1,7.3697335E-1,-5.3531736E-2,1.3885196E-1,1.01913214E-1,7.464305E-2,1.0006132E-2,1.0057999E-1,1.125929E-1,8.572201E-3,1.0206181E-1],"categories":[],"categories_nodes":[],"categories_segments":[],"categories_sizes":[],"default_left":[0,0,0,0,0,0,0,0,0,0,0,0,0,0,0,0,0,0,0],"id":67,"left_children":[1,3,5,-1,-1,7,9,-1,11,13,-1,15,-1,-1,-1,-1,17,-1,-1],"loss_changes":[1.3944374E2,6.465843E0,1.1515634E2,0E0,0E0,5.6842674E1,9.644559E1,0E0,5.978129E1,3.4750366E-1,0E0,6.2293896E1,0E0,0E0,0E0,0E0,6.486064E1,0E0,0E0],"parents":[2147483647,0,0,1,1,2,2,5,5,6,6,8,8,9,9,11,11,16,16],"right_children":[2,4,6,-1,-1,8,10,-1,12,14,-1,16,-1,-1,-1,-1,18,-1,-1],"split_conditions":[4.2603624E-1,4.2822084E-1,1.13140106E-1,-5.3279262E-2,6.223019E-2,4.953283E-1,1.1349927E-1,1.0246482E-1,1.8349168E-1,5.302087E-1,-5.3531736E-2,5E-1,1.01913214E-1,7.464305E-2,1.0006132E-2,1.0057999E-1,1.8328086E-1,8.572201E-3,1.0206181E-1],"split_indices":[12,15,21,0,0,45,27,0,37,6,0,54,0,0,0,0,38,0,0],"split_type":[0,0,0,0,0,0,0,0,0,0,0,0,0,0,0,0,0,0,0],"sum_hessian":[3.7541863E3,3.888343E2,3.365352E3,3.847199E2,4.1143727E0,2.8966328E3,4.6871936E2,7.787952E1,2.8187532E3,6.909243E1,3.9962692E2,2.7403347E3,7.8418365E1,6.7912094E1,1.1803405E0,7.946544E1,2.6608694E3,2.5854534E3,7.5416046E1],"tree_param":{"num_deleted":"0","num_feature":"105","num_nodes":"19","size_leaf_vector":"1"}},{"base_weights":[3.3810817E-2,1.10587455E-1,-5.572365E-1,2.0292503E-1,-5.4123056E-1,-5.293792E-2,-6.901654E-2,-7.059412E-2,2.2841567E-1,-6.1220374E-2,-5.2930504E-2,2.5386113E-1,-7.508856E-2,2.7957922E-1,-7.853929E-2,3.0776886E-2,-7.300418E-2],"categories":[],"categories_nodes":[],"categories_segments":[],"categories_sizes":[],"default_left":[0,0,0,0,0,0,0,0,0,0,0,0,0,0,0,0,0],"id":68,"left_children":[1,3,5,7,9,-1,-1,-1,11,-1,-1,13,-1,15,-1,-1,-1],"loss_changes":[1.6676295E2,1.958429E2,1.199173E0,6.617184E1,1.7730713E-2,0E0,0E0,0E0,6.927266E1,0E0,0E0,7.245976E1,0E0,7.531273E1,0E0,0E0,0E0],"parents":[2147483647,0,0,1,1,2,2,3,3,4,4,8,8,11,11,13,13],"right_children":[2,4,6,8,10,-1,-1,-1,12,-1,-1,14,-1,16,-1,-1,-1],"split_conditions":[2.9802322E-8,1.13140106E-1,4.2603624E-1,4.8984608E-1,4.1950345E-3,-5.293792E-2,-6.901654E-2,-7.059412E-2,1.8401597E-1,-6.1220374E-2,-5.2930504E-2,1.8631022E-1,-7.508856E-2,6.964892E-2,-7.853929E-2,3.0776886E-2,-7.300418E-2],"split_indices":[36,21,12,47,90,0,0,0,30,0,0,35,0,39,0,0,0],"split_type":[0,0,0,0,0,0,0,0,0,0,0,0,0,0,0,0,0],"sum_hessian":[3.672565E3,3.2510664E3,4.214984E2,2.8482654E3,4.0280112E2,3.5259018E2,6.890822E1,7.697666E1,2.7712888E3,5.0704327E1,3.520968E2,2.7018271E3,6.946157E1,2.637294E3,6.453332E1,2.5663345E3,7.095945E1],"tree_param":{"num_deleted":"0","num_feature":"105","num_nodes":"17","size_leaf_vector":"1"}},{"base_weights":[-6.414423E-2,-5.4101437E-2,5.821754E-1,-5.0947215E-2,6.0630213E-2],"categories":[],"categories_nodes":[],"categories_segments":[],"categories_sizes":[],"default_left":[0,0,0,0,0],"id":69,"left_children":[1,-1,3,-1,-1],"loss_changes":[6.899398E2,0E0,2.5341919E1,0E0,0E0],"parents":[2147483647,0,0,2,2],"right_children":[2,-1,4,-1,-1],"split_conditions":[4.560232E-3,-5.4101437E-2,5.4906195E-1,-5.0947215E-2,6.0630213E-2],"split_indices":[84,0,69,0,0],"split_type":[0,0,0,0,0],"sum_hessian":[2.2365122E3,1.287055E3,9.494572E2,2.009541E1,9.293618E2],"tree_param":{"num_deleted":"0","num_feature":"105","num_nodes":"5","size_leaf_vector":"1"}},{"base_weights":[-7.467216E-2,6.0331327E-1,-5.4078262E-2,6.0467806E-2,-2.8204009E-2],"categories":[],"categories_nodes":[],"categories_segments":[],"categories_sizes":[],"default_left":[0,0,0,0,0],"id":70,"left_children":[1,3,-1,-1,-1],"loss_changes":[6.997752E2,1.2606506E0,0E0,0E0,0E0],"parents":[2147483647,0,0,1,1],"right_children":[2,4,-1,-1,-1],"split_conditions":[4.2603624E-1,4.2822084E-1,-5.4078262E-2,6.0467806E-2,-2.8204009E-2],"split_indices":[12,15,0,0,0],"split_type":[0,0,0,0,0],"sum_hessian":[2.2123333E3,9.011958E2,1.3111373E3,9.0012537E2,1.0704914E0],"tree_param":{"num_deleted":"0","num_feature":"105","num_nodes":"5","size_leaf_vector":"1"}},{"base_weights":[4.6460707E-2,-5.1654804E-1,1.0738564E-1,-5.294271E-2,5.9229054E-2,1.7253497E-1,-3.18066E-1,1.48663E-1,1.0159122E-1,7.340669E-2,-5.22385E-1,1.2643518E-1,1.05655886E-1,5.2797183E-2,-5.318032E-2,9.347844E-2,9.9565364E-2,-4.4322032E-2,3.1951016E-1,7.2276997E-3,9.734146E-2,4.231102E-2,6.237491E-4],"categories":[],"categories_nodes":[],"categories_segments":[],"categories_sizes":[],"default_left":[0,0,0,0,0,0,0,0,0,0,0,0,0,0,0,0,0,0,0,0,0,0,0],"id":71,"left_children":[1,3,5,-1,-1,7,9,11,-1,-1,13,15,-1,17,-1,-1,19,-1,21,-1,-1,-1,-1],"loss_changes":[1.2596289E2,5.4346085E0,9.188526E1,0E0,0E0,5.770601E1,9.503641E1,5.6287186E1,0E0,0E0,2.028595E0,5.9205708E1,0E0,1.0490367E0,0E0,0E0,6.2964203E1,0E0,1.6098988E-1,0E0,0E0,0E0,0E0],"parents":[2147483647,0,0,1,1,2,2,5,5,6,6,7,7,10,10,11,11,13,13,16,16,18,18],"right_children":[2,4,6,-1,-1,8,10,12,-1,-1,14,16,-1,18,-1,-1,20,-1,22,-1,-1,-1,-1],"split_conditions":[4.2603624E-1,4.2822084E-1,5.4794884E-1,-5.294271E-2,5.9229054E-2,1.8401597E-1,5.4906195E-1,1.8631022E-1,1.0159122E-1,7.340669E-2,4.972207E-1,4.8984608E-1,1.05655886E-1,1.5969585E-4,-5.318032E-2,9.347844E-2,2.0314692E-1,-4.4322032E-2,5.4121214E-1,7.2276997E-3,9.734146E-2,4.231102E-2,6.237491E-4],"split_indices":[12,15,63,0,0,30,69,35,0,0,52,47,0,26,0,0,24,0,6,0,0,0,0],"split_type":[0,0,0,0,0,0,0,0,0,0,0,0,0,0,0,0,0,0,0,0,0,0,0],"sum_hessian":[3.6696338E3,3.5759662E2,3.312037E3,3.5400742E2,3.5892136E0,2.872731E3,4.3930624E2,2.7947998E3,7.793112E1,7.101654E1,3.682897E2,2.7291226E3,6.567727E1,5.859126E0,3.6243057E2,8.671149E1,2.642411E3,1.8174148E0,4.0417113E0,2.563443E3,7.896791E1,2.773797E0,1.2679145E0],"tree_param":{"num_deleted":"0","num_feature":"105","num_nodes":"23","size_leaf_vector":"1"}},{"base_weights":[4.0237643E-2,-5.5953187E-1,1.1350645E-1,-5.263046E-2,-7.05843E-2,2.0067158E-1,-5.4154724E-1,-7.660854E-2,2.2477108E-1,-6.2135994E-2,-5.2612282E-2,2.503708E-1,-7.441237E-2,2.7723488E-1,-7.4532576E-2,-6.760028E-2,3.075019E-2],"categories":[],"categories_nodes":[],"categories_segments":[],"categories_sizes":[],"default_left":[0,0,0,0,0,0,0,0,0,0,0,0,0,0,0,0,0],"id":72,"left_children":[1,3,5,-1,-1,7,9,-1,11,-1,-1,13,-1,15,-1,-1,-1],"loss_changes":[1.5779141E2,1.5289078E0,1.8278497E2,0E0,0E0,6.597508E1,1.3596344E-1,0E0,6.8555405E1,0E0,0E0,7.2059204E1,0E0,7.569505E1,0E0,0E0,0E0],"parents":[2147483647,0,0,1,1,2,2,5,5,6,6,8,8,11,11,13,13],"right_children":[2,4,6,-1,-1,8,10,-1,12,-1,-1,14,-1,16,-1,-1,-1],"split_conditions":[5E-1,4.2822084E-1,1.1349927E-1,-5.263046E-2,-7.05843E-2,4.615807E-1,1.0911179E-2,-7.660854E-2,1.9456604E-1,-6.2135994E-2,-5.2612282E-2,2.1105348E-1,-7.441237E-2,5.705815E-1,-7.4532576E-2,-6.760028E-2,3.075019E-2],"split_indices":[54,15,27,0,0,49,21,0,40,0,0,23,0,50,0,0,0],"split_type":[0,0,0,0,0,0,0,0,0,0,0,0,0,0,0,0,0],"sum_hessian":[3.588261E3,3.8990552E2,3.1983555E3,3.2149188E2,6.841362E1,2.8233572E3,3.7499814E2,6.792054E1,2.7554368E3,5.4371716E1,3.2062643E2,2.6852302E3,7.020639E1,2.6153882E3,6.984214E1,7.983113E1,2.5355571E3],"tree_param":{"num_deleted":"0","num_feature":"105","num_nodes":"17","size_leaf_vector":"1"}},{"base_weights":[-7.270409E-2,-5.3814154E-2,5.693514E-1,-5.0631166E-2,5.947725E-1,1.2767315E-2,5.9539676E-2],"categories":[],"categories_nodes":[],"categories_segments":[],"categories_sizes":[],"default_left":[0,0,0,0,0,0,0],"id":73,"left_children":[1,-1,3,-1,5,-1,-1],"loss_changes":[6.224195E2,0E0,2.4238068E1,0E0,1.7346191E-1,0E0,0E0],"parents":[2147483647,0,0,2,2,4,4],"right_children":[2,-1,4,-1,6,-1,-1],"split_conditions":[4.560232E-3,-5.3814154E-2,5.4906195E-1,-5.0631166E-2,4.6516204E-1,1.2767315E-2,5.9539676E-2],"split_indices":[84,0,69,0,42,0,0],"split_type":[0,0,0,0,0,0,0],"sum_hessian":[2.0807834E3,1.2064026E3,8.7438086E2,1.9750427E1,8.5463043E2,1.4148785E0,8.532156E2],"tree_param":{"num_deleted":"0","num_feature":"105","num_nodes":"7","size_leaf_vector":"1"}},{"base_weights":[-7.329739E-2,5.9083444E-1,-5.380211E-2,5.9332598E-2,-3.5720542E-2],"categories":[],"categories_nodes":[],"categories_segments":[],"categories_sizes":[],"default_left":[0,0,0,0,0],"id":74,"left_children":[1,3,-1,-1,-1],"loss_changes":[6.459359E2,2.247223E0,0E0,0E0,0E0],"parents":[2147483647,0,0,1,1],"right_children":[2,4,-1,-1,-1],"split_conditions":[4.2822084E-1,5.0004554E-1,-5.380211E-2,5.9332598E-2,-3.5720542E-2],"split_indices":[15,18,0,0,0],"split_type":[0,0,0,0,0],"sum_hessian":[2.0908308E3,8.6063495E2,1.2301958E3,8.587522E2,1.8827319E0],"tree_param":{"num_deleted":"0","num_feature":"105","num_nodes":"5","size_leaf_vector":"1"}},{"base_weights":[4.785072E-2,-5.1432925E-1,1.031552E-1,-5.263403E-2,5.608387E-2,1.6174118E-1,-3.2730445E-1,1.019023E-1,1.3937007E-1,7.0472494E-2,-5.283571E-2,1.16111204E-1,1.0205039E-1,9.0505265E-2,9.701723E-2,9.351542E-2,6.2506767E-3],"categories":[],"categories_nodes":[],"categories_segments":[],"categories_sizes":[],"default_left":[0,0,0,0,0,0,0,0,0,0,0,0,0,0,0,0,0],"id":75,"left_children":[1,3,5,-1,-1,7,9,-1,11,-1,-1,13,-1,15,-1,-1,-1],"loss_changes":[1.1300479E2,4.4992676E0,8.348674E1,0E0,0E0,5.57191E1,8.267697E1,0E0,5.808094E1,0E0,0E0,6.044346E1,0E0,6.351999E1,0E0,0E0,0E0],"parents":[2147483647,0,0,1,1,2,2,5,5,6,6,8,8,11,11,13,13],"right_children":[2,4,6,-1,-1,8,10,-1,12,-1,-1,14,-1,16,-1,-1,-1],"split_conditions":[4.2603624E-1,5.0004554E-1,1.13140106E-1,-5.263403E-2,5.608387E-2,4.898177E-1,4.1950345E-3,1.019023E-1,1.9720215E-1,7.0472494E-2,-5.283571E-2,1.8328086E-1,1.0205039E-1,4.6103534E-1,9.701723E-2,9.351542E-2,6.2506767E-3],"split_indices":[12,18,21,0,0,53,90,0,41,0,0,38,0,43,0,0,0],"split_type":[0,0,0,0,0,0,0,0,0,0,0,0,0,0,0,0,0],"sum_hessian":[3.6319312E3,3.2454752E2,3.3073838E3,3.214668E2,3.0807443E0,2.91172E3,3.9566364E2,7.2917114E1,2.838803E3,6.410404E1,3.315596E2,2.7668982E3,7.190473E1,2.6874314E3,7.946695E1,8.518547E1,2.6022458E3],"tree_param":{"num_deleted":"0","num_feature":"105","num_nodes":"17","size_leaf_vector":"1"}},{"base_weights":[4.4989165E-2,-5.4946333E-1,1.1365689E-1,-5.081198E-1,-7.227266E-2,1.9374764E-1,-5.299456E-1,-5.234747E-2,2.309518E-1,2.1718164E-1,-7.357192E-2,1.7059314E-1,-5.3897554E-1,-2.0255942E-2,5.040269E-2,-7.087004E-2,2.424756E-1,3.9396655E-2,-1.6007332E-2,-6.136444E-2,-5.234384E-2,9.390006E-3,-1.4706068E-2,2.6842767E-1,-7.274337E-2,2.9740835E-2,-6.706709E-2],"categories":[],"categories_nodes":[],"categories_segments":[],"categories_sizes":[],"default_left":[0,0,0,0,0,0,0,0,0,0,0,0,0,0,0,0,0,0,0,0,0,0,0,0,0,0,0],"id":76,"left_children":[1,3,5,7,-1,9,11,-1,13,15,-1,17,19,21,-1,-1,23,-1,-1,-1,-1,-1,-1,25,-1,-1,-1],"loss_changes":[1.4339133E2,2.2385788E0,1.6239691E2,3.4920273E0,0E0,6.1164032E1,2.2978363E0,0E0,4.7255874E-1,6.41691E1,0E0,4.469443E-1,7.847595E-2,7.854187E-2,0E0,0E0,6.7169586E1,0E0,0E0,0E0,0E0,0E0,0E0,7.074655E1,0E0,0E0,0E0],"parents":[2147483647,0,0,1,1,2,2,3,3,5,5,6,6,8,8,9,9,11,11,12,12,13,13,16,16,23,23],"right_children":[2,4,6,8,-1,10,12,-1,14,16,-1,18,20,22,-1,-1,24,-1,-1,-1,-1,-1,-1,26,-1,-1,-1],"split_conditions":[5.0002563E-1,5.842345E-1,4.1950345E-3,4.2603624E-1,-7.227266E-2,2.0314692E-1,5.4906195E-1,-5.234747E-2,5.978459E-1,4.6103534E-1,-7.357192E-2,1.0723057E-4,1.13140106E-1,5.0166136E-1,5.040269E-2,-7.087004E-2,1.9456604E-1,3.9396655E-2,-1.6007332E-2,-6.136444E-2,-5.234384E-2,9.390006E-3,-1.4706068E-2,4.445851E-3,-7.274337E-2,2.9740835E-2,-6.706709E-2],"split_indices":[60,81,90,12,0,24,69,0,8,43,0,32,21,1,0,0,40,0,0,0,0,0,0,92,0,0,0],"split_type":[0,0,0,0,0,0,0,0,0,0,0,0,0,0,0,0,0,0,0,0,0,0,0,0,0,0,0],"sum_hessian":[3.5102668E3,3.627717E2,3.147495E3,2.960596E2,6.6712105E1,2.7997852E3,3.4771002E2,2.9031967E2,5.739925E0,2.7316794E3,6.81056E1,4.1972647E0,3.4351276E2,3.471885E0,2.26804E0,7.1923164E1,2.6597563E3,2.390793E0,1.8064716E0,5.2536446E1,2.909763E2,1.9636233E0,1.5082616E0,2.5911477E3,6.860866E1,2.5142412E3,7.690638E1],"tree_param":{"num_deleted":"0","num_feature":"105","num_nodes":"27","size_leaf_vector":"1"}},{"base_weights":[-7.0828445E-2,-5.355966E-2,5.621786E-1,-4.9956504E-2,5.8521967E-2],"categories":[],"categories_nodes":[],"categories_segments":[],"categories_sizes":[],"default_left":[0,0,0,0,0],"id":77,"left_children":[1,-1,3,-1,-1],"loss_changes":[5.753483E2,0E0,2.0548645E1,0E0,0E0],"parents":[2147483647,0,0,2,2],"right_children":[2,-1,4,-1,-1],"split_conditions":[4.560232E-3,-5.355966E-2,5.4906195E-1,-4.9956504E-2,5.8521967E-2],"split_indices":[84,0,69,0,0],"split_type":[0,0,0,0,0],"sum_hessian":[1.9536029E3,1.1265894E3,8.270136E2,1.712668E1,8.0988696E2],"tree_param":{"num_deleted":"0","num_feature":"105","num_nodes":"5","size_leaf_vector":"1"}},{"base_weights":[-7.871687E-2,5.8214253E-1,-5.3542413E-2,5.832777E-2,2.5896364E-1,4.191945E-2,-1.40392855E-2],"categories":[],"categories_nodes":[],"categories_segments":[],"categories_sizes":[],"default_left":[0,0,0,0,0,0,0],"id":78,"left_children":[1,3,-1,-1,5,-1,-1],"loss_changes":[5.838742E2,1.3900757E-1,0E0,0E0,3.5101765E-1,0E0,0E0],"parents":[2147483647,0,0,1,1,4,4],"right_children":[2,4,-1,-1,6,-1,-1],"split_conditions":[4.2603624E-1,1.1679025E-1,-5.3542413E-2,5.832777E-2,1.9960904E-1,4.191945E-2,-1.40392855E-2],"split_indices":[12,60,0,0,33,0,0],"split_type":[0,0,0,0,0,0,0],"sum_hessian":[1.932483E3,7.896206E2,1.1428624E3,7.8605475E2,3.5658584E0,2.5093682E0,1.0564902E0],"tree_param":{"num_deleted":"0","num_feature":"105","num_nodes":"7","size_leaf_vector":"1"}},{"base_weights":[5.107224E-2,-5.1121473E-1,1.0229312E-1,-5.2352455E-2,5.3417828E-2,1.5555356E-1,-3.667594E-1,1.32258E-1,9.223754E-1,2.8611603E-1,-5.1402855E-1,1.09627694E-1,9.706881E-2,9.31605E-1,2.3232423E-2,1.4517796E-1,6.1740614E-2,2.8657666E-1,-5.234149E-2,9.7928666E-2,8.617958E-2,2.553407E-2,9.402181E-2,5.710196E-1,4.775614E-2,-6.7217797E-3,5.0702143E-2,6.0765045E-3,9.505758E-2,1.3766068E-2,6.7473575E-2,-5.3058937E-3,6.512039E-2],"categories":[],"categories_nodes":[],"categories_segments":[],"categories_sizes":[],"default_left":[0,0,0,0,0,0,0,0,0,0,0,0,0,0,0,0,0,0,0,0,0,0,0,0,0,0,0,0,0,0,0,0,0],"id":79,"left_children":[1,3,5,-1,-1,7,9,11,13,15,17,19,-1,21,-1,23,-1,25,-1,-1,27,-1,-1,29,31,-1,-1,-1,-1,-1,-1,-1,-1],"loss_changes":[1.0230126E2,4.096039E0,8.136429E1,0E0,0E0,5.2101486E1,3.2085155E1,5.374989E1,3.3146667E-1,2.794972E0,2.1894608E0,5.6298416E1,0E0,2.524643E-1,0E0,1.825057E0,0E0,3.2976273E-1,0E0,0E0,5.9112972E1,0E0,0E0,2.766447E-1,2.3115206E0,0E0,0E0,0E0,0E0,0E0,0E0,0E0,0E0],"parents":[2147483647,0,0,1,1,2,2,5,5,6,6,7,7,8,8,9,9,10,10,11,11,13,13,15,15,17,17,20,20,23,23,24,24],"right_children":[2,4,6,-1,-1,8,10,12,14,16,18,20,-1,22,-1,24,-1,26,-1,-1,28,-1,-1,30,32,-1,-1,-1,-1,-1,-1,-1,-1],"split_conditions":[4.2603624E-1,4.2822084E-1,5.2765524E-1,-5.2352455E-2,5.3417828E-2,6.937444E-3,4.1950345E-3,1.9720215E-1,3.9514303E-3,1.13140106E-1,5.4794884E-1,4.615807E-1,9.706881E-2,6.8737175E-3,2.3232423E-2,4.9425825E-1,6.1740614E-2,4.906687E-1,-5.234149E-2,9.7928666E-2,6.964892E-2,2.553407E-2,9.402181E-2,4.8291916E-1,5.008505E-1,-6.7217797E-3,5.0702143E-2,6.0765045E-3,9.505758E-2,1.3766068E-2,6.7473575E-2,-5.3058937E-3,6.512039E-2],"split_indices":[12,15,0,0,0,86,90,41,92,21,63,49,0,23,0,47,0,7,0,0,39,0,0,7,73,0,0,0,0,0,0,0,0],"split_type":[0,0,0,0,0,0,0,0,0,0,0,0,0,0,0,0,0,0,0,0,0,0,0,0,0,0,0,0,0,0,0,0,0],"sum_hessian":[3.5492083E3,2.9556845E2,3.2536396E3,2.9262198E2,2.9464803E0,2.922465E3,3.3117468E2,2.837438E3,8.502716E1,6.0780243E1,2.7039444E2,2.7639658E3,7.347221E1,8.355948E1,1.4676846E0,4.3649155E1,1.7131086E1,2.7911754E0,2.6760327E2,7.149643E1,2.6924692E3,1.4362546E0,8.212322E1,7.221567E0,3.6427586E1,1.3383394E0,1.4528359E0,2.6166074E3,7.586184E1,1.8440063E0,5.377561E0,3.1994495E1,4.433091E0],"tree_param":{"num_deleted":"0","num_feature":"105","num_nodes":"33","size_leaf_vector":"1"}},{"base_weights":[3.6881465E-2,1.0059262E-1,-5.5675775E-1,1.7312056E-1,-5.293771E-1,-5.209401E-2,-6.927793E-2,-7.979119E-2,1.9682987E-1,-2.034493E-1,-5.3691095E-1,2.220504E-1,-7.349143E-2,3.7659895E-2,-4.7192585E-2,-6.080171E-2,-5.2086234E-2,2.496745E-1,-6.8974745E-1,2.7650628E-2,-7.652771E-2,-7.355249E-2,3.0300215E-2],"categories":[],"categories_nodes":[],"categories_segments":[],"categories_sizes":[],"default_left":[0,0,0,0,0,0,0,0,0,0,0,0,0,0,0,0,0,0,0,0,0,0,0],"id":80,"left_children":[1,3,5,7,9,-1,-1,-1,11,13,15,17,-1,-1,-1,-1,-1,19,21,-1,-1,-1,-1],"loss_changes":[1.3115564E2,1.4315605E2,1.276619E0,6.4819275E1,6.851578E-1,0E0,0E0,0E0,6.4609665E1,1.5667213E0,4.345703E-2,6.74483E1,0E0,0E0,0E0,0E0,0E0,7.083191E1,3.804325E0,0E0,0E0,0E0,0E0],"parents":[2147483647,0,0,1,1,2,2,3,3,4,4,8,8,9,9,10,10,11,11,17,17,18,18],"right_children":[2,4,6,8,10,-1,-1,-1,12,14,16,18,-1,-1,-1,-1,-1,20,22,-1,-1,-1,-1],"split_conditions":[2.9802322E-8,4.1950345E-3,4.2603624E-1,4.97202E-1,4.6998668E-1,-5.209401E-2,-6.927793E-2,-7.979119E-2,1.8401597E-1,5.2857053E-1,1.0911179E-2,3.8185716E-4,-7.349143E-2,3.7659895E-2,-4.7192585E-2,-6.080171E-2,-5.2086234E-2,1.7403962E-1,4.972207E-1,2.7650628E-2,-7.652771E-2,-7.355249E-2,3.0300215E-2],"split_indices":[36,90,12,46,90,0,0,0,30,0,21,94,0,0,0,0,0,34,52,0,0,0,0],"split_type":[0,0,0,0,0,0,0,0,0,0,0,0,0,0,0,0,0,0,0,0,0,0,0],"sum_hessian":[3.465278E3,3.1301694E3,3.3510867E2,2.8076519E3,3.2251764E2,2.6908258E2,6.6026085E1,6.614108E1,2.7415107E3,7.9192853E0,3.1459836E2,2.6700005E3,7.1510124E1,2.3782687E0,